module.exports.net = function anonymous(rawInput,isSampleI,temperature
) {

  if (typeof rawInput === 'undefined') rawInput = [];
  if (typeof isSampleI === 'undefined') isSampleI = false;
  if (typeof temperature === 'undefined') temperature = 1;
  var json = {"type":"LSTM","options":{"inputSize":59,"inputRange":59,"hiddenLayers":[20,20],"outputSize":59,"decayRate":0.999,"smoothEps":1e-8,"regc":0.000001,"clipval":5,"maxPredictionLength":100,"dataFormatter":{"indexTable":{"A":0,"a":1,"m":2,"o":3,"n":4,"b":5,"d":6,"p":7,"l":8,"y":9,"e":10,"z":11,"t":12,"h":13,"i":14,"u":15,"r":16,"x":17,"s":18,"c":19,"g":20," ":21,"M":22,"H":23,"k":24,"v":25,"q":26,"f":27,"D":28,"B":29,"R":30,"j":31,"ū":32,"C":33,"K":34,"P":35,"-":36,"S":37,"E":38,"I":39,"F":40,"G":41,"L":42,"J":43,"İ":44,"N":45,"O":46,"Ö":47,"ö":48,"T":49,"Q":50,"í":51,"U":52,"V":53,"W":54,"X":55,"Y":56,"Z":57,"unrecognized":58},"characterTable":{"0":"A","1":"a","2":"m","3":"o","4":"n","5":"b","6":"d","7":"p","8":"l","9":"y","10":"e","11":"z","12":"t","13":"h","14":"i","15":"u","16":"r","17":"x","18":"s","19":"c","20":"g","21":" ","22":"M","23":"H","24":"k","25":"v","26":"q","27":"f","28":"D","29":"B","30":"R","31":"j","32":"ū","33":"C","34":"K","35":"P","36":"-","37":"S","38":"E","39":"I","40":"F","41":"G","42":"L","43":"J","44":"İ","45":"N","46":"O","47":"Ö","48":"ö","49":"T","50":"Q","51":"í","52":"U","53":"V","54":"W","55":"X","56":"Y","57":"Z","58":null},"values":["Aamon","Amon","Abaddon","Apollyon","Abezethibou","Abraxas","Abyzou","Achlys","Adrammelech","Aeshma","Agaliarept","Agrat bat Mahlat","Agares","Agiel","Ahriman","Angra Mainyu","Aim","Haborym","Aka Manah","Akem Manah","Akoman","Akvan","Akuma","Al Ana","Ala","Alal","Alastor","Alloces","Allocer","Allu","Amaymon","Amdusias","Amy","Anammelech","Anathan","Anqa","Ancitif","Andhaka","Andras","Andrealphus","Andromalius","Anti","Antichrist","Anzu","Apaosha","Apep or Apophis","Armaros","Archon","Arunasura","Asag","Asakku","Asb","Asmodai","Asmodeus","Astaroth","Asura","Azazel","Azaz","Azi Dahaka","Dahak","Baal","Bael","Babi ngepet","Bakasura","Baku","Balam","Balberith","Bali Raj","Banshee","Baphomet","Barbas","Barbatos","Barong","Bathin","Mathim","Bathym","Marthim","Beelzebub","Belial","Beleth","Belphegor","Berith","Beherit","Bhūta","Bifrons","Boruta","Botis","Buer","Bukavac","Bune","Bushyasta","Caim","Camio","Charun","Chemosh","Choronzon","Chort","Cimejes","Kimaris","Cimeies","Corson","Crocell","Procell","Daeva","Dagon","Dajjal","Dantalion","Danjal","Decarabia","Demiurge","Demogorgon","Dev","Devil","Div-e Sepid","Djall","Drekavac","Dzoavits","Eblis","Iblis","Ibris","Eligos","Eisheth","Erlik","Focalor","Foras","Forcas","Forras","Forneus","Furcas","Forcas","Furfur","Gaap","Gader","Gadulta","Gaf","Gaki","Gamigin","Ghaddar","Ghoul","Giu","Glasya-Labolas","Caacrinolaas","Caassimolar","Classyalabolas","Glassia-labolis","Gorgon","Gremory","Gomory","Grigori","Gualichu","Guayota","Gusion","Gusoin","Gusoyn","Haagenti","Hag","Halphas","Malthus","Haures","Flauros","Flavros","Hauras","Havres","Hinn","Ifrit","Incubus","Ipos","Ipes","Jinn","Jikininki","Kali","Kabandha","Kabhanda","Kara İye","Kasadya","Kokabiel","Kore","Kroni","Krampus","Krun","Killakee Cat","Kukudh","Kulshedra","Kumbhakarna","Lamia","Latabi","Legion","Lechies","Leonard","Leyak","Lempo","Leraje","Leraie","Leviathan","Lili","Lilin","Lilim","Lilith","Ljubi","Lucifer","Lucifuge Rofocale","Mag","Marid","Malphas","Mammon","Mara","Maricha","Marax","Morax","Foraii","Marchosias","Mastema","Mazoku","Mephistopheles","Merihem","Moloch","Murmur","Naamah","Naberius","Cerbere","Naberus","Nalai","Ninurta","Niuli","Namtar","Nar as-samum","Oni","Onoskelis","Orcus","Orias","Oriax","Orobas","Ose","Ördög","O Tokata","Paimon","Pazuzu","Pelesit","Phenex","Penemue","Pithius","Pocong","Pontianak","Preta","Pruflas","Puloman","Qin","Rahab","Raum","Ronove","Rusalka","Rakshasa","Rangda","Ruha","Saleos","Samael","Salpsan","Satan","Satanachia","Scylla","Set","Seir","Semyaza","Shax","Chax","Shaitan","Shedim","Shdum","Sitri","Sthenno","Stihi","Stolas","Solas","Suanggi","Succubus","Surgat","Sut","Shinigami","Shuten Doji","Tannin","El Tío","Tengu","Titivillus","Toyol","Tuchulcha","Ukobach","Ur","Valac","Valefar","Malaphar","Malephar","Vanth","Vapula","Vassago","Vepar","Vine","Wechuge","Xaphan","Yeqon","Zabaniyya","Zagan","Zahreil","Zartai","Zartanai","Zepar","Ziminiar"],"characters":["A","a","m","o","n","b","d","p","l","y","e","z","t","h","i","u","r","x","s","c","g"," ","M","H","k","v","q","f","D","B","R","j","ū","C","K","P","-","S","E","I","F","G","L","J","İ","N","O","Ö","ö","T","Q","í","U","V","W","X","Y","Z","unrecognized"],"specialIndexes":[58]}},"trainOpts":{"iterations":1500,"errorThresh":0.4,"logPeriod":10,"learningRate":0.01,"callbackPeriod":10,"timeout":"Infinity"},"input":{"rows":60,"columns":59,"weights":[-1.0260857343673706,-0.8253508806228638,-0.45318228006362915,-1.1390904188156128,0.9823879599571228,-1.4756094217300415,-0.7339547872543335,1.234391450881958,-0.7608625888824463,0.27437683939933777,-0.946155309677124,-0.9450743198394775,1.5278236865997314,0.2727776765823364,-0.11842768639326096,-0.5387127995491028,0.15482795238494873,1.214774489402771,-0.642467200756073,0.8234425187110901,1.0641227960586548,-1.0988380908966064,-0.0013075362658128142,-0.3747439384460449,-1.4035043716430664,0.054070714861154556,0.16757850348949432,-0.963163435459137,0.7956340312957764,0.0010644425638020039,0.7632032632827759,0.28820300102233887,0.8293744325637817,1.6018006801605225,0.1832396239042282,0.2819017171859741,0.8430941104888916,-0.375845730304718,0.9464489221572876,-1.2481002807617188,-0.4452279210090637,-1.0050415992736816,-0.6588596105575562,1.126213788986206,-1.0287065505981445,0.5142850279808044,-0.058817554265260696,0.073503777384758,0.12606561183929443,0.2197922319173813,0.8322885632514954,0.9446632862091064,0.47369444370269775,0.050618577748537064,0.4027149975299835,-0.8449428677558899,0.8552700877189636,1.0228853225708008,-0.4344792366027832,0.5233811736106873,1.6431910991668701,6.058115482330322,1.4941086769104004,3.6320013999938965,2.281132459640503,5.7408318519592285,1.6501758098602295,6.928406715393066,6.471546173095703,-5.069314479827881,3.447601079940796,1.046924114227295,-2.0887575149536133,3.3968701362609863,4.435915470123291,4.947573184967041,-8.405672073364258,8.549211502075195,-5.0195207595825195,-3.5447700023651123,-2.3935933113098145,2.0489213466644287,7.567386627197266,2.612060785293579,2.2597239017486572,1.248071312904358,2.262028455734253,-0.7008758783340454,3.064075469970703,4.057605266571045,1.4835286140441895,-0.256478875875473,-4.117949485778809,3.986391544342041,-5.334037780761719,-9.94097900390625,-3.9000778198242188,-3.744807481765747,-0.8099319338798523,3.830697536468506,6.634607791900635,2.9584102630615234,-6.183908939361572,3.6327321529388428,-1.1232366561889648,5.538862228393555,2.0738627910614014,-6.074511528015137,4.794155120849609,-0.7264975309371948,-2.6887099742889404,-0.3385177552700043,2.209326982498169,-2.0539464950561523,3.864678382873535,2.7398626804351807,-0.46678629517555237,-2.1231789588928223,0.6622920036315918,-1.5407990217208862,-0.05866025388240814,0.47393688559532166,2.6412885189056396,-1.529427409172058,0.5825719833374023,-0.06565240770578384,-2.3903117179870605,-0.225176602602005,-0.16609549522399902,-0.24109984934329987,-0.5166931748390198,1.4168145656585693,-0.6166880130767822,-1.0300475358963013,-0.8395430445671082,1.1285490989685059,0.8575119376182556,1.6825259923934937,-1.2933392524719238,-3.3490662574768066,-2.2932567596435547,-0.22387222945690155,-2.5016355514526367,-0.6240193247795105,1.607769250869751,-2.3617684841156006,-0.45840615034103394,-0.7761598229408264,-0.4674346446990967,0.27868279814720154,2.6434648036956787,1.5040805339813232,-2.197253704071045,-1.0905241966247559,1.02250075340271,0.8081899881362915,3.2324841022491455,-4.409634113311768,-2.6716957092285156,-2.8084652423858643,-0.9243282079696655,1.529618501663208,-2.7501940727233887,1.4316504001617432,-1.2313776016235352,-1.4284285306930542,1.3989218473434448,-0.013260687701404095,-0.7886517643928528,2.705066442489624,1.3765101432800293,-1.2704344987869263,-0.23015552759170532,-4.56541633605957,4.060583591461182,2.763984203338623,-2.844592571258545,-0.6582685708999634,4.483060836791992,0.3513024151325226,-0.2925851047039032,-3.086949586868286,4.681132793426514,1.8298654556274414,-2.9019196033477783,1.784921646118164,1.740119457244873,6.734928607940674,6.577808380126953,-1.3556209802627563,-1.2970579862594604,0.45444831252098083,6.248603343963623,1.262697458267212,-4.106794834136963,-1.1555415391921997,-6.204758644104004,0.9580079913139343,2.7852835655212402,1.2332909107208252,1.6043959856033325,4.200878143310547,1.6551381349563599,0.9571293592453003,7.20553731918335,1.6052494049072266,2.25667667388916,2.1097147464752197,0.22154419124126434,-4.885962963104248,-2.18505597114563,1.7777349948883057,0.8487595915794373,-2.9278767108917236,-2.9079761505126953,-5.275650978088379,5.451235771179199,3.7562689781188965,6.859847068786621,4.002837657928467,-4.138240337371826,2.5325205326080322,-1.0111312866210938,1.3173801898956299,2.997537612915039,-2.2671945095062256,1.8094474077224731,0.028879888355731964,-5.620696544647217,-5.033792495727539,-2.40553879737854,-3.8083198070526123,5.818622589111328,-6.303267002105713,-3.0883872509002686,3.0789380073547363,-4.1596808433532715,-1.7037631273269653,-4.475545883178711,-1.7086622714996338,-0.9993358254432678,-0.5725359320640564,0.4879225492477417,2.0225532054901123,-2.6932637691497803,-4.955319881439209,-0.35538771748542786,1.3213335275650024,-0.6509854793548584,4.336184978485107,-0.7055624723434448,2.026433229446411,-2.1472630500793457,2.6448750495910645,-3.0159339904785156,1.2113051414489746,-2.7737817764282227,1.5740981101989746,-1.3093854188919067,0.8161482810974121,-2.659679889678955,-4.275773525238037,-5.498234272003174,-1.3157404661178589,0.22574129700660706,-2.879826784133911,-1.5056276321411133,-0.12363975495100021,0.3974861204624176,-1.7363286018371582,-2.1185429096221924,3.507838726043701,-0.6957982182502747,1.8669641017913818,0.5413824319839478,2.0767464637756348,-2.8364927768707275,-1.7697468996047974,1.778089165687561,-2.182840347290039,2.790424108505249,2.4122302532196045,-1.4185985326766968,-2.9410452842712402,2.7446815967559814,0.9075360894203186,0.4387485086917877,-3.0286123752593994,-3.3798744678497314,-1.624870777130127,7.67324686050415,-1.7621047496795654,0.29113394021987915,0.3121982216835022,3.105215549468994,-0.07878690212965012,2.4039218425750732,1.1049089431762695,1.3068140745162964,-7.396658420562744,0.18522782623767853,1.556012511253357,1.9152576923370361,0.11672346293926239,-3.96418833732605,-0.14335040748119354,-0.8725252151489258,1.4941474199295044,0.1767766922712326,2.0673556327819824,-0.2867303490638733,-2.023430585861206,-3.1788253784179688,3.688822031021118,-0.761123776435852,0.37323662638664246,2.5742344856262207,1.9990218877792358,-0.4409600496292114,0.5226919054985046,-0.8149305582046509,-1.8871574401855469,1.4749847650527954,-3.582822799682617,-2.801426410675049,-0.9049187898635864,0.17650434374809265,-0.35266613960266113,-2.3343725204467773,3.292888879776001,0.18140271306037903,-1.8130923509597778,-1.905293583869934,-0.22002606093883514,1.2037354707717896,6.063127040863037,1.587049961090088,1.9935393333435059,-0.906694233417511,4.490627288818359,-1.600557565689087,0.06131766736507416,-0.8157693147659302,-0.7182010412216187,4.6093010902404785,0.37601229548454285,-4.0782599449157715,-4.395720481872559,2.0928609371185303,3.1652779579162598,0.8794516921043396,-4.174147129058838,-3.460085868835449,5.88101863861084,8.072174072265625,3.043745279312134,3.4380128383636475,4.826222896575928,-0.8624409437179565,7.135450839996338,1.1260062456130981,-13.012728691101074,7.139307022094727,-3.7348601818084717,1.8444503545761108,3.840284824371338,-0.5693570375442505,1.1182926893234253,0.04299201816320419,-0.6736618280410767,-0.8642215132713318,-6.257050514221191,6.990645408630371,-1.9068236351013184,-3.800546169281006,-5.0616254806518555,1.6162245273590088,-1.8489527702331543,7.696126461029053,-3.4243664741516113,5.73029088973999,3.3344995975494385,-3.9081668853759766,-2.3628945350646973,-2.6298868656158447,0.5300325751304626,-3.3298439979553223,0.8307034969329834,3.617156744003296,-4.1985697746276855,-4.368526458740234,0.9468130469322205,-3.896851062774658,-0.722866415977478,3.042424440383911,-1.5699657201766968,-2.7584853172302246,-2.4498870372772217,1.5818387269973755,1.1151509284973145,5.506290435791016,-6.965564250946045,-1.480001449584961,-1.6573079824447632,-5.845365047454834,-0.8810092806816101,5.948403358459473,-0.19485679268836975,-10.797987937927246,5.409268856048584,-0.07640758901834488,-0.06142593175172806,-4.008641719818115,0.09970535337924957,-6.37507438659668,2.279191732406616,4.665599346160889,2.14808988571167,1.7227425575256348,6.00393533706665,-1.3832446336746216,9.413854598999023,9.201483726501465,4.3635077476501465,1.989316463470459,-1.8961447477340698,-10.8003568649292,0.8516571521759033,8.390295028686523,-0.9947339296340942,-0.7264083623886108,-3.9374217987060547,-8.739518165588379,2.1062369346618652,0.09639535844326019,1.678154468536377,7.384623050689697,8.956992149353027,11.408102989196777,4.618982315063477,7.75523567199707,12.889851570129395,8.637974739074707,7.719435691833496,-1.8611218929290771,-3.7657177448272705,2.523648500442505,4.171727657318115,3.1076443195343018,-1.9901081323623657,-8.502915382385254,-4.212355136871338,6.1027302742004395,12.006521224975586,7.957113265991211,0.4522767961025238,-2.0495994091033936,-1.0367534160614014,-3.748918056488037,2.8036317825317383,12.528358459472656,-5.855901718139648,-4.364343166351318,0.6997435688972473,-3.498612642288208,2.074176788330078,3.1050221920013428,-5.801791667938232,6.494655609130859,-0.6188989877700806,-1.3350461721420288,-3.2701303958892822,3.9872097969055176,3.4672255516052246,10.3347806930542,2.6805930137634277,1.1649290323257446,-0.34733644127845764,0.0675346851348877,2.541332244873047,3.4871602058410645,-5.420506477355957,-0.08339852839708328,0.9583057165145874,1.6086835861206055,-0.9535185694694519,13.827465057373047,-1.5595393180847168,-8.394392967224121,0.5822300314903259,3.9931201934814453,0.9472801089286804,3.350931406021118,0.12462472915649414,-4.471537113189697,-3.7110915184020996,-1.6337112188339233,-2.769606828689575,2.305664300918579,-2.4275405406951904,-2.2072572708129883,-5.557789325714111,-0.9681392908096313,-11.608484268188477,-2.2106645107269287,1.6545192003250122,-8.624770164489746,0.13989396393299103,-3.6481213569641113,7.042861461639404,-0.936503529548645,1.6200460195541382,-4.090725421905518,-0.09291985630989075,-1.1691173315048218,2.759552478790283,-0.23547425866127014,6.669707775115967,-9.818560600280762,0.47532159090042114,12.109935760498047,12.753778457641602,0.5795592069625854,0.00967117678374052,2.1547348499298096,8.498441696166992,-3.228175163269043,1.1471071243286133,-0.6517824530601501,0.3209104835987091,-2.4795584678649902,1.5340496301651,1.0205039978027344,1.5500544309616089,1.7941526174545288,1.4635294675827026,1.3152811527252197,3.475309371948242,-0.7276315093040466,4.936151027679443,1.9154746532440186,0.18614313006401062,0.2167850136756897,-2.2950408458709717,1.6503863334655762,0.7207561135292053,4.6998372077941895,-1.6137738227844238,-2.489694356918335,2.532566785812378,-2.6604504585266113,-5.5573296546936035,-1.0798842906951904,-2.0876877307891846,2.3370792865753174,0.9925798773765564,-1.0048681497573853,1.6194853782653809,0.8370129466056824,-3.96842885017395,-2.903475284576416,-2.6989150047302246,-0.44699153304100037,-1.1211304664611816,-1.5507786273956299,-3.1634914875030518,-2.2085378170013428,-4.156314373016357,3.091384172439575,-2.767397403717041,-0.6246955394744873,-5.162082672119141,2.320622682571411,0.5618135929107666,-3.2731142044067383,0.27898460626602173,2.661418914794922,-2.3660635948181152,-2.9116573333740234,2.4152462482452393,-0.2920530140399933,-2.8361644744873047,1.8385354280471802,1.0678356885910034,0.5743843913078308,-0.8290612101554871,1.3230739831924438,0.43948838114738464,0.9713618159294128,-3.1128199100494385,-9.113397598266602,-15.04112720489502,-5.626102447509766,-4.864105701446533,2.107762336730957,-11.406262397766113,-0.6072297096252441,0.9681613445281982,4.81462287902832,13.527082443237305,-4.723245620727539,-3.6675915718078613,4.469363212585449,-9.37371826171875,-5.365683078765869,0.823156476020813,6.3064351081848145,12.997759819030762,-5.037877082824707,-2.3300535678863525,1.677131175994873,-3.7147061824798584,0.1354071944952011,1.8920505046844482,-6.337619781494141,8.275979995727539,-0.0004520702641457319,0.07051972299814224,11.02946662902832,8.443392753601074,3.1953916549682617,6.690118312835693,11.584197998046875,3.8025763034820557,-0.028169654309749603,5.734792709350586,9.285003662109375,-4.031314373016357,2.883819341659546,-2.004324436187744,0.038998283445835114,-1.7484736442565918,-4.931820869445801,2.0396225452423096,-1.696372389793396,-4.877798080444336,0.2444867491722107,8.52307415008545,-5.442345142364502,-10.108043670654297,0.37645629048347473,1.4070361852645874,2.355445146560669,-3.754251718521118,2.350951671600342,-2.9281110763549805,3.308439016342163,4.135733604431152,-2.26271390914917,3.169227123260498,-0.02990548312664032,-1.6201865673065186,1.7474347352981567,6.516724109649658,3.8014233112335205,2.138646125793457,-2.8998196125030518,-0.7959636449813843,5.807301044464111,1.553084373474121,-0.18669240176677704,-3.06829571723938,2.683278799057007,-0.5426955819129944,-0.5854737162590027,-0.7108783721923828,-1.8997950553894043,-0.4304049015045166,0.5637890100479126,-3.3281798362731934,-1.691295862197876,-4.3121795654296875,6.6289191246032715,1.0970525741577148,-1.1990798711776733,2.811262845993042,-0.30632713437080383,-0.6891797780990601,-0.532182514667511,-2.3632469177246094,1.5468685626983643,0.32659560441970825,-1.582472562789917,-3.5893123149871826,-4.39031457901001,-1.2644602060317993,0.7458182573318481,2.08160662651062,-2.4724645614624023,-4.697967052459717,0.36478373408317566,-1.05190110206604,-0.8328332901000977,-3.397952079772949,-0.242694690823555,1.997703194618225,-0.09407051652669907,-1.3118857145309448,-2.504946708679199,-3.44571590423584,7.415910720825195,2.5363426208496094,-5.4845709800720215,2.6974244117736816,-2.8024580478668213,0.33890044689178467,3.07901668548584,-7.114128589630127,-4.120730400085449,0.3056645691394806,-5.250772476196289,0.31676527857780457,0.2463170439004898,7.231566905975342,4.0254364013671875,-12.345582008361816,1.034482717514038,6.4720892906188965,6.578014373779297,5.121858596801758,-8.79491901397705,-8.029996871948242,-4.594202518463135,3.6342051029205322,11.804096221923828,-1.0519452095031738,-6.098730087280273,-6.054623603820801,-9.158038139343262,7.917842864990234,5.807555198669434,9.542685508728027,7.64095401763916,4.281663417816162,-13.053308486938477,5.3548407554626465,-2.8718323707580566,10.749763488769531,2.3610920906066895,7.270765781402588,-2.8191211223602295,-11.185285568237305,2.5996928215026855,7.640591621398926,-0.9059059023857117,-5.7719807624816895,-4.934727191925049,4.252189636230469,-2.0252654552459717,6.985440254211426,4.867806911468506,-7.573676586151123,4.807518005371094,-11.002254486083984,9.723759651184082,6.02405309677124,-7.744843006134033,-13.243913650512695,-3.5348217487335205,-4.64476203918457,-7.716627597808838,-4.169783592224121,4.01326847076416,4.809001445770264,-4.592386245727539,-8.128761291503906,4.612069129943848,-1.3685775995254517,-0.6796515583992004,-1.5961596965789795,-0.4805520474910736,-5.347169399261475,1.033428430557251,2.1591882705688477,-0.46455854177474976,2.235769033432007,2.3279120922088623,-1.5020426511764526,2.762622594833374,-0.8693774938583374,-2.844489812850952,-2.045377016067505,3.29621958732605,2.678905725479126,-0.5670557618141174,-2.126645088195801,-3.6854043006896973,-2.188641309738159,3.23386287689209,4.057452201843262,1.0326942205429077,0.9930785894393921,2.4121880531311035,-1.1696386337280273,1.5248278379440308,1.9361584186553955,3.9411511421203613,3.0702383518218994,2.2949631214141846,-0.7197516560554504,-2.9161202907562256,4.233612060546875,3.0694334506988525,0.18617311120033264,-2.7671191692352295,-1.72096586227417,3.3844997882843018,3.873351812362671,4.017524242401123,2.873988628387451,-1.9290958642959595,3.6422224044799805,-3.3940160274505615,4.000340461730957,1.2656257152557373,-6.390030860900879,-0.9721090197563171,1.1212788820266724,-6.445420742034912,-3.764893054962158,-0.684272825717926,-0.5885128378868103,2.9146888256073,-1.166364312171936,-2.6689462661743164,4.8275957107543945,-0.7675600647926331,1.8155896663665771,-3.866664171218872,-1.077595591545105,-1.943723440170288,-3.576425552368164,4.344497203826904,2.0608596801757812,-0.6887938380241394,1.246875286102295,-2.743955373764038,3.2792789936065674,3.4630119800567627,-4.812167167663574,-2.483762502670288,4.785549640655518,2.373908519744873,-2.1036031246185303,0.5997029542922974,-4.171988487243652,-3.574126720428467,3.2157645225524902,2.5816845893859863,4.665668964385986,2.795173406600952,6.210921287536621,1.1594061851501465,3.16302490234375,-0.038717664778232574,4.502302169799805,5.4152655601501465,1.2374258041381836,-5.713803291320801,0.2326035499572754,4.113393306732178,-5.084831237792969,0.8912225961685181,-3.868659734725952,-4.613309383392334,3.2032828330993652,4.047394752502441,3.601785182952881,2.1391282081604004,-2.2891347408294678,0.5060551166534424,-5.218754291534424,0.2952502965927124,7.500783920288086,-1.9261624813079834,0.3733008801937103,6.005387783050537,-2.298424243927002,-0.6503078937530518,-4.801082134246826,-0.16545362770557404,3.5607824325561523,-2.4069902896881104,-0.8022283315658569,-2.2078425884246826,2.824327230453491,0.6095110774040222,1.2909318208694458,1.7349872589111328,1.7125215530395508,1.3405181169509888,4.418842792510986,-0.22541025280952454,2.9821996688842773,1.6185424327850342,1.8666107654571533,2.4605681896209717,-2.301159381866455,0.2054516077041626,1.862169623374939,3.098487615585327,-0.9043055176734924,-0.6569098830223083,1.6410495042800903,-2.804049015045166,-2.5024564266204834,-0.5077802538871765,-0.02167489007115364,3.0326039791107178,1.2693358659744263,-0.5725254416465759,3.2360544204711914,3.1356043815612793,-1.4524977207183838,-0.4574545919895172,-0.7042211890220642,-0.8293640613555908,-3.8438968658447266,-1.7009150981903076,0.2721775770187378,-4.634865760803223,-1.0041093826293945,-1.1299656629562378,-3.667935371398926,-0.86189204454422,-0.854023814201355,3.769975423812866,1.9959356784820557,-1.4204570055007935,-0.9413355588912964,0.7616574168205261,0.4089794158935547,1.7358474731445312,0.021914999932050705,0.6086591482162476,-1.3387705087661743,2.0847511291503906,-0.2919765114784241,-0.0016652480699121952,-1.2051258087158203,1.6766926050186157,-0.04680129885673523,0.4229569137096405,-2.134369134902954,0.4294853210449219,1.435023307800293,0.06256486475467682,1.362950086593628,3.172243595123291,0.7971550226211548,-1.0757440328598022,-0.16245043277740479,-1.4263310432434082,-0.550478994846344,3.069939613342285,-1.195172667503357,-0.7093450427055359,0.020375922322273254,0.5477621555328369,-1.6278620958328247,-0.37042340636253357,-1.7906529903411865,0.9332795739173889,3.571803331375122,2.3098297119140625,-1.4979091882705688,-3.5575456619262695,-2.1693973541259766,1.2003315687179565,-0.26752591133117676,1.096126914024353,-3.959110975265503,-1.3272099494934082,-0.5652689933776855,-0.8413306474685669,-0.9281090497970581,-0.14379581809043884,2.2519948482513428,-2.1470508575439453,0.6696473956108093,-1.633262276649475,1.5504573583602905,4.02260160446167,0.8520777821540833,-2.590337038040161,-3.641265392303467,-1.850526213645935,2.833775520324707,-1.9954853057861328,0.8138274550437927,-1.893429160118103,-0.7744753956794739,0.9023985266685486,0.6060025095939636,-0.5139325261116028,1.7839305400848389,3.335029125213623,1.6055086851119995,-0.4658866822719574,-3.3355941772460938,-0.24900038540363312,1.7537152767181396,-2.96506667137146,-1.5713613033294678,-4.452194690704346,-4.39941930770874,-0.826761782169342,-3.61205792427063,-3.0958547592163086,-1.2667819261550903,-0.5200182795524597,2.7094483375549316,2.2429826259613037,-1.0852155685424805,-2.1822712421417236,1.9908347129821777,-6.386246681213379,-3.6862905025482178,-1.1785333156585693,6.331562042236328,3.695902109146118,-1.6565639972686768,-0.9594910740852356,1.0188086032867432,-0.6698784828186035,3.9120497703552246,-0.8619388937950134,-0.7646555304527283,6.823064804077148,-0.8682414889335632,1.6897605657577515,1.507352352142334,3.543686866760254,6.586423873901367,4.267867565155029,1.5550622940063477,1.911454200744629,4.34031343460083,1.2520579099655151,0.8959346413612366,-2.6555373668670654,-0.6735237836837769,-2.0132391452789307,3.7873828411102295,1.6397860050201416,-2.184948682785034,2.183621406555176,-3.0239346027374268,-4.174655437469482,5.3335280418396,5.5012922286987305,-5.292624473571777,0.036903392523527145,5.0858845710754395,0.4967491328716278,0.5234631896018982,-0.3407246768474579,-0.9704907536506653,1.2653762102127075,0.1141490712761879,0.45443788170814514,0.2848323583602905,-5.048275470733643,-9.608193397521973,-10.746720314025879,7.895327091217041,7.933984756469727,7.695616245269775,-13.144942283630371,-10.135472297668457,10.041136741638184,22.759336471557617,7.781836032867432,8.074188232421875,12.70188045501709,-14.65555191040039,-9.571231842041016,6.359235763549805,11.260875701904297,12.243148803710938,-0.8181126117706299,-9.867828369140625,11.920248031616211,-9.8928861618042,9.568156242370605,-11.551952362060547,-8.958560943603516,12.201135635375977,10.573824882507324,9.05003833770752,11.321710586547852,15.373095512390137,11.041288375854492,10.765698432922363,-10.809490203857422,12.15063190460205,5.118753910064697,5.397567272186279,-8.965017318725586,-12.241366386413574,-9.02043628692627,8.367330551147461,5.619320869445801,10.299691200256348,-12.340682983398438,9.103371620178223,-12.524370193481445,-12.31900691986084,12.654722213745117,-2.5773842334747314,-11.601951599121094,-7.950939178466797,-7.055680751800537,7.283617973327637,6.6784987449646,-15.370119094848633,-14.836337089538574,9.760468482971191,6.0365190505981445,11.602200508117676,-13.370123863220215,-2.196152925491333,-1.2866755723953247,-2.481025457382202,0.8162737488746643,-4.761951446533203,1.8278858661651611,4.225793361663818,-1.9611634016036987,2.581997871398926,-2.7627015113830566,-0.4481956362724304,3.4309277534484863,1.073235273361206,3.1147890090942383,-3.259302854537964,2.2801520824432373,3.6304564476013184,-0.8527542948722839,-1.478750467300415,-2.365652322769165,-6.5076518058776855,5.354302406311035,5.732269763946533,1.4559675455093384,2.130885124206543,-0.8631318807601929,-2.5100040435791016,2.4393203258514404,0.04047546163201332,-0.6669626235961914,2.377183437347412,3.6965548992156982,-0.5880597829818726,-6.007228851318359,5.461193084716797,0.6431164145469666,0.49002113938331604,-0.2704531252384186,-2.5014991760253906,0.616208553314209,0.5352383255958557,3.017394781112671,5.051650047302246,-3.3332698345184326,5.826015949249268,2.581820011138916,5.378413677215576,1.1155816316604614,-0.8537188768386841,2.4911117553710938,1.4910906553268433,-5.356624126434326,-5.940476894378662,-4.648080825805664,0.42695873975753784,1.805694580078125,-0.8884796500205994,-3.1472537517547607,6.653646469116211,-2.839218854904175,-0.6295811533927917,-0.5714250802993774,0.045111630111932755,0.531649112701416,1.9036580324172974,3.5896506309509277,-1.811582088470459,4.8885626792907715,3.7612879276275635,0.9694806933403015,-0.6926600933074951,-1.4224551916122437,-1.5709209442138672,-2.779179096221924,3.7098004817962646,1.3258899450302124,-1.1688727140426636,-1.8277896642684937,-5.104572296142578,-3.5945346355438232,-0.36412718892097473,2.6357004642486572,1.2006621360778809,2.3363285064697266,5.262867450714111,0.9075215458869934,4.945123672485352,3.7212016582489014,1.3346314430236816,3.384859085083008,2.845647096633911,-1.5878196954727173,-0.3651844263076782,4.158344268798828,-2.9070773124694824,1.008352518081665,-3.9165613651275635,-4.795976161956787,-0.881195068359375,2.4074902534484863,4.224343299865723,0.7256461977958679,-3.390557289123535,-0.24644146859645844,-0.42283961176872253,3.0740206241607666,8.804333686828613,-1.3221766948699951,-1.3671071529388428,5.581604480743408,0.3517354130744934,-0.9032745361328125,1.9421111345291138,-1.301754355430603,4.167555809020996,1.137953758239746,-1.212455153465271,-1.1467769145965576,1.4533973932266235,1.3984043598175049,8.745595932006836,3.6197025775909424,-1.135539174079895,-0.25169962644577026,3.5374293327331543,-2.9980392456054688,2.516026735305786,-9.33646297454834,0.9676707983016968,-3.0696029663085938,2.2339742183685303,1.4587254524230957,9.476075172424316,3.8315398693084717,-9.572147369384766,-0.007872575893998146,-0.23789413273334503,-2.904968500137329,1.887872576713562,2.3337178230285645,-2.8332114219665527,-0.5979548096656799,3.511039972305298,1.2298015356063843,5.452203750610352,2.841184616088867,-1.2311216592788696,-3.2625136375427246,-3.2665109634399414,-10.560504913330078,-2.0714991092681885,4.50071907043457,0.9863252639770508,-9.552769660949707,-0.1317918598651886,4.94319486618042,-3.3334503173828125,-2.1331546306610107,2.8757736682891846,0.7054405212402344,0.06981157511472702,2.22212553024292,-1.2153819799423218,3.8413515090942383,-6.075244903564453,2.462859869003296,3.991921901702881,8.895784378051758,-0.27806511521339417,0.4052029252052307,0.24792253971099854,6.026700019836426,-6.173074722290039,2.2958431243896484,-1.8362561464309692,0.7161151170730591,-0.9209288954734802,-0.03267811983823776,8.03002643585205,-0.8276968002319336,2.623178243637085,-5.537782669067383,2.285705804824829,-0.5370142459869385,-1.563306212425232,-4.657526969909668,1.7326488494873047,3.296255111694336,5.43831205368042,-9.153847694396973,2.5484583377838135,0.40858006477355957,0.5530427694320679,-1.3523151874542236,-5.130564212799072,0.3377281129360199,-1.0373713970184326,-1.6475533246994019,2.759232759475708,5.769465446472168,-3.1579713821411133,-1.3921239376068115,-3.214202404022217,-2.526007890701294,0.9709866046905518,-8.638625144958496,-1.9094550609588623,-5.83223819732666,-1.3797926902770996,-2.1765334606170654,-8.688435554504395,0.5185858011245728,1.9193017482757568,-2.5241928100585938,5.269242286682129,-0.22793620824813843,5.110540866851807,-1.1273502111434937,1.4553320407867432,8.398393630981445,-3.736198902130127,8.148395538330078,3.296802043914795,4.648828506469727,-6.6154303550720215,1.5998907089233398,-2.5743536949157715,0.042955491691827774,-5.237783432006836,-7.898763656616211,-2.0942673683166504,1.8955912590026855,0.7394577860832214,-7.786707878112793,-7.083886623382568,5.138908863067627,2.1939117908477783,-2.1579387187957764,1.1355507373809814,1.1362078189849854,8.305532455444336,-1.8896900415420532,-0.5286715626716614,-0.5817955732345581,-0.1199183389544487,-3.745958089828491,3.1174509525299072,-7.135134220123291,8.0067777633667,-0.6036699414253235,1.445896863937378,-4.743200778961182,0.09102491289377213,6.7850751876831055,1.3202811479568481,2.821424961090088,3.0186350345611572,-2.179084300994873,-4.634057521820068,0.7138658761978149,2.0549063682556152,-1.4007225036621094,2.9282846450805664,-3.7643423080444336,-2.2394392490386963,-3.79472017288208,-2.5691616535186768,-2.402677059173584,0.42161592841148376,11.590752601623535,-2.3432750701904297,-4.4831366539001465,-1.8908288478851318,5.241547584533691,2.5459840297698975,-5.898290634155273,-1.7169694900512695,-3.510477066040039,-9.854167938232422,5.842838764190674,-9.41848373413086,4.392183780670166,-4.256998062133789,-0.6393049955368042,3.3385519981384277,-0.15001806616783142,-2.272770881652832,6.023569583892822,5.705132007598877,4.577099800109863,-2.672515630722046,-4.360327243804932,3.9990298748016357,7.133849143981934,-6.637897491455078,-5.500302314758301,-11.513532638549805,-8.955472946166992,-8.82564926147461,0.38963085412979126,-21.03847885131836,-11.836543083190918,13.008936882019043,-22.92539405822754,5.459804058074951,-8.701313972473145,-8.167154312133789,10.815450668334961,11.220139503479004,4.986581325531006,3.570209264755249,-4.30372428894043,11.11876106262207,-6.655329704284668,19.422401428222656,-1.7774012088775635,-3.845735788345337,-14.571490287780762,2.717238187789917,-22.860599517822266,-5.7858357429504395,-0.4006361663341522,-19.520423889160156,7.325689315795898,-6.877719879150391,7.471892833709717,-6.924312114715576,9.643266677856445,12.145959854125977,-11.040363311767578,5.103354454040527,10.032430648803711,-7.373925685882568,7.276528835296631,-20.18806266784668,-13.165766716003418,-19.81140899658203,2.812847375869751,1.8922501802444458,-12.911942481994629,9.583751678466797,-14.190892219543457,-11.133363723754883,9.760698318481445,11.086725234985352,5.780243873596191,13.901551246643066,15.354464530944824,6.45097541809082,5.636591911315918,-23.277809143066406,22.014385223388672,15.30954647064209,0.7776761054992676,-4.733017921447754,-0.7411356568336487,2.203608751296997,2.8278050422668457,-0.24247542023658752,-4.512575149536133,4.788936138153076,8.705272674560547,5.090229511260986,-0.4378885328769684,0.9241816401481628,2.9444186687469482,3.065582036972046,-7.733972072601318,0.30071523785591125,4.902765274047852,2.824348211288452,-1.1514593362808228,7.378128528594971,-4.376049518585205,-4.900833606719971,-2.670154333114624,1.5982855558395386,2.0390474796295166,3.711362600326538,9.778609275817871,1.5309067964553833,2.9815516471862793,-6.564659118652344,-0.044604551047086716,8.931690216064453,2.23502516746521,-3.814600706100464,-2.83028507232666,4.138458728790283,1.314210057258606,-6.27532958984375,-7.249614715576172,-4.307184219360352,1.0587049722671509,7.909358024597168,3.5279085636138916,1.4613254070281982,-0.6506409049034119,-5.477451801300049,-6.014570713043213,3.185427188873291,8.022497177124023,-6.440167427062988,1.9113632440567017,6.533129692077637,1.7839274406433105,1.5179539918899536,0.13612276315689087,0.09857641160488129,3.045285940170288,2.513261556625366,-1.2519285678863525,0.16809238493442535,-9.58356761932373,-3.325279951095581,-4.664374828338623,-4.592351913452148,-0.8975479006767273,3.2752902507781982,13.253615379333496,-0.3499577045440674,5.280343055725098,7.256183624267578,-0.3889324367046356,1.10629403591156,-7.729049205780029,-7.3146185874938965,-4.173429489135742,10.368253707885742,2.3091485500335693,0.056041985750198364,-10.725558280944824,-3.398102045059204,-9.958425521850586,3.866887331008911,5.71845817565918,10.335249900817871,6.978220462799072,8.585610389709473,-11.704224586486816,11.277119636535645,12.360520362854004,5.821322441101074,9.854990005493164,1.9782323837280273,-5.026975631713867,-3.852508783340454,14.321475982666016,10.927401542663574,1.9805265665054321,-9.605530738830566,-11.291204452514648,4.3168416023254395,7.6460089683532715,7.432901382446289,8.520133972167969,-3.494004011154175,2.6926286220550537,-1.1569340229034424,-0.8847190737724304,10.183671951293945,-3.638925313949585,-3.428121566772461,10.880390167236328,-4.6669416427612305,-6.697734832763672,0.04816008359193802,9.073273658752441,13.400496482849121,-1.1196269989013672,-5.534131050109863,3.468970775604248,-2.3102738857269287,-2.7111120223999023,2.5840866565704346,0.20117007195949554,16.193578720092773,-1.8532971143722534,4.782140254974365,16.078140258789062,6.650015830993652,23.25965690612793,-5.147550582885742,-1.9849176406860352,16.94815444946289,-21.511449813842773,-10.704534530639648,-0.5938062071800232,21.36692237854004,-3.1615054607391357,2.3487343788146973,-5.575031757354736,-5.182373523712158,-20.276403427124023,-13.476901054382324,19.352445602416992,-2.3969578742980957,20.68439292907715,0.8748961091041565,2.9906253814697266,16.777429580688477,19.00151252746582,27.64535140991211,20.37540626525879,-0.7071359157562256,22.32618522644043,-6.783450603485107,-1.3239905834197998,2.0338597297668457,-26.16731071472168,-6.519556999206543,-3.451200008392334,-1.1384811401367188,3.8053760528564453,-6.603941440582275,1.077140212059021,-16.977449417114258,-17.85597801208496,-1.8415485620498657,16.476104736328125,-20.95162010192871,-0.21325355768203735,3.6099660396575928,16.484704971313477,15.34033489227295,-13.44459342956543,-5.089352130889893,6.0741190910339355,15.248215675354004,20.103046417236328,2.0848357677459717,-4.026723861694336,0.20563600957393646,-3.0585012435913086,-9.243310928344727,9.981040954589844,-5.222474575042725,-9.193489074707031,5.817237377166748,-5.961208820343018,6.093766212463379,-2.860271692276001,-0.0159374438226223,6.0523905754089355,-0.4139845669269562,0.45524850487709045,-6.814187526702881,-0.23201800882816315,5.2275261878967285,-4.771420478820801,6.9448370933532715,8.436226844787598,-10.884378433227539,-3.6666367053985596,-6.414823055267334,-7.428125381469727,-0.3716852366924286,-1.9229788780212402,-5.780625343322754,4.149245262145996,3.258535146713257,1.308686375617981,0.6344477534294128,0.9917581081390381,10.748591423034668,-4.608088493347168,-1.941964864730835,6.3241047859191895,-1.058835744857788,8.493003845214844,-2.409259796142578,-3.2020788192749023,-6.5067830085754395,-1.5699734687805176,9.392217636108398,-5.542428016662598,-1.6592525243759155,-2.762338399887085,-1.028660774230957,-0.3278304934501648,0.2566802501678467,2.9290294647216797,6.726937770843506,8.012188911437988,-4.252592086791992,5.6037163734436035,-7.753505706787109,3.7199878692626953,9.221783638000488,-12.604768753051758,-2.167123556137085,1.3817287683486938,7.553704738616943,-2.7496209144592285,-12.823321342468262,5.905352592468262,7.744348526000977,-1.2545462846755981,8.998687744140625,-6.749783039093018,5.087734222412109,5.520198345184326,-3.6294007301330566,-14.431867599487305,8.083612442016602,19.99980926513672,-5.706110000610352,-3.557988405227661,-2.8139278888702393,-18.237489700317383,2.6598401069641113,14.338187217712402,15.989892959594727,-7.518043041229248,14.909808158874512,6.957326889038086,3.567628860473633,16.728496551513672,2.741178274154663,2.742661952972412,3.1838793754577637,-7.6529951095581055,-10.180109977722168,3.2227816581726074,4.33274507522583,3.009873390197754,1.68449866771698,-1.4401625394821167,-18.552461624145508,19.832820892333984,11.04537296295166,16.60723304748535,8.209428787231445,2.9478776454925537,7.395625591278076,-4.374809741973877,-6.771386623382568,3.048288345336914,-5.040543556213379,-1.0193959474563599,2.268021821975708,-16.30945587158203,-6.137355327606201,6.895214080810547,-8.400141716003418,19.06945037841797,-9.842647552490234,-15.729479789733887,6.097044944763184,-3.800020217895508,-1.36464262008667,-3.207557439804077,-3.9664463996887207,-0.776612401008606,-1.834136724472046,0.20487487316131592,0.6359614729881287,0.5754961967468262,0.530869722366333,-2.2219021320343018,0.33386513590812683,2.0521609783172607,-4.284181118011475,-4.761104106903076,2.044569492340088,3.6094746589660645,1.545839786529541,-1.3678189516067505,-1.6109291315078735,0.2979259192943573,-1.2222458124160767,1.3206088542938232,3.1041953563690186,-0.40902236104011536,4.588892936706543,-2.16334867477417,0.767292320728302,2.987992286682129,1.7231853008270264,7.035282611846924,3.5273866653442383,0.5414102673530579,1.491976261138916,4.165009021759033,1.9328203201293945,3.001396894454956,-4.279091835021973,-0.9983824491500854,-0.3513249158859253,3.730752944946289,1.2430543899536133,-0.2615707516670227,0.04474734142422676,-0.30555859208106995,-2.5552046298980713,-0.3648127019405365,4.756875514984131,-2.07661771774292,-3.28407621383667,4.192142963409424,0.9045394659042358,0.38297832012176514,1.123855710029602,0.9311382174491882,1.9162697792053223,0.9538073539733887,1.6251516342163086,-0.04293811693787575,13.871491432189941,17.048648834228516,4.434183597564697,14.1942720413208,-10.207147598266602,17.646400451660156,-0.028243808075785637,-18.150007247924805,13.809675216674805,-5.139097213745117,10.722330093383789,4.666226863861084,1.5304937362670898,-10.314963340759277,2.7643489837646484,7.72042989730835,-2.914924144744873,-19.111103057861328,13.385705947875977,-22.897769927978516,8.507272720336914,-5.668599605560303,5.206100940704346,-9.174603462219238,14.384920120239258,10.716690063476562,13.621805191040039,22.517623901367188,-4.27839994430542,-2.0407493114471436,-2.7446770668029785,-2.7639803886413574,-16.757246017456055,5.340647220611572,9.68287181854248,-1.9780261516571045,-7.296527862548828,2.5580079555511475,-17.939876556396484,22.910444259643555,23.83180809020996,11.868767738342285,-5.117373943328857,-6.053586006164551,6.846587181091309,-11.279672622680664,11.24048137664795,-3.342311143875122,-9.824919700622559,1.3845072984695435,-11.6038818359375,-8.371484756469727,1.0096371173858643,-1.046208143234253,-16.373361587524414,21.925296783447266,-18.43690299987793,-9.839384078979492,10.924415588378906,14.711344718933105,0.5407970547676086,-1.841305136680603,12.594915390014648,18.79976463317871,0.7556434273719788,5.06456184387207,-7.518477916717529,4.9176411628723145,13.264442443847656,2.6230568885803223,-0.30353251099586487,0.9295690655708313,-2.0642685890197754,-13.604698181152344,-6.02302885055542,0.32880741357803345,-2.5368309020996094,13.253728866577148,3.5508675575256348,-16.709550857543945,-13.702402114868164,-2.3570969104766846,5.846095561981201,-1.4169106483459473,2.7080743312835693,8.013836860656738,-2.9557254314422607,-0.38519614934921265,2.552675247192383,1.2914891242980957,13.970586776733398,-2.2216734886169434,-2.0426151752471924,-4.659681797027588,-15.325272560119629,-1.4166386127471924,1.481610894203186,1.9877755641937256,-16.074827194213867,-3.079376697540283,-7.935624599456787,-3.7758896350860596,-3.4323110580444336,-15.641006469726562,-0.42668938636779785,8.496086120605469,-8.518536567687988,6.068951606750488,-16.143152236938477,-0.6115751266479492,16.94118309020996,19.28017234802246,-4.276484966278076,-12.987191200256348,2.6767044067382812,12.831809997558594,14.106802940368652,-18.30025291442871,-46.35732650756836,-48.379207611083984,14.533413887023926,-4.284670352935791,5.8428874015808105,-16.737668991088867,-8.370360374450684,28.669614791870117,5.561907768249512,23.951614379882812,-35.13052749633789,-20.063810348510742,9.014871597290039,-20.624692916870117,-18.75538444519043,-2.45896315574646,20.591754913330078,18.48784828186035,-7.312607765197754,-17.120193481445312,-9.488849639892578,-8.394818305969238,20.40103530883789,25.356603622436523,-5.285045623779297,22.54084587097168,-28.76429557800293,14.024818420410156,3.7345166206359863,-0.8097986578941345,20.531078338623047,15.647997856140137,39.682884216308594,6.329996585845947,17.0471134185791,26.083593368530273,28.59381866455078,-17.95939826965332,-10.047700881958008,-51.30712890625,17.776018142700195,19.892290115356445,-31.01163673400879,9.96507740020752,-28.115985870361328,-13.5396089553833,14.600855827331543,32.29860305786133,-16.815916061401367,-14.345037460327148,30.076786041259766,25.41588020324707,6.504934787750244,22.429916381835938,31.47275733947754,17.12003517150879,43.12112045288086,10.109979629516602,-11.159915924072266,5.080052375793457,4.392520427703857,5.701230525970459,7.645039081573486,8.009114265441895,-1.0905320644378662,4.640898704528809,-5.231248378753662,-8.920493125915527,-4.385022163391113,2.275313138961792,5.8720502853393555,-3.0464789867401123,18.9708251953125,-0.3910635709762573,-1.0328799486160278,-9.516607284545898,-4.264705181121826,5.851350784301758,-3.2356021404266357,-2.954756021499634,-5.53602409362793,-11.98092269897461,1.129091501235962,1.3798187971115112,-10.773929595947266,9.404438972473145,0.6558889746665955,-5.158695697784424,-20.12619972229004,-15.853180885314941,-0.706768274307251,-4.410574913024902,0.2039632648229599,-7.670145511627197,-11.216337203979492,-4.752806186676025,15.447057723999023,0.7169110774993896,-4.451636791229248,-10.027933120727539,-5.041569709777832,-1.5583937168121338,-4.448098182678223,-6.4844970703125,17.331012725830078,-6.737243175506592,-5.713623523712158,13.018322944641113,-0.12617354094982147,-6.312088966369629,6.482940196990967,7.988306999206543,-5.956531047821045,-12.189526557922363,-6.707380771636963,3.657910108566284,11.99267864227295,-6.579758167266846,-2.0009875297546387,9.637895584106445,3.4702975749969482,6.907258987426758,-13.404605865478516,7.882453918457031,-2.055898904800415,-7.376158714294434,-1.1032006740570068,3.735183000564575,5.070124626159668,8.21848201751709,-4.573464870452881,-8.653385162353516,-5.5675048828125,-0.6294705271720886,7.271059513092041,-7.56237268447876,-1.4578641653060913,-16.572248458862305,2.202211380004883,1.7025412321090698,-0.3553188145160675,-8.746740341186523,5.938821792602539,8.629039764404297,0.06886955350637436,16.729372024536133,-3.305682420730591,8.79614543914795,-1.1872541904449463,7.9687275886535645,-16.626644134521484,-4.592220783233643,0.21556630730628967,-0.10403432697057724,-6.077290058135986,-8.412466049194336,-9.109923362731934,14.377315521240234,4.849311828613281,9.795572280883789,5.337404727935791,-8.005419731140137,11.891186714172363,-8.778116226196289,15.515324592590332,-9.97900676727295,-8.470392227172852,-3.7762629985809326,3.0349225997924805,-12.280601501464844,-6.448113441467285,-8.122418403625488,-6.986560821533203,11.279520034790039,-11.055720329284668,-13.870570182800293,10.316384315490723,-0.8115694522857666,10.467906951904297,17.822021484375,3.857640266418457,0.7623745203018188,1.8112802505493164,4.512480735778809,-2.615628957748413,3.013580083847046,-9.332173347473145,4.374459266662598,8.6930570602417,-5.221611499786377,13.402012825012207,20.024003982543945,6.597909450531006,-18.813600540161133,-1.788534164428711,14.237129211425781,-3.788435220718384,-1.389285683631897,0.8142906427383423,-13.286355972290039,-5.354277610778809,3.7751359939575195,-17.886751174926758,14.153471946716309,4.974473476409912,-18.97820281982422,-10.401872634887695,-8.395970344543457,-21.430896759033203,-11.329787254333496,-1.8645365238189697,-18.38857078552246,-1.1418921947479248,-6.979520320892334,14.101946830749512,-3.62080717086792,6.630527019500732,-5.032017707824707,5.1576080322265625,14.700693130493164,-1.0767155885696411,0.25233718752861023,9.982128143310547,-3.7909765243530273,-7.050088882446289,18.36258316040039,17.870962142944336,-1.2072491645812988,0.33186280727386475,-2.0481135845184326,2.3471224308013916,-5.200308322906494,5.978546619415283,-2.416347026824951,-0.47836920619010925,-0.6571584939956665,7.327038764953613,7.978053092956543,6.341518402099609,6.384737968444824,-4.2795209884643555,11.594476699829102,13.064029693603516,-2.758702516555786,15.565496444702148,6.355790615081787,12.417362213134766,11.525050163269043,-7.083628177642822,-0.3333204686641693,5.164157390594482,11.219474792480469,-4.899009704589844,-13.08447551727295,8.066859245300293,1.9413295984268188,-12.318413734436035,10.950370788574219,-3.0375521183013916,5.61224889755249,12.90272331237793,-4.024138927459717,8.66154956817627,0.17268991470336914,-5.227593898773193,-1.6857033967971802,-1.7810190916061401,-3.8017818927764893,-9.536384582519531,-12.489931106567383,2.001302719116211,-5.665350914001465,-8.941015243530273,1.1331058740615845,-13.072917938232422,11.726621627807617,3.523365020751953,-1.8257856369018555,14.29040813446045,-9.63176155090332,7.25805139541626,1.4356303215026855,1.4027880430221558,-5.33079195022583,2.7026326656341553,0.7155267596244812,-6.046054363250732,-2.4812405109405518,0.5272297263145447,-7.41285514831543,-12.515357971191406,10.552348136901855,-13.396895408630371,-8.807150840759277,2.2846474647521973,7.2106475830078125,6.882184028625488,7.774611949920654,7.193634986877441,-6.672553062438965,7.111097812652588,7.2336907386779785,-7.006024360656738,7.515763282775879,-5.893425464630127,6.992763519287109,6.857113838195801,-7.162347316741943,-7.760317325592041,7.748934745788574,7.0928239822387695,-7.562353134155273,-7.063269138336182,7.337716102600098,-7.230483531951904,-7.100046157836914,6.751074314117432,6.608020782470703,8.321634292602539,7.233647346496582,6.672266960144043,6.341258525848389,7.323819160461426,-7.4459614753723145,6.584265232086182,-7.279785633087158,-7.470024585723877,-7.1224775314331055,-7.019453525543213,5.954643249511719,-11.971944808959961,-7.2169294357299805,4.161600589752197,-7.299009323120117,6.758539199829102,6.72236967086792,7.345282554626465,6.949414253234863,-7.018764495849609,6.8290791511535645,-7.132663726806641,6.694218635559082,7.306499481201172,-5.820992946624756,6.7894768714904785,-7.011878490447998,-6.812902927398682,-6.8119401931762695,-6.6731038093566895,-7.260022163391113,7.266956329345703,-6.892003059387207,-6.9179301261901855,6.464992523193359,21.19164276123047,10.871258735656738,10.106472969055176,10.69576644897461,4.644335746765137,4.146198749542236,7.9552106857299805,6.388862133026123,2.8326668739318848,4.627809047698975,9.69134521484375,12.729000091552734,-25.930097579956055,13.936367988586426,9.06254768371582,0.4256197214126587,-12.708796501159668,-10.815691947937012,24.231922149658203,-1.426427960395813,-3.783170461654663,-3.55279278755188,-10.120748519897461,8.44444751739502,3.1720595359802246,-15.40496826171875,-4.384236812591553,-8.03300666809082,-23.328142166137695,-18.584733963012695,-20.02486801147461,-10.643704414367676,-3.3419041633605957,-13.529184341430664,-6.2105793952941895,-8.893370628356934,-22.333871841430664,18.409175872802734,-6.527386665344238,1.3436965942382812,-9.07686710357666,2.8305652141571045,26.486370086669922,-7.210630893707275,7.621916770935059,14.44145393371582,-8.263893127441406,-16.52745246887207,10.794812202453613,11.068656921386719,-16.316524505615234,4.340088367462158,-7.623602867126465,10.254469871520996,3.30729603767395,-1.5988175868988037,-8.879973411560059,4.495813369750977,-3.4586384296417236,-5.16223669052124,-7.331876277923584,-6.3907365798950195,-9.25004768371582,1.2844350337982178,-13.556134223937988,-9.062438011169434,9.475844383239746,-1.0700775384902954,2.0719611644744873,-5.347311973571777,1.1179348230361938,13.588227272033691,-2.456378221511841,-3.5246121883392334,-4.679974555969238,3.1493353843688965,8.8537015914917,-11.385616302490234,-0.5140879154205322,15.962080955505371,-3.8131725788116455,-0.9441516995429993,-2.2804481983184814,-10.206741333007812,4.8365349769592285,0.23909114301204681,-0.4731385111808777,7.8997979164123535,0.43641769886016846,0.8393060564994812,3.8879361152648926,6.610845565795898,6.5603251457214355,3.022590160369873,-4.541384220123291,7.767734050750732,1.1814440488815308,3.921931505203247,-3.672821283340454,-0.2768552005290985,-1.214709997177124,-0.26799556612968445,1.2344200611114502,-2.026010513305664,-0.47078365087509155,0.5509769320487976,6.43950891494751,-2.1471779346466064,-6.82391357421875,4.8506903648376465,2.134094476699829,-0.5850830674171448,-5.680543422698975,-5.9863386154174805,-1.3201825618743896,4.664831161499023,4.181944370269775,1.152788758277893,8.777847290039062,7.136722564697266,8.950668334960938,5.19003438949585,-0.9239922761917114,-6.646919250488281,-4.454798221588135,15.963665008544922,-3.4615726470947266,-22.377798080444336,0.3291926980018616,-8.070477485656738,-0.016057675704360008,12.879493713378906,12.17437744140625,-13.418126106262207,-12.227404594421387,-4.042407035827637,10.761724472045898,13.067466735839844,3.714005947113037,-4.144010543823242,-19.98436164855957,-9.506664276123047,-1.4221380949020386,-16.278675079345703,6.444561004638672,-13.491578102111816,-16.365886688232422,-16.241252899169922,-13.062347412109375,-11.908819198608398,-2.220496416091919,5.9321699142456055,-18.8730411529541,-6.859277248382568,-12.031697273254395,14.187024116516113,16.310087203979492,0.4483647048473358,-9.525489807128906,-14.474006652832031,5.662173748016357,3.3392107486724854,-0.05230765789747238,13.664210319519043,-18.690567016601562,-5.265824317932129,13.748970031738281,11.929226875305176,-5.207535266876221,-1.643962025642395,1.9077073335647583,0.4869432747364044,-2.7731072902679443,-14.153435707092285,-6.726703643798828,5.157082557678223,4.750545978546143,-7.705780982971191,-6.8351521492004395,-6.217394828796387,-6.467216968536377,5.393601417541504,-9.18317985534668,-7.778151988983154,7.347114562988281,-5.067409038543701,-9.499425888061523,-7.765842437744141,-6.467015743255615,8.550318717956543,0.6277686953544617,-8.266151428222656,-8.229058265686035,6.158487796783447,8.27552318572998,-5.474756717681885,8.339174270629883,6.6675543785095215,-6.66880464553833,2.68980073928833,-8.409323692321777,-8.848243713378906,3.178703784942627,-5.581972599029541,-8.92480182647705,6.787787914276123,-8.270028114318848,4.093851566314697,8.165260314941406,8.496280670166016,7.707578659057617,3.9236457347869873,4.3635101318359375,7.861419200897217,1.8925861120224,8.65477180480957,-7.231465816497803,-1.9835275411605835,-9.176462173461914,-6.340281009674072,8.456799507141113,-6.387697219848633,-1.577093482017517,-3.728501558303833,4.396589279174805,-4.126720905303955,-8.415142059326172,7.042263507843018,6.2817792892456055,8.01728343963623,-4.380037784576416,6.63325834274292,-8.673626899719238,7.377837657928467,7.18373966217041,-3.918344259262085,-14.0741605758667,-1.7868026494979858,-8.338751792907715,-11.932220458984375,-7.682866096496582,-1.6534497737884521,-1.268039584159851,5.00355339050293,-8.831247329711914,1.9432493448257446,-4.157049179077148,-8.423676490783691,5.68408727645874,-7.411409378051758,-8.20633602142334,-5.637921333312988,6.307396411895752,8.718337059020996,-7.266021728515625,-0.4369126260280609,9.14978313446045,-3.657994031906128,11.850292205810547,0.9105321764945984,-1.1780364513397217,6.6940436363220215,-10.66441822052002,-0.5937023162841797,6.922033309936523,6.222563743591309,11.506095886230469,6.7905755043029785,1.6728497743606567,3.4271597862243652,7.21693754196167,11.232190132141113,12.65707778930664,-7.599210739135742,1.2043917179107666,3.9439690113067627,4.743295669555664,-1.1083892583847046,5.8966851234436035,4.478673458099365,-2.944652557373047,-6.221062660217285,5.725401878356934,6.602147579193115,-6.645359992980957,-7.439295768737793,11.113191604614258,0.3564302623271942,-8.587915420532227,1.374582290649414,5.275725841522217,-1.4944149255752563,-4.184639930725098,-2.242945432662964,6.86314058303833,-11.236101150512695,12.50814437866211,-10.69813060760498,10.26880931854248,-12.080437660217285,-8.33537483215332,11.067197799682617,9.397513389587402,10.027944564819336,-11.726043701171875,17.07196044921875,-11.643099784851074,-11.400505065917969,-10.065019607543945,-10.553193092346191,-10.904189109802246,10.047607421875,10.474815368652344,10.460213661193848,12.286128997802734,11.991106033325195,11.078106880187988,10.471112251281738,-12.04371452331543,-8.93797492980957,9.827227592468262,-10.831019401550293,10.41737174987793,-11.14606761932373,10.549027442932129,10.083050727844238,10.0415678024292,10.946680068969727,-11.078804016113281,10.056025505065918,10.699063301086426,10.03454875946045,-8.155189514160156,11.570671081542969,-10.192110061645508,9.849310874938965,9.21484088897705,12.472716331481934,11.072748184204102,10.979491233825684,-9.971086502075195,10.27341079711914,10.92905044555664,-9.652318954467773,-11.185426712036133,11.164823532104492,-12.643621444702148,-11.857205390930176,-10.412757873535156,10.672657012939453,-6.357344627380371,-11.407222747802734,-10.532706260681152,13.083763122558594,14.305829048156738,1.0375010967254639,-14.828986167907715,3.1879165172576904,-10.589183807373047,2.388298273086548,13.944698333740234,-10.096179008483887,19.365848541259766,0.00022339608403854072,1.0163383483886719,6.820656776428223,3.358527660369873,-13.485337257385254,-25.4671688079834,13.665706634521484,15.295823097229004,-5.388858318328857,9.985512733459473,-19.929536819458008,-10.730107307434082,1.7467107772827148,17.074865341186523,8.25357723236084,8.206011772155762,28.270118713378906,-3.4832632541656494,17.591779708862305,5.924061298370361,13.504976272583008,13.631929397583008,20.58904266357422,-9.733734130859375,-4.142153263092041,36.397613525390625,18.42404556274414,1.527750849723816,-32.07925796508789,-21.198917388916016,2.712756633758545,42.02802658081055,16.488920211791992,-0.4901893436908722,-13.659941673278809,4.407199382781982,-15.625638008117676,28.635406494140625,3.81748366355896,-9.385797500610352,-23.345674514770508,7.125580310821533,-6.435107231140137,-9.402152061462402,-4.188486099243164,-4.346866130828857,22.43561553955078,-1.5580363273620605,-6.410763740539551,6.592659950256348,15.612737655639648,-10.201997756958008,-4.103970050811768,-7.553657054901123,12.622356414794922,-9.032049179077148,-10.782903671264648,8.218244552612305,-6.577421188354492,9.273174285888672,-8.63076400756836,-10.2256498336792,8.540453910827637,15.872308731079102,-3.6807632446289062,-10.501384735107422,4.888914108276367,8.97695255279541,-7.8411664962768555,9.767837524414062,10.108612060546875,-9.511025428771973,-12.836467742919922,-10.766029357910156,-7.280016899108887,-16.52530860900879,16.863800048828125,-10.4891996383667,7.932753086090088,-16.47469711303711,-16.405317306518555,4.83252477645874,9.803492546081543,10.969429016113281,-13.82547664642334,3.1643989086151123,7.557683944702148,16.986352920532227,9.776398658752441,-11.540872573852539,-12.825791358947754,-9.894271850585938,-10.989912033081055,10.758186340332031,-11.318380355834961,17.826143264770508,-11.901012420654297,-11.580155372619629,-5.197640895843506,-10.433449745178223,-15.97024917602539,12.92869758605957,12.963602066040039,12.835298538208008,3.0740139484405518,-9.721817970275879,10.391854286193848,9.855854034423828,-13.420836448669434,6.929934501647949,6.709231853485107,8.381037712097168,8.244858741760254,-5.115639686584473,7.525678634643555,9.44140625,-6.032320499420166,9.962895393371582,-8.421636581420898,6.5956597328186035,3.2287991046905518,-6.248554706573486,6.952812194824219,8.905567169189453,7.880198955535889,-8.446603775024414,-6.315950870513916,9.170271873474121,-8.299569129943848,-6.324200630187988,6.621737003326416,-0.05790228024125099,6.352319240570068,7.933712005615234,-8.462950706481934,5.354003429412842,8.945664405822754,-9.191596984863281,-7.669341564178467,-2.7608461380004883,-8.90945816040039,-7.989770889282227,-6.510222911834717,-7.370136260986328,-6.630050182342529,-9.417705535888672,9.084977149963379,-9.119351387023926,2.1016180515289307,-6.499273300170898,8.975587844848633,5.605086326599121,-2.2077176570892334,8.09953784942627,8.202668190002441,-8.057900428771973,-7.165630340576172,8.65964126586914,9.535882949829102,-6.780217170715332,0.0774867981672287,3.768792152404785,9.373940467834473,-7.896255016326904,9.454936027526855,-4.842484474182129,-9.080684661865234,-2.849956750869751,-13.493943214416504,-17.341995239257812,-6.191896915435791,-8.304020881652832,19.895450592041016,-18.560081481933594,-10.227676391601562,18.875946044921875,-5.6055121421813965,1.0201342105865479,-17.398351669311523,-13.65439510345459,5.858864784240723,1.0278898477554321,-2.1801705360412598,-12.731240272521973,0.9138505458831787,13.319934844970703,-7.821817398071289,17.70024871826172,8.124948501586914,-12.03775405883789,-26.7437801361084,-18.6533260345459,-16.556312561035156,-1.687334656715393,1.8511900901794434,-18.95279312133789,2.609947443008423,-0.7357479333877563,0.13678480684757233,1.525286078453064,16.11513328552246,9.376583099365234,13.30666732788086,-22.20862579345703,7.583006858825684,1.9830833673477173,13.68091869354248,-20.24427604675293,-11.55769157409668,-18.72521209716797,-7.160527229309082,11.64456558227539,-11.213098526000977,0.08455856889486313,-7.088603496551514,2.810887336730957,-0.14428947865962982,-0.6550462245941162,8.754461288452148,19.345176696777344,12.983475685119629,18.11197280883789,5.627986907958984,-18.168659210205078,17.691219329833984,18.550188064575195,-14.694857597351074,-23.68389129638672,-19.248001098632812,-12.82719898223877,-26.108633041381836,10.607897758483887,-30.85014533996582,-16.990558624267578,13.782971382141113,-26.195730209350586,8.011092185974121,-16.820228576660156,-22.497276306152344,3.439976692199707,-6.384340286254883,-10.340721130371094,-2.211153030395508,8.845477104187012,21.171833038330078,-19.55470085144043,6.688460350036621,6.875423431396484,-5.443257808685303,9.609195709228516,6.729463577270508,-17.673194885253906,4.116165637969971,-10.598684310913086,-22.933883666992188,17.120830535888672,13.585114479064941,16.542194366455078,8.87977123260498,20.53962516784668,14.252835273742676,-16.905235290527344,17.88741111755371,21.878034591674805,-7.87105131149292,30.40814208984375,-22.323678970336914,-14.178719520568848,-30.206560134887695,-2.913529396057129,14.357010841369629,-11.172901153564453,-9.160273551940918,-12.85825252532959,10.43865966796875,4.789423942565918,-7.0983405113220215,24.917747497558594,32.50128936767578,12.627326965332031,18.44150733947754,16.768129348754883,-26.582048416137695,23.126317977905273,4.250952243804932,-9.502723693847656,14.59256362915039,2.787184715270996,-0.5699897408485413,13.378486633300781,1.754140853881836,15.08821964263916,3.486931562423706,-12.578752517700195,10.024909973144531,2.1562187671661377,10.582667350769043,17.41109848022461,-2.943908452987671,-11.235284805297852,-10.444210052490234,2.8918991088867188,15.468636512756348,-12.648676872253418,13.857154846191406,-3.6199028491973877,-17.516807556152344,0.5993595123291016,-6.776638031005859,10.24571704864502,8.557366371154785,13.201454162597656,1.1561434268951416,1.9915313720703125,-0.4374261200428009,6.1827497482299805,9.637838363647461,15.943843841552734,-8.681517601013184,-2.4488461017608643,-0.5819383263587952,-0.3743458688259125,-9.529000282287598,-10.231596946716309,-9.446038246154785,3.849316120147705,3.819774627685547,2.3870973587036133,2.4102699756622314,-15.544621467590332,0.7116813063621521,-18.890024185180664,11.37328815460205,1.9337663650512695,-9.268367767333984,-6.470726490020752,-9.186562538146973,0.562817394733429,-1.0672978162765503,-16.569852828979492,-1.5244847536087036,1.7563295364379883,-2.00083589553833,-6.026711940765381,-1.95072603225708,-0.49848151206970215,6.264151573181152,21.0815486907959,-0.4758221507072449,10.023392677307129,12.722009658813477,19.897153854370117,12.205223083496094,-5.004374027252197,-11.4777193069458,17.973432540893555,-15.945940017700195,-2.361672878265381,1.2515813112258911,26.714120864868164,27.952035903930664,-37.26148986816406,16.87434196472168,2.4157588481903076,1.3081213235855103,-26.67304229736328,16.02541732788086,-4.764440536499023,18.330846786499023,12.191349029541016,-8.014752388000488,-14.804967880249023,5.909456729888916,-27.489343643188477,-40.739864349365234,-21.97989845275879,-31.788185119628906,-4.175468444824219,-12.09950065612793,-21.676393508911133,-3.1529319286346436,-7.498010158538818,25.828582763671875,-0.5213760733604431,6.257506370544434,-22.134639739990234,1.8474680185317993,20.57550811767578,-22.610408782958984,-3.8237316608428955,28.70311737060547,-17.16606330871582,4.531998634338379,36.3155403137207,-2.6403956413269043,11.497795104980469,2.0738046169281006,4.220707416534424,21.75351905822754,13.042562484741211,2.6431565284729004,6.022148609161377,4.568717002868652,-7.012242317199707,3.104144811630249,-0.2978401482105255,4.521757125854492,0.2010861486196518,-20.773115158081055,18.646127700805664,0.6350429654121399,-20.590347290039062,22.035015106201172,8.651469230651855,0.4339008629322052,0.7987185716629028,0.015495268628001213,-23.304365158081055,0.8869584202766418,1.0359338521957397,1.0936877727508545,-0.7282058596611023,0.5490642786026001,-21.46095848083496,-0.45143553614616394,-1.0213065147399902,20.903827667236328,-1.9197572469711304,21.622072219848633,22.56446647644043,1.1896289587020874,21.334665298461914,-0.0801505297422409,0.4540666937828064,0.8253061771392822,21.095684051513672,-21.57797622680664,0.2969006896018982,21.187049865722656,-0.8498721718788147,-0.7420871257781982,-24.13910484313965,-22.36734962463379,19.079227447509766,21.163724899291992,3.9068922996520996,0.11980090290307999,-0.47708776593208313,20.119905471801758,-21.56982421875,21.374900817871094,-17.037147521972656,-21.654457092285156,-3.05623722076416,-11.61642837524414,-19.982067108154297,0.3196999430656433,-0.6026396155357361,-23.42481803894043,21.99810028076172,-0.6997510194778442,-20.304140090942383,18.237834930419922,15.218864440917969,10.785270690917969,2.1018834114074707,13.255098342895508,3.14349627494812,13.483155250549316,8.609378814697266,-15.604314804077148,0.6113564372062683,6.37273645401001,13.295320510864258,2.818861484527588,-15.518019676208496,2.890002489089966,-1.8111497163772583,3.8899638652801514,-2.933692693710327,-11.96505069732666,14.823651313781738,-2.4355063438415527,-11.387994766235352,-2.285409688949585,0.6667755842208862,4.470316410064697,5.927846431732178,-17.956398010253906,3.846795082092285,-1.1624999046325684,-16.0073184967041,-12.965288162231445,-16.514577865600586,2.1599819660186768,-13.65991497039795,-13.00098991394043,-4.1076459884643555,-7.390229225158691,-13.379302024841309,10.675773620605469,0.2478145956993103,-2.775343179702759,-2.3526453971862793,-3.802093744277954,2.39483380317688,-8.58491325378418,-2.392439842224121,4.700249195098877,8.683810234069824,-18.915555953979492,6.492325782775879,-14.820541381835938,-14.316733360290527,5.779869556427002,7.243220329284668,-1.6542482376098633,-4.670346736907959,-1.3793994188308716,-1.5291826725006104,-2.032392978668213,-7.469961166381836,9.251592636108398,3.3270649909973145,2.2234156131744385,8.550382614135742,3.38273549079895,2.7429003715515137,2.4375436305999756,-2.8563292026519775,2.5149881839752197,0.6351026892662048,2.377746820449829,3.2534451484680176,-3.150455951690674,3.341217517852783,0.20056214928627014,2.2757978439331055,-0.7996468544006348,-4.594506740570068,12.223121643066406,-1.427433967590332,-3.7929275035858154,-2.698823928833008,-0.3237019181251526,0.7364104986190796,-0.27563533186912537,-1.7960739135742188,5.319548606872559,-0.27518361806869507,-9.09721851348877,-3.693075656890869,-2.6375114917755127,2.156558036804199,-2.430847406387329,-1.7817187309265137,1.3662025928497314,-11.772721290588379,-7.250001430511475,1.029832124710083,-0.481833279132843,-0.41167548298835754,-1.7412521839141846,-0.33661341667175293,1.689786672592163,-2.836360454559326,-2.5598835945129395,3.8364131450653076,5.964232921600342,-5.0197296142578125,-1.1972079277038574,-2.0883092880249023,-5.6724066734313965,4.162271976470947,1.758849859237671,-3.294548988342285,-5.00562858581543,-1.0330204963684082,1.1120260953903198,2.7137773036956787,-2.879671573638916,18.374013900756836,-10.737884521484375,-0.9833759069442749,35.88166809082031,12.705268859863281,-34.54109191894531,16.682161331176758,-32.275394439697266,-1.9360369443893433,-31.080467224121094,-18.749208450317383,-0.9314165115356445,14.7974271774292,27.741432189941406,20.940935134887695,24.396650314331055,-23.939067840576172,13.096757888793945,8.875761985778809,2.03027081489563,8.28206729888916,-13.86330795288086,-44.32763671875,16.953399658203125,-10.817987442016602,-2.7446625232696533,3.986696243286133,-6.0713300704956055,-0.4882311224937439,-15.21287727355957,-4.2735595703125,-22.45646858215332,10.474685668945312,15.787856101989746,-16.295412063598633,-3.6985232830047607,-33.486366271972656,6.662014007568359,16.272018432617188,-18.772735595703125,-13.29190444946289,-35.27485275268555,-9.126396179199219,6.4853129386901855,-8.879446983337402,28.481109619140625,-36.69070816040039,-17.360614776611328,30.25274085998535,24.169506072998047,-16.968313217163086,11.8313570022583,9.519865989685059,-5.831973552703857,-5.31256628036499,-11.282781600952148,18.170848846435547,32.01865005493164,-8.809704780578613,17.827838897705078,31.970252990722656,11.34565544128418,35.41571044921875,-11.439393043518066,-3.5071637630462646,1.0980132818222046,-15.274862289428711,11.90855884552002,-32.87770080566406,9.035947799682617,6.1892523765563965,-23.876924514770508,-0.7908409237861633,12.82392692565918,1.8317949771881104,-3.258636236190796,-12.903387069702148,30.682621002197266,17.899412155151367,-12.898289680480957,36.41289138793945,-15.92640495300293,-18.436790466308594,1.1965131759643555,-5.99294376373291,14.913228988647461,-18.573270797729492,-32.79866027832031,-26.576881408691406,-34.72489547729492,-11.53921127319336,18.62677574157715,-13.61143970489502,-14.292308807373047,-12.125959396362305,-26.874347686767578,29.584707260131836,18.02637481689453,-6.398717403411865,-8.46768856048584,-3.926271677017212,24.880435943603516,-9.605603218078613,2.055974006652832,10.093417167663574,-13.638387680053711,-4.126550674438477,11.117131233215332,7.511078357696533,-14.332895278930664,-1.0130387544631958,-20.228517532348633,-10.7593355178833,5.221607208251953,-17.576303482055664,-20.351360321044922,-0.8137936592102051,1.7469807863235474,12.837793350219727,8.464579582214355,15.437891006469727,-1.2507613897323608,33.1483268737793,-0.8864746689796448,-8.42078971862793,-2.8682076930999756,-3.891559362411499,-22.018301010131836,9.414222717285156,4.132715702056885,6.720805644989014,11.895472526550293,11.879998207092285,-7.679378032684326,9.371621131896973,1.2473580837249756,0.061993032693862915,8.215455055236816,13.32485580444336,-28.98888397216797,9.620227813720703,-29.9323787689209,-3.125460147857666,-33.545772552490234,34.075653076171875,-6.639144420623779,0.7014759182929993,-16.79867935180664,-12.592684745788574,-11.68606185913086,-9.58159065246582,9.482351303100586,-11.181502342224121,-26.696985244750977,-11.811507225036621,35.26911163330078,5.799312591552734,7.823453426361084,-11.73131275177002,-4.894289016723633,-3.583970069885254,11.061784744262695,-32.368988037109375,12.922533988952637,-11.842991828918457,10.488539695739746,10.579941749572754,10.706278800964355,-13.313756942749023,30.572811126708984,32.391090393066406,-4.1436848640441895,-38.95912170410156,-2.4898197650909424,-7.436470985412598,12.60936450958252,-33.34984588623047,-9.233332633972168,-10.238066673278809,9.693426132202148,5.618282794952393,9.793940544128418,-10.264813423156738,-9.721393585205078,10.312355041503906,10.297348976135254,-9.983819961547852,-10.525891304016113,-10.472363471984863,10.435341835021973,-10.197253227233887,9.333990097045898,-9.678603172302246,10.384535789489746,10.29476547241211,8.863336563110352,9.375110626220703,9.391646385192871,-9.500896453857422,10.170638084411621,-10.451574325561523,-10.553488731384277,11.426488876342773,9.360654830932617,-10.217049598693848,-9.142497062683105,-10.371542930603027,10.438394546508789,-7.7299299240112305,9.821142196655273,10.395846366882324,-8.946308135986328,-9.520389556884766,5.27987003326416,9.847004890441895,9.738231658935547,-10.750432968139648,8.200599670410156,-9.977842330932617,-10.076251029968262,10.058512687683105,-10.173359870910645,1.296007513999939,-6.8866400718688965,-5.350607395172119,9.141685485839844,8.763435363769531,9.0892915725708,10.085904121398926,9.765443801879883,9.363630294799805,-9.533730506896973,-9.854281425476074,10.66608715057373,9.780677795410156,-9.25716495513916,0.012789295986294746,0.05175112560391426,-0.03588968515396118,-0.04803893715143204,-0.006019452586770058,0.03934280574321747,0.004466833546757698,0.05929514765739441,-0.010202581994235516,-0.011986836791038513,0.06731696426868439,0.0698760524392128,-0.018950873985886574,0.0600317046046257,-0.013479874469339848,0.03460037335753441,0.016154197975993156,-0.017973344773054123,0.04693133756518364,0.010186450555920601,0.06662257015705109,0.02296869270503521,-0.016871275380253792,0.06385099142789841,0.0067796483635902405,-0.028659412637352943,0.04516098275780678,-0.03148287534713745,0.001014883746393025,-0.005796348676085472,0.07834034413099289,0.013300538994371891,-0.03398192673921585,-0.0065667168237268925,0.05377132445573807,0.046460554003715515,-0.07751762866973877,-0.04022025316953659,-0.0405932180583477,0.026898181065917015,0.010484273545444012,-0.049621760845184326,0.04961702600121498,-0.0005018626688979566,0.02222071774303913,0.044195789843797684,-0.07706721872091293,0.015911679714918137,0.07803632318973541,0.05729079246520996,0.07105158269405365,0.010769176296889782,-0.005797522608190775,0.03666996955871582,-0.0418463833630085,-0.04441828280687332,-0.02159971557557583,0.012975472956895828,-0.029036041349172592]},"hiddenLayers":[{"inputMatrix":{"rows":20,"columns":59,"weights":[-1.2547450065612793,0.01827799528837204,-0.8827874064445496,-0.18461886048316956,-0.8301777839660645,0.02773265540599823,-0.27482035756111145,-0.5228910446166992,-0.19239245355129242,-0.65265953540802,0.022348303347826004,0.04332491755485535,0.34690406918525696,-0.6071135401725769,-0.8160015344619751,0.0936051607131958,1.165106177330017,0.14865998923778534,-0.5591809749603271,-0.31713706254959106,0.23509204387664795,0.44636836647987366,2.042522668838501,-1.6681207418441772,0.0046667433343827724,1.0975440740585327,-0.4521887004375458,1.148627758026123,0.495968222618103,0.4341619312763214,0.7724115252494812,0.890021800994873,0.14737451076507568,0.12781865894794464,1.8398756980895996,0.981040358543396,0.3807069659233093,-0.907218873500824,-0.14655613899230957,0.6686843633651733,1.691304087638855,0.2945358455181122,-0.2864249646663666,-0.22000302374362946,0.5100775361061096,-1.3653974533081055,1.5814651250839233,0.6617226004600525,-1.5946745872497559,-0.7029317617416382,0.9445799589157104,-0.9984686970710754,-0.5160942077636719,-1.1656090021133423,0.4461405277252197,0.3870696723461151,-0.5460858941078186,-0.7867128252983093,0.664009153842926,0.6878111958503723,2.3230960369110107,-0.035967592149972916,1.6858538389205933,-1.4133288860321045,0.9999011158943176,-0.4296010434627533,-1.2448407411575317,-0.02372371219098568,-2.16001296043396,0.9839081168174744,0.32392239570617676,-1.0330685377120972,-0.09450790286064148,-0.3980773389339447,-0.6009243130683899,0.2785971760749817,-1.392433762550354,1.2708150148391724,0.8013137578964233,-0.39379584789276123,1.6806267499923706,-0.46572747826576233,-0.494610071182251,0.9305495619773865,-0.15761864185333252,-1.186094045639038,-0.8782443404197693,-1.7411481142044067,-0.4197034239768982,-0.9577845931053162,0.2894838750362396,-0.0744091346859932,-0.5382091999053955,-0.36075079441070557,0.9721881151199341,-1.408477783203125,0.7185881733894348,0.5567892789840698,1.8905601501464844,0.1701347827911377,-0.7169152498245239,0.6036478281021118,-0.4917737543582916,1.1106054782867432,-0.566077470779419,0.3625069260597229,-1.3212159872055054,-0.15309205651283264,-0.3814641833305359,-0.9319539070129395,-1.4707708358764648,-1.1310851573944092,-0.5527356863021851,0.273855060338974,-0.7787721157073975,-2.4676735401153564,-1.3641215562820435,1.1590492725372314,-1.834768295288086,-0.4763247072696686,-1.9300005435943604,-1.6555161476135254,-0.5099004507064819,-0.29895034432411194,0.6502179503440857,0.0999230146408081,-0.5477034449577332,2.2532238960266113,-0.26483818888664246,0.5532475709915161,-0.1997215747833252,-0.9693703055381775,-1.4094158411026,0.963875949382782,1.283410668373108,0.6590755581855774,-2.58357310295105,-0.6485728621482849,-0.862374484539032,0.017286984249949455,0.6191794872283936,1.630971908569336,0.9266427755355835,1.6069599390029907,-1.4480342864990234,0.4024752676486969,2.2572362422943115,1.3126349449157715,1.6969311237335205,0.5318111181259155,0.04060312733054161,-0.09118436276912689,0.9408774971961975,1.1615853309631348,1.0719900131225586,-0.604438841342926,0.0783383920788765,-0.24092212319374084,0.36559686064720154,0.519628643989563,0.47694844007492065,-0.22598013281822205,-0.0725957378745079,-0.08813704550266266,0.4301227629184723,1.992716670036316,-0.6673194766044617,-0.5414601564407349,1.3813693523406982,-0.18792837858200073,-0.49677690863609314,-0.4643881022930145,1.2455580234527588,0.4583049416542053,-0.16656625270843506,0.10390475392341614,0.30800044536590576,-0.4220428466796875,-1.6423728466033936,-0.436091810464859,-0.6144713759422302,-0.012827757745981216,-1.583985686302185,-1.5916563272476196,-0.25766462087631226,-0.1899043172597885,0.5321984887123108,-0.7437412738800049,-0.8083478212356567,1.990737795829773,-0.48801490664482117,-0.3313382863998413,-0.9148498773574829,0.6552221775054932,1.479352355003357,-0.2502368092536926,0.22144025564193726,0.8833492994308472,-1.4232226610183716,0.21545282006263733,-0.7936875224113464,-2.33339524269104,0.4987466633319855,0.3513666093349457,-0.38154780864715576,0.7286204695701599,0.24564996361732483,0.08061916381120682,0.5434846878051758,1.4409534931182861,0.6594876646995544,-0.11940159648656845,-0.12756910920143127,0.8790262937545776,0.15445013344287872,0.7465436458587646,-1.0854581594467163,-0.27219048142433167,-0.2929501533508301,-1.8939807415008545,1.5480514764785767,-1.4925307035446167,-0.17159505188465118,0.2639523446559906,0.19516970217227936,-0.40944188833236694,-0.30799371004104614,0.3117218017578125,1.5633586645126343,1.2702983617782593,-0.7910099029541016,-0.2261788696050644,-0.43127766251564026,0.9344663023948669,1.9352260828018188,-1.1132605075836182,-0.09212315082550049,-0.2180609554052353,-0.3805398941040039,0.9133313894271851,-0.8767590522766113,0.5943312048912048,1.55235755443573,-0.09224487841129303,0.7970417737960815,0.2680412232875824,1.4953198432922363,0.43868139386177063,0.09083538502454758,-0.8745071291923523,-0.11802821606397629,1.4893726110458374,0.03889654949307442,0.33299481868743896,1.537256121635437,-1.7800284624099731,-0.6510363817214966,0.23576343059539795,1.208829402923584,0.7875882387161255,1.0032867193222046,0.6729986071586609,-0.4944031536579132,2.0393567085266113,-1.3729169368743896,-0.6422132849693298,0.3830912113189697,0.11192233860492706,-1.260681390762329,-1.3242089748382568,1.0362927913665771,1.194991111755371,-1.6251428127288818,-0.4705006778240204,-1.9320648908615112,0.6730343699455261,0.7863829135894775,2.5853261947631836,0.1029287725687027,-0.009823208674788475,-0.20132996141910553,-0.3557957112789154,1.4892112016677856,0.5100106596946716,-0.6677709817886353,-0.14869286119937897,0.5125455856323242,-0.858974039554596,-0.5959558486938477,0.049380093812942505,0.28498396277427673,1.8562591075897217,-0.28917625546455383,-0.43220892548561096,0.6585822701454163,0.6498052477836609,0.17269933223724365,0.5267989635467529,0.9876756072044373,1.010265827178955,-0.7919395565986633,0.23917947709560394,0.4120846092700958,0.26103320717811584,-1.099729299545288,-0.40683141350746155,0.13304676115512848,0.5276673436164856,1.9382998943328857,0.9263490438461304,0.43366268277168274,-1.1580214500427246,-0.2113676518201828,0.38446682691574097,-0.18844066560268402,-0.19702892005443573,0.03551333770155907,-1.4982964992523193,-0.44715914130210876,-1.221403956413269,-1.0323410034179688,0.8288868069648743,-1.248381495475769,-0.575892984867096,-1.667252779006958,-1.4588087797164917,-0.7097551822662354,-0.06311213225126266,0.7217065095901489,-1.4040331840515137,-0.7065366506576538,-0.722959041595459,1.4403550624847412,0.18125134706497192,-1.4693037271499634,-1.332070231437683,-1.0710124969482422,-0.5378879308700562,-0.028157414868474007,-0.33287301659584045,1.4833285808563232,-1.2712215185165405,-1.6297271251678467,1.3505719900131226,0.7409762740135193,-1.1839747428894043,0.15928378701210022,0.5907654166221619,-0.051276687532663345,-0.23334574699401855,-1.3907992839813232,1.4739997386932373,0.7657564878463745,-0.30662572383880615,1.8796688318252563,1.8753578662872314,2.0795726776123047,1.0746135711669922,0.28264373540878296,0.7673974633216858,-0.00635940907523036,-1.0591659545898438,1.0090526342391968,-1.0761544704437256,1.3758695125579834,1.175968885421753,-0.5360034108161926,0.07528223842382431,0.7816665768623352,-0.029667982831597328,0.22878938913345337,-1.3129758834838867,1.0065550804138184,-0.4668000042438507,0.2065860629081726,-0.12073550373315811,0.48441484570503235,-0.4610578417778015,1.040055274963379,-0.9473801851272583,0.7815688848495483,0.7926392555236816,-0.895175576210022,-0.8853104114532471,-1.6019773483276367,-0.12841235101222992,-2.309159755706787,-0.30547407269477844,0.28026241064071655,-1.9322630167007446,-2.474778652191162,1.265968680381775,-0.38330575823783875,1.0159401893615723,0.2160158008337021,0.712567150592804,0.19840513169765472,0.07376246899366379,-0.18527822196483612,0.20848628878593445,0.15813857316970825,0.9927304983139038,-0.3893398344516754,-0.28855788707733154,-1.7998356819152832,0.11126203835010529,0.5937048196792603,-0.151325061917305,-2.7807788848876953,1.1603087186813354,-1.0295625925064087,-0.012188063934445381,-0.40394651889801025,2.428159475326538,0.16416101157665253,0.8145273327827454,0.3222985565662384,0.7620394229888916,0.30790480971336365,0.2496286779642105,0.01287144050002098,0.10364820063114166,-0.3945033550262451,1.0042829513549805,0.10276532918214798,-0.5013602375984192,1.4735138416290283,0.5711670517921448,-0.5893341302871704,-1.1586858034133911,-0.3887769877910614,1.5578513145446777,0.8136683702468872,-1.356773018836975,-0.04642612859606743,-1.3864829540252686,0.08618266880512238,0.24873732030391693,-1.667099118232727,0.34513187408447266,-0.7861905694007874,-1.9972271919250488,-1.1527563333511353,-1.815557837486267,-0.64902663230896,-0.3063336908817291,-0.6858634948730469,-1.339302897453308,-1.0626609325408936,-1.2869101762771606,1.4387232065200806,0.5234172344207764,-0.44913068413734436,-1.4499129056930542,-0.7035483121871948,0.5873171091079712,0.4467487037181854,-0.5614311695098877,1.2215443849563599,-0.6915981769561768,-0.9205015301704407,1.012507438659668,-0.07799717038869858,-1.4649521112442017,0.8749376535415649,0.8173255920410156,-0.3518470823764801,-0.705693244934082,-0.9220953583717346,0.19792620837688446,0.6945177316665649,-0.7488371729850769,-1.4790889024734497,-0.47695910930633545,-0.13112518191337585,-1.1078351736068726,0.2840571403503418,-1.3801946640014648,-1.3290517330169678,1.4771898984909058,-0.5840216875076294,-0.1755402684211731,-1.099168300628662,-2.293060064315796,0.8019008636474609,-0.794273853302002,-0.9281281232833862,-0.6811302900314331,1.3381680250167847,0.4579576551914215,-0.19937798380851746,0.5330679416656494,1.5475667715072632,-0.5365929007530212,0.39132270216941833,-1.2613970041275024,-0.8279657363891602,1.145887017250061,-0.7177611589431763,-0.5152683258056641,0.3203858435153961,0.9187763929367065,1.1357157230377197,0.8529521822929382,1.789167881011963,1.3888263702392578,0.77076655626297,0.8521103858947754,1.5078599452972412,-0.9785562753677368,0.5373159646987915,-0.9852585196495056,0.3956425189971924,-0.8835762143135071,-0.892935037612915,1.271782398223877,-0.8394901156425476,-1.1127647161483765,0.23496617376804352,0.5482206344604492,-1.0223512649536133,-0.7298620939254761,1.5705970525741577,0.7551563382148743,0.474454790353775,-0.07860485464334488,0.33843615651130676,-0.6779038906097412,-0.023155221715569496,0.4691062867641449,-0.4328610599040985,-1.607163429260254,-1.5708318948745728,-2.4134609699249268,-0.18434983491897583,1.0514194965362549,-0.4774024486541748,0.5255362391471863,0.5232928395271301,-0.4456724226474762,2.459787368774414,-0.2519204616546631,-0.4622115194797516,-0.8703368306159973,-1.8262044191360474,-1.5564324855804443,-0.3551332950592041,1.5237581729888916,0.8765286803245544,-1.6331274509429932,0.48510000109672546,-0.5171113610267639,-0.3143482804298401,-0.10804067552089691,0.923588752746582,-0.3363460600376129,0.7727134227752686,-0.6740290522575378,-0.8670470118522644,1.2872343063354492,2.428776264190674,2.2923524379730225,1.457390546798706,0.2784249782562256,-0.15585097670555115,-0.12437988072633743,0.9329604506492615,1.8734123706817627,-1.7452001571655273,0.4692431092262268,-1.0290818214416504,-0.44274142384529114,-0.386956125497818,0.35431328415870667,0.7243843078613281,-1.2622532844543457,-0.6569079756736755,-0.06908785551786423,0.805748462677002,-0.06829679012298584,-1.510924220085144,2.4612295627593994,1.2030802965164185,0.04557536542415619,0.3976813554763794,1.6008213758468628,-0.5472880601882935,1.3941916227340698,0.627141535282135,-0.7898502349853516,0.7679526209831238,0.37812331318855286,0.6539480686187744,-0.40476852655410767,2.1668083667755127,0.007646168582141399,-1.3726704120635986,1.1053576469421387,-1.2995681762695312,0.31361305713653564,-0.6592439413070679,-0.5659797191619873,1.1824204921722412,0.5491392016410828,0.6227784156799316,-1.2001112699508667,-0.7864139080047607,0.2804199457168579,0.4574105739593506,1.1293494701385498,1.1319063901901245,-1.4995360374450684,-1.6347397565841675,-1.1520050764083862,-1.3270447254180908,-0.5519609451293945,0.5420694947242737,-1.028249740600586,-0.11210417747497559,0.17819035053253174,-0.8889955878257751,-0.42114484310150146,-0.23451055586338043,1.5542246103286743,-1.3325952291488647,-0.20002618432044983,0.03748691454529762,0.31234443187713623,1.4773428440093994,0.17274855077266693,-1.356775164604187,-1.1491398811340332,-1.1888720989227295,0.20587162673473358,-1.0119519233703613,0.21802732348442078,-0.6567332744598389,-1.1157761812210083,0.8283445239067078,-0.9442489147186279,-0.5113168954849243,0.8259357213973999,0.6973393559455872,0.1280997097492218,0.02250847779214382,-1.3422627449035645,0.6932039260864258,1.6699559688568115,-1.5170706510543823,-0.8705300092697144,-1.6453354358673096,-0.5824897885322571,-0.7877131104469299,0.9541164040565491,-1.631635308265686,-1.0741527080535889,0.6994377374649048,-1.2734805345535278,0.26818081736564636,-1.6839667558670044,-1.4836281538009644,1.393105387687683,0.06731054931879044,-0.04305827245116234,-0.7378585934638977,0.390394002199173,1.0702638626098633,-0.7448086142539978,1.336479663848877,0.5011477470397949,-0.20536600053310394,-1.5634583234786987,0.4948635995388031,-1.4941412210464478,0.34686923027038574,0.08545681834220886,-1.2543983459472656,0.5820307731628418,0.15074031054973602,0.12375685572624207,0.25437110662460327,1.0827282667160034,1.4207346439361572,-2.644636392593384,0.2923868000507355,0.40533921122550964,0.12634561955928802,1.2852857112884521,-0.6519131064414978,-1.7324219942092896,-1.1906459331512451,-1.2240017652511597,1.1492538452148438,-0.5166254043579102,-0.10603246837854385,-1.9545103311538696,0.301647424697876,0.5184984803199768,-0.24004508554935455,0.46787723898887634,0.2363477200269699,0.9449626207351685,-0.5829393267631531,0.34191763401031494,-1.4560433626174927,1.49380362033844,1.2104473114013672,-0.44886526465415955,-0.13361027836799622,-0.6287473440170288,0.6813824772834778,-0.53038090467453,0.3293522894382477,-2.553642988204956,-0.8458459973335266,2.3735039234161377,-0.18210478127002716,-0.958253026008606,-1.2041053771972656,-0.24851061403751373,1.186830759048462,-0.26835310459136963,0.7316011786460876,-0.49050092697143555,-0.26469701528549194,1.6273059844970703,0.45664238929748535,-0.03995262458920479,1.187421441078186,-0.8812718987464905,-0.776750922203064,-2.1413586139678955,-1.4346070289611816,0.48248985409736633,0.23240798711776733,-0.20708654820919037,0.08046165853738785,-0.3767458200454712,-0.037696633487939835,-0.6934495568275452,0.3880211114883423,1.7619649171829224,-0.2600434720516205,-0.7478744983673096,1.106715202331543,0.2774348855018616,0.09202781319618225,-1.5506012439727783,-0.11548127233982086,-0.537017822265625,-0.09996955841779709,1.0190582275390625,-0.8139714598655701,1.2693676948547363,-1.9896283149719238,0.8414738178253174,1.514312982559204,1.621872067451477,0.5599157214164734,0.5584888458251953,-0.12786555290222168,0.9343147873878479,-0.8111763596534729,0.26810041069984436,1.042160987854004,1.2976938486099243,0.03445408120751381,-1.0808087587356567,-0.5363019704818726,0.2436741292476654,-1.1584011316299438,0.264209121465683,-0.9240595102310181,-2.1149370670318604,0.9560666084289551,-1.5480493307113647,-0.16702961921691895,-0.26559212803840637,-1.3629189729690552,0.049818914383649826,-0.012832487933337688,0.27638787031173706,-1.4148985147476196,-0.17563632130622864,0.5778697729110718,-1.1354553699493408,1.3875524997711182,1.7959849834442139,-1.9227231740951538,-0.7992926239967346,0.09640476107597351,-0.9764650464057922,0.05168326944112778,-0.13511724770069122,-1.2658894062042236,0.8053038120269775,0.08394816517829895,-0.02190614491701126,-0.38990432024002075,1.8746402263641357,1.1872055530548096,-1.0729926824569702,0.14345403015613556,0.42578795552253723,-0.0676909014582634,1.5159358978271484,-1.0388621091842651,-0.7194276452064514,-1.2683892250061035,-0.8240865468978882,1.7812824249267578,-1.0466948747634888,0.04627135023474693,-0.817081868648529,0.5585570335388184,0.10997581481933594,0.3038134276866913,-0.010082387365400791,1.867500901222229,1.4427969455718994,0.9348861575126648,0.7333589196205139,-1.0410640239715576,0.5455363392829895,1.2940495014190674,-0.6489797830581665,-0.03492899239063263,-0.059606291353702545,0.45427632331848145,0.1655295342206955,0.9146896004676819,0.08396083116531372,0.18338191509246826,0.6841391921043396,-0.2614835500717163,-0.6713665723800659,-0.18811263144016266,-0.4715996980667114,0.20114919543266296,1.2395449876785278,0.4360005855560303,1.2991893291473389,-0.4869496524333954,0.21130232512950897,-0.1011042520403862,0.391154944896698,-0.8320074081420898,0.044788215309381485,-1.2001177072525024,0.16854354739189148,-0.14153926074504852,-1.144515037536621,-0.8272750377655029,-2.09625506401062,-0.08098000288009644,-1.1426509618759155,-0.6303531527519226,-0.4321988523006439,0.1858309656381607,0.3008684813976288,-1.2617464065551758,-0.11932247132062912,0.0064478907734155655,1.2232320308685303,1.0328665971755981,0.26659727096557617,-1.4782164096832275,-0.837592363357544,-0.3803526759147644,-0.2469780296087265,-0.09233848750591278,1.4141607284545898,-1.3291430473327637,-0.031380221247673035,0.6964472532272339,0.6763951778411865,-0.10499541461467743,0.020849520340561867,0.3407597541809082,1.2436532974243164,1.311317801475525,-1.3322844505310059,0.3583472669124603,0.5531614422798157,-0.7930982708930969,0.7015038132667542,-0.30412614345550537,0.20048560202121735,-0.30784690380096436,1.762937068939209,0.4905833601951599,-3.4907867908477783,-0.24208740890026093,0.1791868507862091,0.3349948823451996,0.0879291370511055,-0.8480329513549805,0.08392145484685898,0.19067725539207458,-0.03616481274366379,-2.3898203372955322,0.01955060474574566,0.6202251315116882,-0.48187926411628723,1.4146404266357422,1.0575652122497559,-1.3812602758407593,-1.1748154163360596,-1.5557907819747925,-0.6944611072540283,-0.482686311006546,0.4660850763320923,-1.863131046295166,0.9722466468811035,-0.05533087998628616,-0.7864557504653931,0.04210876673460007,1.5263677835464478,1.3807975053787231,-0.9126548171043396,0.4317814111709595,0.5184073448181152,0.33716702461242676,2.149280071258545,-1.12449312210083,-0.6906530261039734,-1.6854339838027954,-1.9943228960037231,1.567999243736267,-1.3889905214309692,0.38404378294944763,-0.34975576400756836,-0.41779327392578125,0.036370739340782166,-0.8898422718048096,-0.6514593958854675,1.2872084379196167,2.168889284133911,1.1378719806671143,-0.19045545160770416,-1.6282720565795898,0.728142261505127,0.3849632441997528,-1.6828163862228394,0.20279653370380402,0.6488940715789795,0.9571134448051453,0.7621423602104187,-0.4537022113800049,1.5316874980926514,1.4084630012512207,-1.0660377740859985,0.5642760396003723,-1.1746118068695068,1.3879952430725098,0.5504717826843262,-0.927919328212738,0.8449982404708862,1.3110415935516357,1.0560880899429321,-0.30052825808525085,-1.1111379861831665,0.3746755123138428,-0.6289187073707581,-0.8285415172576904,0.9430887699127197,0.2581004500389099,0.24060051143169403,1.9892367124557495,-1.1762868165969849,-0.821449339389801,0.5175821781158447,-0.6490111351013184,-1.035014033317566,-0.8740578889846802,-1.4020028114318848,-1.4174892902374268,-0.6341609358787537,0.701509416103363,0.4335843324661255,-1.5956683158874512,1.1788502931594849,-0.45278096199035645,1.1609179973602295,0.28000569343566895,0.7541723251342773,0.5899966955184937,-0.6476513147354126,0.9223606586456299,1.3359408378601074,0.4904542863368988,0.029545120894908905,-0.29745468497276306,1.8256462812423706,-0.6810042262077332,-1.2823288440704346,-1.0239816904067993,0.8024454712867737,0.47686269879341125,0.849148690700531,-1.4403773546218872,-0.779653012752533,1.020469069480896,-1.203631043434143,-0.9256272912025452,-0.9664186239242554,-1.2222495079040527,1.0042212009429932,-0.17912477254867554,-0.6949183940887451,1.3070117235183716,-1.8168131113052368,-0.502670168876648,-0.3548792600631714,0.5920379161834717,0.18330132961273193,0.41393446922302246,-0.5624375939369202,-1.2010036706924438,0.20526953041553497,1.276274561882019,-1.2854349613189697,2.3770511150360107,0.42316707968711853,-1.3178119659423828,-0.7036296129226685,-0.4637431800365448,-1.9896490573883057,-0.6437394022941589,-0.4133588373661041,-1.8576714992523193,0.7816201448440552,-0.14216876029968262,0.04779873788356781,0.5555986166000366,-0.2478138655424118,-0.34509652853012085,-0.315816193819046,0.8045780062675476,0.7919386029243469,-0.13897652924060822,2.201754570007324,-0.026876596733927727,-1.108786702156067,-2.5672998428344727,-1.1202538013458252,0.06637377291917801,-0.8597943782806396,0.3642788529396057,-0.010492699220776558,-0.9363791346549988,-0.19955693185329437,-0.12323211133480072,0.21276582777500153,1.0059925317764282,1.0508253574371338,-1.0827412605285645,1.6399321556091309,-2.800133228302002,0.5909987688064575,1.4480599164962769,-0.4979499280452728,-0.371106892824173,1.0137861967086792,0.09006354957818985,0.30601659417152405,-0.8408586382865906,-2.167991876602173,0.11908283829689026,2.5955286026000977,-1.8496131896972656,-1.8374903202056885,-0.996522068977356,-1.0789686441421509,0.881163477897644,-0.03462599217891693,0.33918675780296326,-1.9377424716949463,-0.11676519364118576,0.5842697024345398,1.4795256853103638,1.693325400352478,0.7910787463188171,0.6233964562416077,-0.5534802079200745,-1.7343426942825317,-2.09209942817688,-0.04749893769621849,-0.7369807362556458,-1.5798537731170654,-1.6826300621032715,-1.293113112449646,-0.002325080567970872,-0.05705755203962326,1.2861170768737793,-0.17275649309158325,-0.4154389798641205,0.8306595683097839,0.14668947458267212,0.27271097898483276,1.390174388885498,0.2273348718881607,-0.41218259930610657,-1.4740643501281738,0.806210458278656,1.237534999847412,0.19768664240837097,0.020427942276000977,-0.7546819448471069,0.16532307863235474,0.1314772367477417,1.1353952884674072,1.2338849306106567,-0.5001800060272217,-0.9084737300872803,-0.04015136510133743,1.2191520929336548,-2.173189401626587,-0.9939095377922058,-0.6918232440948486,1.4937429428100586,-1.2189886569976807,-0.8381653428077698,-0.13290061056613922,-0.16070884466171265,-1.1254018545150757,0.7377227544784546,1.6673526763916016,-0.8594639301300049,0.661698579788208,-0.4261500835418701,0.9196929931640625,0.8872623443603516,-1.095672845840454,0.941217839717865,-0.276285856962204,1.8457239866256714,-0.062484435737133026,0.30746933817863464,-0.4411166310310364,-1.2500501871109009,-1.2156516313552856,0.37896525859832764,2.1024632453918457,1.6292438507080078,0.705008864402771,0.5579019784927368,-0.9491878747940063,1.4165902137756348,-0.02812120132148266,-0.8429785370826721,0.13380150496959686,0.1657932549715042,0.010601426474750042,-1.2653923034667969,1.178364872932434,0.06987213343381882,-0.428794264793396,-0.15040497481822968,-1.4533145427703857,0.2563633620738983,0.5898867249488831,1.3789657354354858,1.2053555250167847,-1.2360471487045288,0.8385939002037048,0.14129629731178284,1.4235248565673828,0.9508469104766846,-0.22426143288612366,0.5850785374641418,0.22719405591487885,-0.7552844285964966,-1.50655198097229,-1.079546332359314,1.022914171218872,1.0107154846191406,0.24153739213943481,-0.9619244337081909,1.7241318225860596]},"inputHidden":{"rows":20,"columns":20,"weights":[-0.5238293409347534,0.3117234706878662,0.4617335796356201,0.7207738161087036,-1.292513370513916,0.33075177669525146,0.08844375610351562,-0.7966614961624146,1.1882435083389282,0.34756696224212646,-0.4080471098423004,-0.4836517870426178,-0.6755053400993347,0.3023569881916046,-0.3060872256755829,-0.8262485265731812,-0.019824249669909477,0.4219655990600586,-0.5321307182312012,0.8509300351142883,-1.2105300426483154,-1.6410653591156006,-0.8800256252288818,-1.4356889724731445,1.0282937288284302,-1.5975589752197266,-1.646767258644104,1.307542085647583,-0.9053440093994141,-0.7467083930969238,0.43642833828926086,-1.9415459632873535,0.07004502415657043,-1.4214740991592407,-0.19322478771209717,0.6037407517433167,-0.4004307985305786,-0.14181654155254364,1.074635624885559,-0.08489891141653061,-0.5903791785240173,0.5957630276679993,-0.7693248987197876,-0.21036610007286072,-1.7496148347854614,-0.9954739809036255,0.6731341481208801,-0.8664683103561401,-0.1722804605960846,-0.2943517565727234,-0.33649855852127075,-0.38362443447113037,-0.3108198642730713,-0.15974056720733643,0.5492382049560547,0.19668710231781006,0.7016929388046265,0.029697511345148087,-1.0776183605194092,0.03472806513309479,-0.8455222249031067,0.591529130935669,0.06439516693353653,0.6972869634628296,-1.3268744945526123,0.48140209913253784,1.1184890270233154,-1.1944465637207031,0.6062541604042053,0.349099725484848,-1.157970666885376,-0.1320417821407318,1.136988639831543,0.5271608233451843,-0.059083059430122375,-0.6912010908126831,0.47704416513442993,0.9830172657966614,-0.2817177474498749,-0.4240105450153351,0.7390116453170776,0.09062840044498444,-0.021452194079756737,-0.004364056512713432,-0.17448337376117706,1.7525804042816162,1.3563148975372314,-1.6830257177352905,-0.20696155726909637,0.02750362642109394,-0.029959607869386673,0.44582703709602356,0.3059671223163605,-0.26179689168930054,-0.516688346862793,0.006980848964303732,-1.0146400928497314,0.43997082114219666,1.0204921960830688,0.1826135367155075,0.17360951006412506,-0.6873967051506042,0.06047751009464264,0.3940281867980957,0.4340781271457672,-1.5795776844024658,-0.8993664383888245,0.40829870104789734,0.4172431230545044,-0.4817013740539551,-0.04918557032942772,-1.481891393661499,0.5329349040985107,0.39908266067504883,-0.3849111795425415,-0.7911943793296814,0.7263502478599548,0.7021502256393433,0.7736959457397461,-0.13162769377231598,0.1928095817565918,0.4862881004810333,0.20658832788467407,-1.3873217105865479,0.15840710699558258,0.010919186286628246,-0.061013758182525635,0.32730892300605774,-0.2516070604324341,-0.8111667633056641,-1.6094474792480469,-0.29822757840156555,0.6991787552833557,-0.07389874756336212,0.4691096544265747,-0.5504602193832397,0.5452366471290588,0.7109062671661377,-0.15823335945606232,-0.5773578882217407,0.25203585624694824,0.6853131651878357,0.047501303255558014,-0.5402048230171204,1.092015266418457,0.8339049220085144,0.17236776649951935,0.18460333347320557,-0.31505128741264343,-1.0836488008499146,0.432277113199234,1.2494386434555054,1.1112008094787598,-0.2167898565530777,0.5442629456520081,1.0166727304458618,-0.22010119259357452,-0.4361734688282013,-0.9196270704269409,-0.13345886766910553,1.4871426820755005,0.1473289579153061,0.4814324676990509,-0.5746243000030518,-0.09504614025354385,0.2771843373775482,0.2266007661819458,-0.26868516206741333,-0.6988049149513245,-0.7399696707725525,0.20774799585342407,0.039438482373952866,-0.06595192849636078,-0.8036138415336609,0.13420064747333527,1.238303780555725,-0.08344735205173492,-0.894453227519989,0.6833869218826294,-0.29525062441825867,-0.6007494926452637,0.4465675354003906,0.29295873641967773,0.5283802151679993,-1.3473073244094849,0.9869529008865356,0.4644654393196106,-0.9767817854881287,-1.1259950399398804,-0.6147314310073853,1.3079323768615723,1.890730619430542,-1.509849190711975,-0.7719934582710266,-0.9707562923431396,1.8238235712051392,-0.025406889617443085,-0.7857788801193237,1.8983560800552368,-0.3430255055427551,2.197547674179077,-0.34613391757011414,0.9921382069587708,-1.3086304664611816,-1.5907686948776245,-0.004270506557077169,0.6347945332527161,-1.1116281747817993,-1.367844581604004,-1.7499260902404785,2.0935542583465576,0.6953557729721069,1.0281966924667358,-1.1303274631500244,-0.05486776679754257,2.7375564575195312,-0.6515389680862427,-0.9883068799972534,1.3098739385604858,-0.09436485171318054,0.8342729210853577,-0.7014168500900269,