module.exports.net = function anonymous(rawInput,isSampleI,temperature
) {

  if (typeof rawInput === 'undefined') rawInput = [];
  if (typeof isSampleI === 'undefined') isSampleI = false;
  if (typeof temperature === 'undefined') temperature = 1;
  var json = {"type":"LSTM","options":{"inputSize":59,"inputRange":59,"hiddenLayers":[20,20],"outputSize":59,"decayRate":0.999,"smoothEps":1e-8,"regc":0.000001,"clipval":5,"maxPredictionLength":100,"dataFormatter":{"indexTable":{"H":0,"a":1,"e":2,"v":3,"S":4,"h":5,"k":6,"i":7,"A":8,"m":9,"o":10,"n":11,"b":12,"d":13,"p":14,"l":15,"y":16,"z":17,"t":18,"u":19,"r":20,"x":21,"s":22,"c":23,"g":24," ":25,"M":26,"q":27,"f":28,"D":29,"B":30,"R":31,"j":32,"ū":33,"C":34,"K":35,"P":36,"-":37,"E":38,"I":39,"F":40,"G":41,"L":42,"J":43,"İ":44,"N":45,"O":46,"Ö":47,"ö":48,"T":49,"Q":50,"í":51,"U":52,"V":53,"W":54,"X":55,"Y":56,"Z":57,"unrecognized":58},"characterTable":{"0":"H","1":"a","2":"e","3":"v","4":"S","5":"h","6":"k","7":"i","8":"A","9":"m","10":"o","11":"n","12":"b","13":"d","14":"p","15":"l","16":"y","17":"z","18":"t","19":"u","20":"r","21":"x","22":"s","23":"c","24":"g","25":" ","26":"M","27":"q","28":"f","29":"D","30":"B","31":"R","32":"j","33":"ū","34":"C","35":"K","36":"P","37":"-","38":"E","39":"I","40":"F","41":"G","42":"L","43":"J","44":"İ","45":"N","46":"O","47":"Ö","48":"ö","49":"T","50":"Q","51":"í","52":"U","53":"V","54":"W","55":"X","56":"Y","57":"Z","58":null},"values":["Haeva","Shki","Aamon","Amon","Abaddon","Apollyon","Abezethibou","Abraxas","Abyzou","Achlys","Adrammelech","Aeshma","Agaliarept","Agrat bat Mahlat","Agares","Agiel","Ahriman","Angra Mainyu","Aim","Haborym","Aka Manah","Akem Manah","Akoman","Akvan","Akuma","Al Ana","Ala","Alal","Alastor","Alloces","Allocer","Allu","Amaymon","Amdusias","Amy","Anammelech","Anathan","Anqa","Ancitif","Andhaka","Andras","Andrealphus","Andromalius","Anti","Antichrist","Anzu","Apaosha","Apep or Apophis","Armaros","Archon","Arunasura","Asag","Asakku","Asb","Asmodai","Asmodeus","Astaroth","Asura","Azazel","Azaz","Azi Dahaka","Dahak","Baal","Bael","Babi ngepet","Bakasura","Baku","Balam","Balberith","Bali Raj","Banshee","Baphomet","Barbas","Barbatos","Barong","Bathin","Mathim","Bathym","Marthim","Beelzebub","Belial","Beleth","Belphegor","Berith","Beherit","Bhūta","Bifrons","Boruta","Botis","Buer","Bukavac","Bune","Bushyasta","Caim","Camio","Charun","Chemosh","Choronzon","Chort","Cimejes","Kimaris","Cimeies","Corson","Crocell","Procell","Daeva","Dagon","Dajjal","Dantalion","Danjal","Decarabia","Demiurge","Demogorgon","Dev","Devil","Div-e Sepid","Djall","Drekavac","Dzoavits","Eblis","Iblis","Ibris","Eligos","Eisheth","Erlik","Focalor","Foras","Forcas","Forras","Forneus","Furcas","Forcas","Furfur","Gaap","Gader","Gadulta","Gaf","Gaki","Gamigin","Ghaddar","Ghoul","Giu","Glasya-Labolas","Caacrinolaas","Caassimolar","Classyalabolas","Glassia-labolis","Gorgon","Gremory","Gomory","Grigori","Gualichu","Guayota","Gusion","Gusoin","Gusoyn","Haagenti","Hag","Halphas","Malthus","Haures","Flauros","Flavros","Hauras","Havres","Hinn","Ifrit","Incubus","Ipos","Ipes","Jinn","Jikininki","Kali","Kabandha","Kabhanda","Kara İye","Kasadya","Kokabiel","Kore","Kroni","Krampus","Krun","Killakee Cat","Kukudh","Kulshedra","Kumbhakarna","Lamia","Latabi","Legion","Lechies","Leonard","Leyak","Lempo","Leraje","Leraie","Leviathan","Lili","Lilin","Lilim","Lilith","Ljubi","Lucifer","Lucifuge Rofocale","Mag","Marid","Malphas","Mammon","Mara","Maricha","Marax","Morax","Foraii","Marchosias","Mastema","Mazoku","Mephistopheles","Merihem","Moloch","Murmur","Naamah","Naberius","Cerbere","Naberus","Nalai","Ninurta","Niuli","Namtar","Nar as-samum","Oni","Onoskelis","Orcus","Orias","Oriax","Orobas","Ose","Ördög","O Tokata","Paimon","Pazuzu","Pelesit","Phenex","Penemue","Pithius","Pocong","Pontianak","Preta","Pruflas","Puloman","Qin","Rahab","Raum","Ronove","Rusalka","Rakshasa","Rangda","Ruha","Saleos","Samael","Salpsan","Satan","Satanachia","Scylla","Set","Seir","Semyaza","Shax","Chax","Shaitan","Shedim","Shdum","Sitri","Sthenno","Stihi","Stolas","Solas","Suanggi","Succubus","Surgat","Sut","Shinigami","Shuten Doji","Tannin","El Tío","Tengu","Titivillus","Toyol","Tuchulcha","Ukobach","Ur","Valac","Valefar","Malaphar","Malephar","Vanth","Vapula","Vassago","Vepar","Vine","Wechuge","Xaphan","Yeqon","Zabaniyya","Zagan","Zahreil","Zartai","Zartanai","Zepar","Ziminiar"],"characters":["H","a","e","v","S","h","k","i","A","m","o","n","b","d","p","l","y","z","t","u","r","x","s","c","g"," ","M","q","f","D","B","R","j","ū","C","K","P","-","E","I","F","G","L","J","İ","N","O","Ö","ö","T","Q","í","U","V","W","X","Y","Z","unrecognized"],"specialIndexes":[58]}},"trainOpts":{"iterations":1500,"errorThresh":0.4,"logPeriod":10,"learningRate":0.01,"callbackPeriod":10,"timeout":"Infinity"},"input":{"rows":60,"columns":59,"weights":[1.0788997411727905,-1.4712762832641602,-0.8209722638130188,-0.3279205560684204,2.907731771469116,1.1740610599517822,0.9933645725250244,-1.6760473251342773,-2.7217910289764404,-1.9438942670822144,0.3677040934562683,0.8671962022781372,-1.054502248764038,0.04132711514830589,-0.4979485273361206,-1.2407402992248535,-1.4619207382202148,-0.36657312512397766,-0.5130459666252136,1.0961754322052002,-1.4255353212356567,0.5637108087539673,-0.7110375761985779,-0.003937212284654379,1.421095371246338,-0.9979260563850403,1.5916062593460083,0.856572151184082,0.7239649295806885,-0.07748833298683167,1.6825865507125854,0.14091399312019348,-0.40061041712760925,0.7744004726409912,1.4088516235351562,2.0890066623687744,0.3762452304363251,-1.1128556728363037,-0.9948285818099976,-0.2574773132801056,1.904715895652771,0.9579853415489197,-1.131165623664856,0.3710886240005493,1.5092700719833374,1.041653037071228,0.44398295879364014,0.27581706643104553,1.561855673789978,1.3868763446807861,-1.3545582294464111,0.4896172285079956,0.8941743969917297,1.2659823894500732,-1.5076309442520142,1.5626198053359985,-2.2151763439178467,-0.0614735409617424,0.2302285134792328,8.015265464782715,3.9296178817749023,-0.5370205640792847,16.19961166381836,11.813652038574219,-6.5631208419799805,-3.975529670715332,7.13060188293457,5.047796249389648,5.479873180389404,-17.820758819580078,3.7722177505493164,19.820068359375,18.432453155517578,17.182233810424805,5.377049446105957,2.934640884399414,14.005796432495117,-19.47288703918457,-17.529016494750977,-1.9538850784301758,-18.873178482055664,0.8524206876754761,23.472442626953125,-4.697041034698486,17.661392211914062,-16.62563705444336,-17.760772705078125,0.818257212638855,4.155255317687988,-2.5331945419311523,16.43606185913086,17.658740997314453,-1.598212480545044,-10.143038749694824,-16.051959991455078,3.892838478088379,16.743566513061523,-8.98945426940918,0.5106760263442993,-2.406944751739502,-17.16355323791504,1.7020232677459717,5.368464469909668,-1.276179552078247,-2.6776490211486816,0.03670627623796463,17.086946487426758,-3.285341262817383,15.69820785522461,3.924846649169922,-26.19100570678711,16.089263916015625,-1.4469501972198486,-18.097658157348633,6.258911609649658,14.607293128967285,4.698882579803467,5.525514125823975,-0.6959442496299744,-0.47221145033836365,0.47874918580055237,3.9550621509552,-1.154219627380371,2.1726059913635254,0.9845374822616577,-2.344752073287964,0.7309026718139648,0.03990016505122185,-2.6300008296966553,-0.22841444611549377,1.6966415643692017,2.4532358646392822,3.353104591369629,0.6910425424575806,0.0009142406051978469,3.8901875019073486,-3.1636953353881836,-2.135183095932007,1.0232304334640503,-3.9180197715759277,-2.1664106845855713,2.876224994659424,0.9052378535270691,4.027060031890869,-1.6256283521652222,-1.9668678045272827,0.20466361939907074,-0.17831118404865265,0.5033971071243286,4.670394420623779,2.2076256275177,0.5859566330909729,1.1276429891586304,-2.2938873767852783,0.36226922273635864,3.8172945976257324,-0.5562042593955994,1.606954574584961,-1.9869070053100586,-4.847429275512695,0.9833170175552368,0.8072112798690796,1.1582714319229126,1.515532374382019,0.47303810715675354,1.8936820030212402,-0.9159255027770996,0.9628861546516418,-1.029470682144165,-3.243307590484619,1.6691862344741821,0.8529441356658936,-1.9871591329574585,0.011957758106291294,-0.36279189586639404,0.9966759085655212,-0.7268660664558411,-3.357611656188965,3.3427658081054688,0.6543893218040466,1.8274815082550049,-1.769790768623352,-0.5599977374076843,-2.918170928955078,-1.2965312004089355,1.6768462657928467,0.1627100706100464,-2.1497714519500732,1.0552418231964111,1.113603115081787,-0.9500681161880493,1.3758984804153442,2.602627992630005,1.1572602987289429,0.8634663224220276,0.3543502390384674,-0.08806730061769485,-0.9042625427246094,-1.0299495458602905,8.35633373260498,0.8177884221076965,-6.021913051605225,2.1969897747039795,1.073926329612732,-0.45081719756126404,-2.4392640590667725,2.2756881713867188,-4.396663665771484,0.8906213641166687,0.19267596304416656,-4.578266143798828,-2.9456865787506104,-2.809495210647583,1.3264572620391846,1.9662200212478638,5.515949726104736,0.42890340089797974,-3.7472596168518066,-1.9682692289352417,3.7084059715270996,-5.680397033691406,-3.9116694927215576,-7.411189079284668,-4.494345188140869,-0.1362636387348175,-3.379012107849121,0.8106752038002014,5.632719039916992,-0.20413362979888916,1.0761489868164062,-5.567139148712158,1.9985257387161255,-3.1410062313079834,2.4761714935302734,-4.116562366485596,5.344290733337402,-1.8840100765228271,6.826329708099365,-6.5015692710876465,-6.137294292449951,-13.838749885559082,-2.4796462059020996,-12.161330223083496,2.9466497898101807,8.306028366088867,4.489284038543701,3.5095224380493164,5.31231164932251,-4.556970596313477,-5.117153167724609,-4.132207870483398,7.9070963859558105,11.20226764678955,-3.5841879844665527,8.770509719848633,4.615743637084961,-18.111576080322266,6.245509624481201,11.29348087310791,-8.878114700317383,-5.123874664306641,-11.527478218078613,5.060585975646973,5.012343406677246,-18.396894454956055,10.0059232711792,-11.64764404296875,-4.681422233581543,-6.750561714172363,-6.495754241943359,-7.197483539581299,-6.118642330169678,5.8213887214660645,-3.376145124435425,5.927969932556152,-12.627586364746094,-4.191179275512695,0.9990140199661255,4.129662990570068,-17.395713806152344,-16.333370208740234,-14.476832389831543,-14.036170959472656,-5.248608589172363,-8.324638366699219,-3.1813576221466064,14.273348808288574,5.455052852630615,-2.567335844039917,-6.468200206756592,8.105751991271973,-7.49302339553833,-0.06265571713447571,-15.67037582397461,9.784658432006836,-13.663734436035156,19.222631454467773,-2.839229106903076,-22.021556854248047,-9.089886665344238,-16.403118133544922,11.259285926818848,-1.2511311769485474,11.882206916809082,-7.759799003601074,15.100265502929688,10.76862621307373,-22.362939834594727,-15.529211044311523,-14.15160846710205,4.9591779708862305,10.848739624023438,-13.020394325256348,14.537162780761719,19.747583389282227,20.524738311767578,17.914318084716797,-11.152934074401855,-17.13750648498535,-15.305071830749512,-5.000801086425781,8.411996841430664,17.10310173034668,-13.497994422912598,11.669437408447266,6.94536828994751,-13.984423637390137,-19.372011184692383,4.431121826171875,0.7839089632034302,0.7317430973052979,13.961557388305664,-13.578656196594238,-5.677238941192627,-2.78648042678833,-0.00877910666167736,24.239059448242188,1.8303474187850952,10.2499361038208,4.716198921203613,8.281669616699219,11.074195861816406,-19.278432846069336,4.472459316253662,-22.561939239501953,-11.720026016235352,3.9215450286865234,-14.344582557678223,-18.281869888305664,20.072153091430664,-9.01368236541748,-26.027984619140625,9.075898170471191,-11.60197925567627,1.343697428703308,0.630852222442627,2.0373528003692627,3.5216317176818848,-5.721783638000488,-4.195990562438965,1.6263750791549683,3.392009735107422,5.541306972503662,3.5785629749298096,-3.985863447189331,-0.8900722861289978,6.516819953918457,1.6126902103424072,1.0146838426589966,6.112625598907471,-1.5360069274902344,1.3603097200393677,-2.7751142978668213,-2.0781514644622803,-0.14253418147563934,-4.1826252937316895,-2.2862086296081543,0.9201534986495972,-3.5947275161743164,5.6276631355285645,-5.684751987457275,-7.3685688972473145,-0.2605645954608917,1.0359081029891968,-4.213095188140869,2.8956751823425293,3.879331350326538,0.8855201005935669,1.8111783266067505,-3.745894432067871,-2.4908103942871094,3.638017177581787,5.7454352378845215,0.3416084051132202,-6.737706184387207,-6.494086742401123,0.8901717662811279,-1.0073955059051514,0.14104798436164856,-2.5318846702575684,-0.3971688449382782,0.19881494343280792,-4.080188274383545,-0.021363750100135803,0.5821436047554016,-1.3047080039978027,2.5801262855529785,-0.992027223110199,1.3093178272247314,3.0987539291381836,-4.1124138832092285,-3.043008804321289,1.321156620979309,4.792150974273682,-2.256493330001831,7.973827838897705,-4.772726058959961,-1.744728446006775,1.0075278282165527,-2.5728087425231934,12.021564483642578,-1.3478527069091797,-0.18185019493103027,1.1745891571044922,-0.6468400359153748,-4.433679580688477,-2.6066336631774902,-7.25577974319458,-1.7424236536026,-5.221391201019287,-8.654815673828125,-0.8506408333778381,13.44799518585205,6.969244480133057,5.1631550788879395,-2.2809104919433594,-1.816502332687378,0.2518966794013977,-2.9772958755493164,-2.219895362854004,-0.7730486392974854,1.7512800693511963,2.4690067768096924,2.6961898803710938,-0.47695937752723694,-2.4267477989196777,-1.883049488067627,3.0212295055389404,5.23253870010376,-5.5880446434021,-5.244562149047852,0.5278820395469666,3.0029659271240234,3.0952093601226807,4.787243366241455,-6.386106967926025,2.4321253299713135,-0.15810230374336243,1.1569161415100098,2.376995801925659,-1.5510984659194946,7.921550750732422,-3.7841665744781494,-5.309977054595947,6.045004367828369,-0.4617706537246704,2.3560421466827393,0.3742518723011017,4.844039440155029,-8.407958984375,-8.03312873840332,13.031261444091797,2.761019706726074,-1.0318198204040527,-3.0548527240753174,-2.486802101135254,-3.7214787006378174,0.29255324602127075,-3.1226918697357178,-1.1599675416946411,0.6651570796966553,5.513747215270996,2.293069362640381,5.2971272468566895,0.9618192315101624,0.4400064945220947,-2.793037176132202,2.952179193496704,-0.5527217388153076,-2.426825523376465,1.1850677728652954,1.895272135734558,-2.885343551635742,-0.194178506731987,0.23556026816368103,0.28533482551574707,0.10642989724874496,-3.418102741241455,-1.564300537109375,-1.0547558069229126,-2.7179009914398193,4.904068946838379,-3.3883676528930664,-1.8244884014129639,2.1258015632629395,1.4364502429962158,1.1905038356781006,0.013557848520576954,-2.5715878009796143,-2.181976079940796,1.7908800840377808,-0.3390853703022003,-1.9825439453125,1.1691582202911377,1.9798686504364014,-0.002317687962204218,-1.3821601867675781,-1.9601017236709595,-2.4548230171203613,-2.033020257949829,-5.833136081695557,-1.7467844486236572,-2.6094586849212646,0.7690251469612122,-1.715912103652954,2.009403705596924,-1.639374852180481,2.178799867630005,-1.2453434467315674,-5.032907485961914,5.902145862579346,-0.05055997148156166,0.45630529522895813,-3.3386051654815674,0.7226947546005249,0.5975291728973389,-0.6160195469856262,-2.2852203845977783,-0.3648895025253296,-0.2707176208496094,3.9926247596740723,-0.8182413578033447,3.6306724548339844,2.1953020095825195,0.5789417624473572,2.576296091079712,0.5504997968673706,1.526296615600586,4.249207496643066,-0.2011967897415161,-0.8717290759086609,-5.6827521324157715,-0.9543448686599731,2.7382264137268066,0.47101449966430664,-1.1567432880401611,-0.4813804626464844,-4.060858249664307,-2.145684242248535,-0.6093171238899231,3.6010682582855225,-2.241716146469116,2.904277801513672,1.6325420141220093,-0.6604158282279968,-0.2651578187942505,2.480217695236206,1.8538777828216553,3.221048593521118,-0.06819549202919006,-0.9853554964065552,-0.4479711353778839,1.2159404754638672,0.19156411290168762,-1.6856447458267212,-1.4539289474487305,-1.8735754489898682,-1.045363426208496,1.3276311159133911,-1.065794587135315,0.5441059470176697,2.588712453842163,-2.4405691623687744,-1.1564769744873047,-0.2237570732831955,0.5204232931137085,-0.060638319700956345,1.9747196435928345,0.7324198484420776,0.06716636568307877,-2.106487989425659,0.3940331041812897,12.063084602355957,-3.3321118354797363,0.616361141204834,-3.323624849319458,2.4932422637939453,-4.653631687164307,1.033442497253418,-5.496054172515869,9.930485725402832,-7.197359561920166,-8.302122116088867,-5.553142070770264,-3.9060707092285156,1.672141432762146,1.5869684219360352,-3.219679355621338,3.9195144176483154,1.1102699041366577,5.784804821014404,3.7108707427978516,-2.5223002433776855,-1.7861177921295166,-0.41811448335647583,-2.6720924377441406,5.818719387054443,6.738281726837158,-0.11223103851079941,-1.9049500226974487,6.782355308532715,-6.208222389221191,-6.368771076202393,-3.4581542015075684,-1.703650951385498,3.1186177730560303,3.622814655303955,-2.412026882171631,1.0662890672683716,-0.5155670046806335,-0.22152264416217804,3.114762306213379,4.103440284729004,7.623098850250244,1.30647873878479,10.333556175231934,0.6277225017547607,-8.313246726989746,4.49425745010376,-5.928150653839111,-6.076555252075195,-1.2895324230194092,-4.837611675262451,-0.8892714977264404,4.457461357116699,-0.1553312987089157,-8.320884704589844,-1.859840750694275,-1.0971293449401855,-4.056997776031494,2.457627058029175,-2.7891812324523926,5.183745384216309,-1.3026514053344727,-2.9573378562927246,2.3102405071258545,-0.9465649724006653,2.78902268409729,3.072115659713745,-3.482361316680908,-5.279873371124268,0.1638416200876236,3.3542115688323975,3.5033702850341797,5.59027099609375,3.5456297397613525,5.682096481323242,-1.8534971475601196,-2.9077818393707275,0.5075239539146423,-3.2348484992980957,-2.502734899520874,1.4357197284698486,-2.4232096672058105,5.346541404724121,1.615882396697998,0.5082486867904663,2.125018835067749,-4.956610679626465,-1.1003005504608154,4.139572620391846,1.0161304473876953,-2.7042531967163086,-1.650097131729126,-5.793835639953613,3.722217559814453,4.08721923828125,0.9981561899185181,0.30514153838157654,-1.596949577331543,-4.664994239807129,-3.131171941757202,1.4861623048782349,1.5169169902801514,1.4482659101486206,0.48431000113487244,3.5940635204315186,3.9453928470611572,4.428974628448486,-5.726361274719238,-3.59989857673645,4.038443565368652,-1.9159609079360962,0.9970347285270691,-0.726452112197876,-0.0036952774971723557,0.17760448157787323,2.8507277965545654,4.725643157958984,-1.6617555618286133,-1.0859129428863525,-5.281460762023926,3.8154656887054443,5.740251541137695,-5.218394756317139,4.103394031524658,-0.6347657442092896,2.549356698989868,2.867783546447754,6.8543829917907715,3.781243324279785,2.4593327045440674,-5.595876216888428,0.236856147646904,-1.8646736145019531,-6.411510467529297,-1.426231026649475,5.907193660736084,-0.376092791557312,-2.5866012573242188,0.15029582381248474,4.909389019012451,2.127359628677368,-4.232581615447998,-3.81484317779541,-3.192196846008301,0.9816162586212158,1.7548251152038574,1.2887283563613892,-3.1506693363189697,3.4855141639709473,4.051239490509033,4.496540069580078,2.5889103412628174,-0.3230494260787964,-2.843587875366211,0.5223031044006348,1.3452221155166626,-0.45534566044807434,3.7238078117370605,-0.30052393674850464,0.2744457721710205,1.207659125328064,1.3305107355117798,1.9061578512191772,0.4826711118221283,-2.1052188873291016,-2.3148090839385986,-3.2336366176605225,-0.43462660908699036,-4.93983793258667,3.753636598587036,-2.874084234237671,3.429377317428589,-6.806820869445801,-4.073964595794678,5.52446174621582,0.8042281866073608,3.5472922325134277,6.358584880828857,-3.917449474334717,-5.05283784866333,-2.0960183143615723,-0.43658047914505005,5.18599271774292,3.912588357925415,1.1604169607162476,8.780503273010254,4.871363639831543,0.9130762219429016,-7.294116973876953,-10.617023468017578,4.997476100921631,-0.42722585797309875,-7.001567363739014,8.902523040771484,7.679077625274658,0.9178431034088135,6.634994029998779,1.7261730432510376,-4.573922634124756,1.530522108078003,-2.099808692932129,4.182779312133789,4.9869608879089355,-3.3208022117614746,-3.5150721073150635,-0.5814952850341797,-12.456355094909668,-5.9581122398376465,3.5925979614257812,-0.8788461089134216,1.6756041049957275,-0.53542160987854,-12.336833953857422,3.5124292373657227,-1.0632236003875732,-4.356086730957031,4.836264610290527,-2.8347623348236084,4.144920825958252,-0.8248981237411499,-1.4788532257080078,-1.1384880542755127,-18.016572952270508,-2.6715235710144043,-14.142817497253418,-3.107996940612793,10.960460662841797,-7.473573684692383,-2.1548876762390137,4.026751518249512,-0.7824188470840454,-5.995013236999512,-2.8958020210266113,6.084916114807129,0.3491235673427582,1.2389428615570068,7.611006259918213,-4.298202037811279,-1.362331509590149,-6.946389675140381,4.002355098724365,6.490265369415283,2.503889322280884,-0.5610628724098206,7.13161563873291,-3.5957014560699463,-4.057034492492676,-6.497747421264648,-10.567874908447266,2.753094434738159,-0.35782092809677124,-10.35191822052002,0.7764638662338257,4.344537734985352,5.63083028793335,5.919939041137695,-2.8737857341766357,-5.705445289611816,-0.8916095495223999,-4.080357074737549,-0.6817604303359985,0.4922060966491699,-3.215437412261963,-1.0678298473358154,-2.5169837474823,-6.4385552406311035,-0.4966062903404236,-4.03331995010376,1.0649614334106445,8.259324073791504,-4.411722183227539,-11.000843048095703,3.700227737426758,0.6384281516075134,4.101788520812988,6.034339904785156,-0.2894666790962219,-4.459751605987549,0.13217416405677795,-1.2119696140289307,-0.6067912578582764,-5.010556221008301,0.3797730505466461,-6.146644592285156,-1.8806483745574951,7.1010870933532715,-4.68637752532959,-0.3937957286834717,1.9648923873901367,1.1810286045074463,-9.306010246276855,-8.080984115600586,-0.45256519317626953,4.946727275848389,3.143359899520874,-12.877960205078125,4.094550609588623,1.3361388444900513,1.284691572189331,-6.811005115509033,1.9690186977386475,-0.15681234002113342,8.229215621948242,-3.62829327583313,7.360711574554443,13.618892669677734,4.409188747406006,2.6989307403564453,1.426306962966919,-0.2685449421405792,2.9709103107452393,-10.193095207214355,2.928901433944702,-3.6583738327026367,-5.428583145141602,5.258674144744873,2.1368274688720703,0.8544910550117493,1.8082572221755981,-12.598286628723145,-11.58106517791748,-5.079078674316406,6.1790452003479,-6.927901744842529,2.980311632156372,8.494180679321289,-2.9836995601654053,-0.9305099844932556,5.579925060272217,-4.676301002502441,1.1152019500732422,-0.9596315026283264,-4.918896675109863,-5.844527721405029,-2.4913575649261475,3.2097110748291016,-6.58411979675293,-1.3496769666671753,-8.101944923400879,-5.230524063110352,1.064860224723816,-6.4305853843688965,-3.220050096511841,6.747279644012451,2.0396647453308105,0.93560391664505,-1.030490517616272,1.0033520460128784,1.5994547605514526,-0.2829867899417877,-6.5427327156066895,3.711886167526245,-0.6897633075714111,0.4008255898952484,0.5886269807815552,1.7941505908966064,-1.2070358991622925,-5.576615333557129,3.6327896118164062,3.830460786819458,1.1302648782730103,-0.25189676880836487,4.0302205085754395,-5.07033109664917,-3.137941598892212,-2.8541173934936523,-5.174659252166748,2.006786346435547,-0.16723869740962982,-1.916703462600708,2.7575042247772217,-0.4434906542301178,2.2748889923095703,2.846611261367798,-1.4239137172698975,-2.7644221782684326,1.141981840133667,-1.0435490608215332,-0.2919357717037201,3.8034346103668213,-0.029076917096972466,-5.247118949890137,-0.8693034052848816,-3.8985800743103027,-4.8227458000183105,-1.8379327058792114,-0.9317179918289185,-0.3316222131252289,-0.37347617745399475,-2.5228166580200195,-0.26659253239631653,-1.592674970626831,-2.21976637840271,-0.7517573833465576,0.8302149176597595,-1.0939093828201294,3.3218507766723633,1.4007952213287354,-3.5434651374816895,-2.9846181869506836,-1.0050729513168335,-2.9979100227355957,1.5062251091003418,3.140134334564209,-4.971197605133057,-2.434788703918457,4.170995235443115,-0.7380242943763733,-0.7053717374801636,2.858882427215576,1.2735909223556519,1.3508291244506836,3.3944125175476074,8.305623054504395,-7.366326808929443,-1.2626065015792847,-8.250099182128906,0.5325733423233032,-7.10538911819458,2.145773410797119,0.40379798412323,7.918006420135498,1.7476365566253662,-12.762451171875,-9.222784042358398,-9.806873321533203,5.609737873077393,-2.2213070392608643,-2.972384452819824,10.643292427062988,8.35682201385498,3.858397960662842,14.989066123962402,-1.4545143842697144,-3.374539852142334,-0.06939271837472916,-4.054433822631836,6.767178535461426,11.202241897583008,-3.691288471221924,0.14909318089485168,-0.1029660552740097,-7.0137248039245605,-13.479850769042969,-3.0545876026153564,2.2478480339050293,7.454480171203613,1.484204888343811,-8.70711612701416,1.2129473686218262,-2.0013160705566406,3.754641056060791,9.680532455444336,3.0454912185668945,1.1088038682937622,-2.139421224594116,-0.00036655354779213667,1.0815883874893188,-8.141162872314453,-2.116074562072754,-7.217532157897949,-1.0622638463974,12.861186027526855,-4.266169548034668,-2.2743427753448486,2.7819995880126953,3.459839105606079,-13.184776306152344,-1.8054698705673218,0.1853027492761612,0.06231621652841568,0.6106225848197937,-22.211280822753906,-6.088007926940918,12.992091178894043,13.650179862976074,-12.739228248596191,-16.891197204589844,-5.882358074188232,-2.971564531326294,0.6476163864135742,1.936187982559204,4.156826019287109,0.3887559771537781,-2.6217501163482666,-14.095949172973633,3.405660629272461,4.868917942047119,-0.9632790088653564,-1.73441743850708,-17.804424285888672,-4.63037633895874,4.867362976074219,15.14920425415039,-4.777482986450195,-5.61521577835083,-6.643740177154541,-5.4766011238098145,2.938775062561035,2.955960750579834,11.002907752990723,4.662868499755859,6.442103385925293,-1.5174181461334229,-2.653458833694458,3.657141923904419,6.120084762573242,0.17828252911567688,-7.4373674392700195,3.6369497776031494,11.315779685974121,10.008544921875,1.4438774585723877,7.808462619781494,2.8354904651641846,11.153301239013672,2.5408318042755127,3.8043487071990967,5.324864864349365,-1.361466407775879,-0.38586723804473877,-4.365311145782471,0.3364764153957367,2.21844482421875,-9.266130447387695,-2.368863105773926,7.361175537109375,16.308746337890625,-15.259469032287598,5.962371349334717,-1.0368374586105347,-6.4127020835876465,3.6108827590942383,-0.9154838919639587,-3.7420451641082764,-8.364203453063965,2.2183871269226074,-7.62748384475708,4.642834663391113,-6.503066062927246,6.778530120849609,7.493297576904297,5.738234996795654,2.316347122192383,-3.433012008666992,0.19344569742679596,10.82249927520752,-6.175652980804443,-1.5550627708435059,-2.7655184268951416,-5.792355060577393,2.4913227558135986,-4.220212459564209,3.173426389694214,2.3539366722106934,-7.753996849060059,-4.085453033447266,-0.46324822306632996,7.895488739013672,1.2397987842559814,11.401619911193848,3.8464205265045166,2.803884506225586,3.7745089530944824,5.6496477127075195,-0.2833509147167206,8.751450538635254,-0.8040755987167358,3.695122003555298,1.8570539951324463,-4.328344345092773,-0.37641632556915283,0.5561721920967102,-0.3547021448612213,0.556895911693573,5.985637664794922,1.6541287899017334,-0.4990133047103882,4.2638726234436035,-0.07838869094848633,-3.2858052253723145,6.09012508392334,6.792752742767334,2.0825278759002686,5.713892459869385,-3.2108418941497803,-0.334681898355484,-2.279810667037964,-2.3093464374542236,-2.418205499649048,-3.9136507511138916,2.4634835720062256,0.580545961856842,0.9542073607444763,-0.9218602776527405,-3.1326496601104736,-2.813156843185425,3.7235381603240967,-8.290277481079102,3.2811663150787354,5.319184303283691,5.170328140258789,3.300215482711792,-2.2586770057678223,1.8823531866073608,4.640286445617676,-4.308622360229492,-2.0017614364624023,-0.26757511496543884,-5.745992660522461,-1.899228572845459,3.0096988677978516,2.6290442943573,5.470569133758545,-1.8184623718261719,-5.619822978973389,-0.00007041703793220222,2.9770071506500244,1.6630911827087402,9.179607391357422,4.721158981323242,-3.998800754547119,-1.2274956703186035,2.292865753173828,4.326353073120117,6.297619342803955,-1.3817734718322754,1.8125274181365967,-0.08325016498565674,-5.1065826416015625,2.1383628845214844,2.0601654052734375,0.5917143821716309,-0.450006902217865,2.4664251804351807,2.168687343597412,1.1297938823699951,1.926892876625061,2.3329954147338867,-2.9879536628723145,2.9867000579833984,3.237269878387451,-1.563854694366455,-1.1975570917129517,-2.159752130508423,1.517371416091919,-1.0478754043579102,3.11155366897583,-4.098851680755615,1.7232075929641724,2.202291965484619,6.7101664543151855,0.5664254426956177,2.4039082527160645,-2.006667137145996,-6.26936674118042,-3.4107494354248047,-1.4776724576950073,-1.569204568862915,1.1747556924819946,3.2639896869659424,2.0177438259124756,-3.499011754989624,-5.751059532165527,-1.1835777759552002,-3.7069544792175293,-2.37644100189209,-1.278733491897583,-0.29137495160102844,-1.2841260433197021,3.3385708332061768,4.92194938659668,-1.036868691444397,4.191532611846924,-1.8115582466125488,2.522456169128418,0.01669527217745781,3.3933520317077637,1.1327816247940063,2.5320193767547607,0.89056795835495,-0.4070604145526886,-1.4593195915222168,-2.3528261184692383,0.9786220788955688,-5.029158115386963,1.0042866468429565,3.923119068145752,-0.5866991877555847,-1.665539264678955,2.748223304748535,6.177016258239746,4.48494291305542,1.616402268409729,3.9303290843963623,1.565811276435852,4.237403392791748,-0.03950795903801918,-0.1319030225276947,0.5886785984039307,1.46247136592865,-3.9344964027404785,2.920196533203125,1.6310902833938599,3.8240268230438232,-3.912121534347534,13.628072738647461,-0.17180369794368744,14.303494453430176,17.48967933654785,0.8785501718521118,16.97634506225586,16.77594757080078,13.160932540893555,-0.34292125701904297,-0.582452118396759,-14.142634391784668,-14.246814727783203,15.997889518737793,3.352867603302002,1.8102226257324219,-0.7214572429656982,-14.370626449584961,-13.920197486877441,-5.043515205383301,-16.61358642578125,15.193025588989258,-17.50277328491211,-14.243642807006836,17.10454559326172,1.5099822282791138,12.798765182495117,-0.8198605179786682,-15.633275032043457,-0.44082581996917725,-16.510761260986328,1.1795446872711182,3.703336477279663,16.913387298583984,13.081992149353027,14.906475067138672,-15.871752738952637,-13.974642753601074,5.122762203216553,-1.4258671998977661,15.013269424438477,-0.0740232914686203,-17.577173233032227,0.48082640767097473,-0.2642134428024292,15.930721282958984,1.7513980865478516,-0.8089274764060974,1.9607504606246948,0.19027501344680786,1.879787564277649,-14.989127159118652,-16.666719436645508,15.295597076416016,-0.5797852277755737,-2.5059895515441895,14.233806610107422,-0.13934850692749023,0.11896555870771408,1.0611891746520996,-0.34893181920051575,-6.33966588973999,0.561011552810669,1.6766483783721924,6.329843044281006,6.667677879333496,5.918028354644775,-2.500551700592041,-6.068310260772705,-5.997225761413574,-1.3742796182632446,-1.8804519176483154,-1.8456261157989502,0.024054834619164467,1.7337977886199951,-6.65035343170166,-2.906614303588867,-0.2350519895553589,-0.5658465027809143,-2.546853542327881,0.6817349195480347,-0.02649637497961521,-3.249814987182617,4.828985691070557,6.803699970245361,-0.46132978796958923,7.744014739990234,4.2585015296936035,6.23893928527832,-6.628035068511963,9.325933456420898,2.585409164428711,-1.916333794593811,4.524092674255371,4.295239448547363,0.8014745116233826,-1.1568313837051392,2.0906710624694824,-6.067412376403809,5.327198505401611,5.044045925140381,-0.8098589181900024,-4.962634563446045,5.106403350830078,6.138315677642822,6.534610271453857,3.020615339279175,1.9231922626495361,6.985225677490234,2.4371042251586914,-3.3997602462768555,-1.5129084587097168,4.983956336975098,6.758206844329834,-6.732834815979004,1.4413007497787476,1.909058928489685,4.256932258605957,-6.908049583435059,8.81432056427002,0.012538690119981766,7.892926216125488,4.713414192199707,-0.7685015797615051,2.0573794841766357,4.945489406585693,2.421509027481079,-1.3516113758087158,1.0728660821914673,-3.413677215576172,-2.1600122451782227,0.9595186710357666,4.116580009460449,1.370450735092163,-8.531136512756348,-3.7640888690948486,-1.6427587270736694,-3.5937578678131104,-9.900542259216309,3.7886502742767334,-1.7660497426986694,-1.8868839740753174,6.338820934295654,0.7744951844215393,3.5676355361938477,0.4407844543457031,-3.970895528793335,2.0497732162475586,2.410130500793457,1.0961990356445312,0.3463819921016693,2.723689317703247,1.5495667457580566,4.0546183586120605,-8.867701530456543,-2.409766674041748,4.7802629470825195,-5.586570739746094,2.7719342708587646,-1.8994616270065308,-5.476146221160889,-7.062801361083984,3.655423402786255,5.301236629486084,2.2672252655029297,2.9989850521087646,2.2628211975097656,-0.25710421800613403,2.6211650371551514,-1.2258354425430298,-7.142678737640381,8.065751075744629,4.0011773109436035,-9.009016036987305,3.7193691730499268,8.676300048828125,-3.0921173095703125,-2.946927785873413,5.9252448081970215,3.2429797649383545,6.103583812713623,4.440114974975586,-0.32900986075401306,8.08542537689209,-0.6770742535591125,9.4473295211792,4.6750807762146,1.4274907112121582,-5.861171722412109,-1.4350528717041016,5.582408428192139,5.870110988616943,3.883453130722046,4.021183013916016,-1.4834306240081787,2.743809938430786,-4.480867862701416,-3.3005335330963135,5.21494197845459,-6.853822231292725,-10.114567756652832,9.09565258026123,-3.67594313621521,3.2292680740356445,-4.221046447753906,-8.15389633178711,12.430919647216797,-1.907186508178711,5.485586643218994,3.305180788040161,8.11158561706543,5.708413124084473,5.639964580535889,-4.5595197677612305,-5.50507926940918,4.936225414276123,-4.96420431137085,6.602348804473877,-2.442111015319824,-3.3806347846984863,-4.181189060211182,5.332955360412598,11.496782302856445,7.20387077331543,11.070733070373535,2.7008042335510254,-0.895590603351593,3.8028182983398438,-4.965953350067139,-5.224798679351807,5.368642330169678,7.795403480529785,-7.561501979827881,4.7545952796936035,3.802635908126831,-1.8394460678100586,-7.851989269256592,9.051815032958984,-1.2413653135299683,-2.396169662475586,7.888650894165039,1.9642311334609985,6.03876256942749,-5.702065944671631,-0.8788342475891113,-2.215409517288208,5.166263103485107,-11.96362590789795,8.3320951461792,13.25210952758789,13.521604537963867,7.525137424468994,-2.785007953643799,-6.64031982421875,5.942189693450928,-12.550919532775879,-7.7524261474609375,-0.23426614701747894,-11.797396659851074,0.19728736579418182,11.240579605102539,1.1476376056671143,8.026259422302246,-9.397998809814453,-13.455175399780273,3.5289041996002197,9.756587982177734,-0.258098840713501,8.413992881774902,10.656511306762695,4.555504322052002,7.2726898193359375,0.8456852436065674,-5.67131233215332,13.007616996765137,0.5093041658401489,1.795876145362854,-0.43358802795410156,-2.538012742996216,0.9508212804794312,-0.3318188190460205,2.7748777866363525,-1.6144421100616455,-1.072757363319397,12.4006929397583,-3.8897862434387207,8.65821361541748,3.502302885055542,-3.798499345779419,10.043965339660645,4.175353050231934,-13.35870361328125,8.580326080322266,-5.988921642303467,0.1270846575498581,-1.0471715927124023,6.3169050216674805,0.8200464844703674,10.511966705322266,-9.29226016998291,-5.287055015563965,-1.2417325973510742,-0.2611582577228546,11.26784896850586,4.505439758300781,-5.035333156585693,5.962255954742432,-7.057456016540527,-8.431160926818848,-7.886178493499756,-10.170799255371094,0.5306325554847717,-7.091168403625488,-5.567519664764404,4.968292713165283,8.987957000732422,10.790091514587402,8.254947662353516,0.4013083577156067,-2.860006332397461,5.427227973937988,-2.198539972305298,12.129755020141602,4.050142288208008,-3.442373275756836,2.4852383136749268,-11.697454452514648,-12.835022926330566,-8.876774787902832,5.454267501831055,0.003558522555977106,10.638689994812012,-18.8564453125,-0.6149534583091736,6.753499984741211,-2.6100692749023438,6.039135932922363,6.848880767822266,1.9348338842391968,1.516122579574585,-1.9394476413726807,-4.198980808258057,-2.9230942726135254,-8.216117858886719,2.054633855819702,-8.325977325439453,5.000396728515625,7.072912693023682,-11.47131061553955,-2.8065345287323,2.5798277854919434,5.214395999908447,0.7977235913276672,-3.5652072429656982,1.5707939863204956,-3.0189008712768555,0.011310308240354061,-9.51811695098877,-27.00973129272461,-20.29278564453125,-4.470407485961914,-4.494989395141602,-7.539749622344971,0.2094622105360031,21.619718551635742,21.21422004699707,19.749635696411133,-23.300334930419922,-20.57232093811035,-21.91327476501465,0.42120251059532166,-15.006914138793945,-18.825847625732422,10.844675064086914,24.978668212890625,15.123559951782227,22.077320098876953,-2.1837239265441895,-12.830286026000977,15.969625473022461,-17.777362823486328,-1.1521488428115845,-7.3152642250061035,-3.461836338043213,-1.750135064125061,-17.654598236083984,-21.003097534179688,-19.980087280273438,0.22661450505256653,-1.1055448055267334,15.951539993286133,-14.255220413208008,-22.042491912841797,-3.1747965812683105,-17.24447250366211,-1.195430040359497,18.291128158569336,-0.8517314195632935,1.6382635831832886,-5.3988165855407715,-18.70099449157715,-6.868004322052002,-10.816629409790039,-16.522850036621094,-25.564050674438477,4.904421806335449,20.776094436645508,-18.207456588745117,-2.1541125774383545,6.244043827056885,-0.3013421297073364,-12.771384239196777,6.155422210693359,-7.831982612609863,-13.57815170288086,15.7863187789917,11.631275177001953,-8.419875144958496,-0.9863982200622559,-14.428173065185547,-7.6534600257873535,9.230462074279785,12.698833465576172,-7.934079647064209,7.509922981262207,-6.435333728790283,-9.826506614685059,-9.488564491271973,-6.740636825561523,9.406453132629395,7.044325828552246,-3.1028571128845215,15.64950180053711,1.595427393913269,4.635012626647949,7.403041362762451,0.3300294578075409,-13.963958740234375,-6.73987340927124,-4.056730270385742,3.268937110900879,14.02701473236084,-6.828649997711182,-6.058377742767334,-6.121488094329834,-5.18462610244751,-11.264626502990723,-9.353455543518066,-19.76959228515625,4.550698280334473,10.542641639709473,-6.426119327545166,8.93276309967041,-19.234508514404297,-6.179117202758789,7.498669147491455,0.5936041474342346,-9.270235061645508,-12.71814250946045,-4.5641889572143555,-8.23313045501709,-11.89489459991455,4.188670635223389,-7.534486293792725,-0.5648457407951355,7.655999660491943,-6.269461631774902,-13.636794090270996,17.37485122680664,-17.227359771728516,-1.1824220418930054,-7.705007076263428,9.278776168823242,1.9494051933288574,1.972809076309204,-2.5805037021636963,4.176889896392822,-6.071779251098633,13.67117691040039,20.797422409057617,4.187355995178223,0.6824701428413391,9.385905265808105,-9.330299377441406,-5.715556621551514,12.028738021850586,7.885931968688965,4.467403411865234,-2.5877559185028076,-1.654592752456665,9.475068092346191,-2.9032652378082275,-10.174043655395508,17.138334274291992,-10.887554168701172,-16.99126434326172,7.151683807373047,0.13358286023139954,10.538217544555664,-9.259073257446289,-6.719886779785156,5.278188705444336,-2.198596954345703,19.512842178344727,8.963831901550293,7.194568157196045,7.789144039154053,19.82896614074707,-2.4690964221954346,-3.363943338394165,8.899291038513184,-5.560648441314697,16.19315528869629,-2.627896547317505,-10.168697357177734,-2.606109380722046,12.731887817382812,13.036876678466797,15.62675666809082,6.805613994598389,1.6962084770202637,0.2582818567752838,1.8645669221878052,-3.4520602226257324,-11.184846878051758,6.340124607086182,3.4882352352142334,-15.636778831481934,12.716660499572754,-10.020852088928223,12.416720390319824,-14.555743217468262,8.734309196472168,-9.45643138885498,1.1156209707260132,-6.493589401245117,9.82103443145752,-7.9819207191467285,-5.7256669998168945,3.05141282081604,-11.166327476501465,-9.43801212310791,2.214855432510376,1.619126796722412,-1.2048083543777466,-1.0776329040527344,-1.4928183555603027,-7.74719762802124,-5.699831008911133,-7.193985939025879,-1.9558409452438354,0.012605562806129456,0.34689489006996155,4.769073009490967,-1.990515947341919,-2.2469794750213623,5.760098934173584,-8.515942573547363,11.845354080200195,3.9657034873962402,0.8295314908027649,0.42988836765289307,3.9907708168029785,-5.26912260055542,-4.627457141876221,6.266608238220215,-1.559243083000183,10.356054306030273,-7.781633377075195,-4.449082851409912,-3.3048312664031982,4.518904209136963,7.840915679931641,8.933345794677734,-2.629094362258911,6.566904544830322,-0.6431540250778198,6.082300186157227,5.633378982543945,-1.5171949863433838,9.185476303100586,-4.888864517211914,0.18054699897766113,7.9460768699646,-10.4843168258667,7.465032577514648,-6.378012657165527,2.2520859241485596,-1.3079866170883179,2.206001043319702,-7.490856170654297,-4.295271396636963,0.6118730902671814,18.3525333404541,-17.32344627380371,-5.329419136047363,-6.0655293464660645,-2.2878644466400146,11.081523895263672,2.465656042098999,-7.650410175323486,21.3629093170166,-1.562795639038086,-16.950679779052734,-16.89494514465332,-19.862361907958984,4.5880231857299805,3.374502658843994,-19.299779891967773,20.912395477294922,18.69219970703125,13.632662773132324,16.173477172851562,-5.610029220581055,-1.1213011741638184,3.948627233505249,-9.27341079711914,3.429363965988159,9.086024284362793,0.9684866666793823,1.8215625286102295,-6.119215488433838,-20.0107479095459,-16.971515655517578,-1.114624261856079,6.218156337738037,26.314987182617188,6.027047157287598,-17.810007095336914,-6.759945869445801,5.871828079223633,-2.579890251159668,18.008604049682617,-3.4762978553771973,3.2601265907287598,3.9053375720977783,-1.9554294347763062,4.381228923797607,-17.863773345947266,17.991350173950195,-16.380943298339844,-7.020485877990723,20.790237426757812,-23.59877586364746,-0.6214004158973694,-0.4399980306625366,-1.1310080289840698,-19.579835891723633,-6.678535461425781,7.386215686798096,20.245777130126953,-10.622627258300781,0.07574838399887085,7.073590278625488,3.8119874000549316,18.21751594543457,-1.1587151288986206,2.7252979278564453,-10.022085189819336,5.492410659790039,-5.724605083465576,-2.554311752319336,5.728336334228516,-1.3408058881759644,-7.026208877563477,1.1261510848999023,-16.8883056640625,-25.32568359375,-0.9482977390289307,-9.191347122192383,12.993051528930664,-10.281177520751953,-17.952707290649414,13.777268409729004,-1.1222723722457886,-2.1802713871002197,-12.55733585357666,-5.019111156463623,4.93628454208374,-6.346542835235596,10.554004669189453,2.14506459236145,2.5017340183258057,14.048073768615723,22.038896560668945,-10.560676574707031,-0.7187358736991882,-5.316529273986816,-3.3801679611206055,22.37555503845215,0.02529001049697399,-3.757316827774048,-0.6031773686408997,2.4937198162078857,17.973344802856445,10.830718994140625,14.513038635253906,-7.51206636428833,-8.69636344909668,-2.0519609451293945,-22.777118682861328,-12.474919319152832,11.051724433898926,14.194372177124023,-4.320249080657959,28.13332748413086,-10.676518440246582,1.0100890398025513,2.0131044387817383,7.29070520401001,-24.0538330078125,-4.112808704376221,-1.0533881187438965,1.8088728189468384,46.926300048828125,25.630733489990234,41.48117446899414,-0.7914496660232544,-4.638419151306152,-3.753033399581909,-56.45771408081055,7.1733717918396,-8.617894172668457,-0.6085144877433777,26.881898880004883,-28.882755279541016,-15.934922218322754,8.38646411895752,-12.765328407287598,29.441442489624023,-10.358386039733887,-28.658056259155273,-6.999690532684326,29.187955856323242,-7.066412448883057,-10.773468017578125,-8.434825897216797,51.22872543334961,-56.893531799316406,29.12846565246582,-3.1118381023406982,-9.904735565185547,24.674396514892578,18.73537254333496,23.55665397644043,-27.86448097229004,0.009477203711867332,2.3958077430725098,32.92026138305664,10.683392524719238,-0.5320493578910828,14.09963321685791,37.331756591796875,30.775920867919922,30.75969886779785,30.779314041137695,-1.754895806312561,4.515766620635986,-11.800884246826172,-30.69655990600586,-20.00666618347168,-3.3040404319763184,22.22446060180664,4.646560192108154,0.27079272270202637,17.03624725341797,12.820106506347656,-30.424457550048828,3.592961549758911,-1.9232008457183838,-8.87164306640625,8.747602462768555,8.449468612670898,3.3531219959259033,4.88989782333374,2.0351364612579346,3.046613931655884,3.437751293182373,-12.723806381225586,5.761162757873535,20.41350555419922,14.723912239074707,6.686695098876953,6.133045673370361,-2.838592290878296,3.800098180770874,-14.810608863830566,-11.562182426452637,-5.617811679840088,-13.599686622619629,7.091062068939209,9.762239456176758,-4.918409824371338,1.54802668094635,-15.312979698181152,-21.421001434326172,-4.426218032836914,2.018524169921875,-1.7461827993392944,8.317779541015625,19.438199996948242,5.532390117645264,4.43996524810791,8.253327369689941,-6.060322284698486,9.16730785369873,6.3193817138671875,4.758117198944092,-1.9688806533813477,-8.132787704467773,0.7109338045120239,-3.131131887435913,-2.2485806941986084,-4.061947822570801,-1.129729151725769,9.781368255615234,-9.254280090332031,10.549103736877441,2.436429500579834,-2.20426344871521,8.73804759979248,0.7292658090591431,-10.272951126098633,2.3496575355529785,-5.382294654846191,-6.541742324829102,8.027961730957031,1.8265893459320068,-17.397123336791992,-0.7673234939575195,2.8047778606414795,19.878507614135742,-4.080079555511475,-0.966661274433136,-8.637155532836914,-19.943750381469727,-19.04986572265625,-0.989733099937439,7.977312088012695,-2.242600202560425,-1.2883095741271973,9.197710037231445,-10.008942604064941,-0.4269891679286957,-0.8048309683799744,0.9524149298667908,1.248652458190918,-8.039358139038086,3.912898540496826,7.918444633483887,-1.9098104238510132,19.86557960510254,-16.43215560913086,13.009623527526855,4.817253112792969,3.214611291885376,0.7263325452804565,8.736937522888184,-7.566025733947754,-1.8644744157791138,-7.376094818115234,-7.342055320739746,17.79901885986328,-1.8398821353912354,-2.2358343601226807,-17.305496215820312,-5.54202938079834,19.260284423828125,11.623966217041016,-13.997796058654785,-8.030863761901855,4.835363388061523,-6.264800548553467,2.4274585247039795,9.263740539550781,8.800203323364258,20.38189697265625,-2.1502153873443604,3.6820433139801025,-6.743716239929199,12.089558601379395,0.9636783599853516,1.9279099702835083,1.6820133924484253,2.4315314292907715,-1.7608613967895508,-1.8657079935073853,-0.09687013179063797,-10.045378684997559,12.315335273742676,10.19201374053955,-5.164236545562744,-0.7089467644691467,-18.38962173461914,-8.802353858947754,3.923994541168213,-16.467119216918945,3.808993339538574,-3.881009578704834,14.046356201171875,16.43712615966797,0.5109360814094543,1.0091315507888794,20.162006378173828,-4.682184219360352,-4.89791202545166,-19.631608963012695,3.7656197547912598,8.29833984375,-7.187857627868652,2.440990686416626,18.095394134521484,5.324647903442383,8.887008666992188,5.358111381530762,2.868222236633301,-0.13579383492469788,17.398597717285156,4.887369632720947,-2.8804144859313965,-1.9489405155181885,-11.168797492980957,4.431302547454834,15.609358787536621,-0.8366068601608276,-2.830897331237793,0.4326581656932831,-11.95396614074707,9.738005638122559,-5.961258888244629,-1.7004265785217285,-10.336397171020508,3.2217934131622314,15.872610092163086,1.9755219221115112,17.976232528686523,18.550464630126953,-6.446558475494385,18.448612213134766,4.98270845413208,-2.9645395278930664,-2.459635019302368,5.0668768882751465,-5.079021453857422,3.4648635387420654,-15.842726707458496,22.153039932250977,16.401830673217773,0.45978716015815735,-23.806289672851562,3.094181776046753,-13.306097984313965,3.126044511795044,23.669355392456055,19.383882522583008,-7.253975868225098,3.695528745651245,0.2514554560184479,3.1336865425109863,0.5735863447189331,17.258649826049805,21.73214340209961,0.9869325757026672,3.5766026973724365,2.7151939868927,3.251372814178467,1.0257477760314941,22.39539909362793,-13.925179481506348,-20.15924644470215,6.996888637542725,1.8967132568359375,-5.0314836502075195,2.8997340202331543,5.091014385223389,-23.89105796813965,3.3015575408935547,4.0257673263549805,-8.078758239746094,-21.95760726928711,-2.3742713928222656,11.424684524536133,4.105648517608643,23.630382537841797,-14.605863571166992,-21.265789031982422,-2.6077561378479004,1.9788188934326172,-10.047172546386719,-23.45575714111328,-20.650815963745117,-23.562644958496094,3.214540719985962,-3.11607027053833,2.9836690425872803,8.114798545837402,-1.1783660650253296,1.5515873432159424,-22.216278076171875,-4.018614768981934,-20.602903366088867,19.419172286987305,-3.4293978214263916,5.70377779006958,3.3845314979553223,6.379108905792236,14.303825378417969,-12.577983856201172,-13.169459342956543,-2.133233070373535,2.668379783630371,20.087129592895508,6.506524562835693,-4.663146495819092,9.765716552734375,-6.022767543792725,-5.323044776916504,-8.991119384765625,-12.616935729980469,-10.435321807861328,-3.268458366394043,-10.87869930267334,8.688538551330566,10.697882652282715,4.918810844421387,7.050228118896484,-7.07605504989624,-4.1974263191223145,-1.4773437976837158,-7.776223659515381,9.260245323181152,12.890411376953125,2.1260721683502197,0.8651283979415894,-2.5236103534698486,-9.995877265930176,-11.414678573608398,-2.7936270236968994,6.9617815017700195,11.896903038024902,-2.759269952774048,-11.573193550109863,3.011697769165039,0.858364999294281,16.29047203063965,5.684482574462891,-18.54918098449707,-4.727532386779785,-0.008429993875324726,2.3701889514923096,1.457170009613037,-11.232200622558594,17.022300720214844,-12.432491302490234,-7.532827377319336,8.789562225341797,-11.359394073486328,-4.445250034332275,6.826730728149414,6.336763381958008,-14.846625328063965,-13.016757011413574,-0.9769256711006165,7.803692817687988,3.3086509704589844,4.908337116241455,-8.301288604736328,-10.117684364318848,0.8466413021087646,-4.159245014190674,5.318891525268555,-2.155343532562256,-0.10671821981668472,7.800678253173828,-2.7171618938446045,-11.299213409423828,-11.776437759399414,-13.003435134887695,1.4656071662902832,-6.092878341674805,-13.739397048950195,6.908702373504639,5.51314115524292,17.591936111450195,8.245770454406738,-8.578588485717773,-5.60957145690918,4.681758403778076,-5.779484272003174,4.944392204284668,9.024554252624512,7.662784099578857,-0.5673577189445496,7.396504878997803,-10.86396598815918,-11.459102630615234,6.860498428344727,6.464282512664795,-3.621670722961426,-6.165412902832031,-10.40725040435791,-7.021466255187988,6.011725425720215,9.357993125915527,4.526003360748291,-6.6339826583862305,7.531182765960693,7.866589546203613,6.422735214233398,7.229340553283691,-11.186057090759277,-1.8264788389205933,-12.017086029052734,-6.4280595779418945,6.30118465423584,-1.378185510635376,5.731152057647705,6.192721366882324,5.754829406738281,-3.827126979827881,-6.719153881072998,4.209203720092773,-4.210986137390137,5.36392068862915,-0.8060628771781921,-22.92818832397461,-22.18242835998535,-8.713693618774414,-5.491943836212158,14.279195785522461,6.009263038635254,0.17431581020355225,23.738121032714844,3.3360466957092285,-0.4611653983592987,-9.493040084838867,-23.127439498901367,6.5447258949279785,5.093439102172852,-5.848079681396484,11.80781364440918,20.118127822875977,0.6932154893875122,2.579688310623169,4.406732082366943,-20.00959014892578,13.046698570251465,-23.30040168762207,1.1187751293182373,6.82225227355957,-3.7920961380004883,3.0653934478759766,-3.8629515171051025,-24.581825256347656,8.142717361450195,-6.491766929626465,-5.568121433258057,20.290651321411133,2.7330992221832275,-23.563329696655273,4.025633811950684,-5.888369560241699,-0.8474321961402893,24.464427947998047,3.375103235244751,-6.8647050857543945,-3.542503595352173,-2.4491686820983887,-5.802308559417725,-7.402148723602295,-0.2996872365474701,-24.433040618896484,1.4030512571334839,20.48102378845215,-21.961320877075195,-5.86476469039917,24.81368064880371,-4.763072967529297,-21.118026733398438,-20.108129501342773,17.67379379272461,-12.589177131652832,14.146395683288574,-11.958368301391602,4.553537368774414,-7.377560138702393,1.6318600177764893,-10.822943687438965,7.160876750946045,8.720146179199219,13.272923469543457,-3.0961732864379883,11.376497268676758,7.005967140197754,3.590313673019409,5.813873291015625,8.894775390625,17.17941665649414,7.177112102508545,10.755276679992676,-5.065943717956543,-14.119181632995605,-6.201547145843506,11.014320373535156,-11.90924072265625,-12.018815040588379,2.8377294540405273,-7.318420886993408,1.669000506401062,-13.987772941589355,11.13906192779541,-14.432005882263184,3.6419200897216797,4.460575580596924,-12.169159889221191,-11.227720260620117,-3.229788303375244,12.677533149719238,3.085686206817627,11.447332382202148,-13.595208168029785,-6.706490516662598,-6.344711780548096,6.202521800994873,-12.56383228302002,-12.359392166137695,-10.946078300476074,-10.870905876159668,-11.460164070129395,-5.456311225891113,3.719332218170166,11.061596870422363,-4.52827787399292,5.578022003173828,-13.41186237335205,3.77471923828125,-14.50012493133545,7.534748554229736,-8.579828262329102,10.246603965759277,0.04411303251981735,6.503406524658203,-8.631319999694824,-5.860908031463623,-8.039283752441406,-0.47945547103881836,-6.805165767669678,13.393033981323242,6.324903964996338,6.990746974945068,11.62929630279541,8.209366798400879,-4.726805210113525,-8.691407203674316,-5.508942127227783,6.325705528259277,-0.10372278094291687,-1.543978214263916,13.832450866699219,18.801862716674805,-5.803753852844238,14.309823989868164,6.517435073852539,-14.507441520690918,-13.004890441894531,-10.896007537841797,1.8874492645263672,8.010757446289062,-12.78832721710205,6.547257900238037,-13.532262802124023,-2.0288617610931396,-9.174749374389648,-1.4467219114303589,-3.126814603805542,-9.380348205566406,-2.857651710510254,-11.365535736083984,8.801957130432129,-6.134143829345703,-6.620461940765381,-1.8184705972671509,-5.740975379943848,-6.325008392333984,-14.43313217163086,-6.953258037567139,-6.634398460388184,-8.948697090148926,-0.6589523553848267,-10.349864959716797,1.2477755546569824,1.4472030401229858,0.22146515548229218,-6.396636009216309,-2.395038604736328,-2.8913776874542236,-8.938614845275879,-3.387848377227783,10.048954963684082,7.671778678894043,-15.434814453125,-34.390316009521484,35.500328063964844,3.339756727218628,-0.44243404269218445,-5.534049034118652,-4.921134948730469,8.886207580566406,-1.1475648880004883,-32.485389709472656,6.7713775634765625,30.581445693969727,24.554365158081055,36.275760650634766,-3.4372496604919434,-9.798060417175293,15.32557487487793,-23.910579681396484,-4.782930374145508,7.0262041091918945,-25.76230812072754,-10.419620513916016,22.316823959350586,12.258280754089355,23.382612228393555,-31.090513229370117,-10.837264060974121,-6.81905460357666,1.8024775981903076,4.011930465698242,15.691335678100586,25.4543514251709,-6.0852742195129395,1.5956259965896606,-17.707489013671875,-11.689786911010742,32.38042449951172,-3.1493566036224365,0.4485468864440918,-14.687087059020996,-37.71672821044922,32.577796936035156,1.538924217224121,6.068130016326904,3.097193717956543,8.608179092407227,23.610200881958008,-10.953629493713379,11.786890983581543,18.872095108032227,-18.572359085083008,35.40791320800781,7.661601543426514,-4.58146858215332,4.42576265335083,2.9987075328826904,10.619403839111328,-2.541414976119995,-24.326862335205078,-5.420413970947266,-25.424320220947266,7.565075397491455,-12.727161407470703,22.759252548217773,-8.886846542358398,-41.894683837890625,3.934001922607422,15.088836669921875,-24.387950897216797,3.3327808380126953,-1.86357843875885,0.3822212517261505,6.971983909606934,-25.434568405151367,28.322473526000977,26.690696716308594,3.521984577178955,0.5896598100662231,-47.3026123046875,1.8215062618255615,22.819503784179688,6.238440036773682,-25.144559860229492,4.038301944732666,-16.111011505126953,8.363194465637207,-14.783669471740723,21.47395133972168,-1.5244656801223755,25.24154281616211,0.07565712183713913,-24.382667541503906,-28.24656867980957,-11.314067840576172,32.299461364746094,26.49109649658203,-35.18241500854492,27.30716896057129,-3.6347386837005615,-7.290164470672607,23.48787498474121,5.022762298583984,2.9906439781188965,-12.118064880371094,-16.558692932128906,24.812387466430664,-8.10165023803711,47.5604248046875,26.351821899414062,1.8058058023452759,18.042984008789062,-2.3929436206817627,-13.537114143371582,-23.392921447753906,46.93279266357422,23.100332260131836,-17.3988037109375,2.561584234237671,1.2050588130950928,2.800483226776123,-6.993697643280029,-1.6818430423736572,3.755518913269043,-2.0700645446777344,5.461847305297852,-1.2396419048309326,-3.6014156341552734,4.8416523933410645,-4.825561046600342,-2.0844292640686035,-3.516845464706421,-8.15459156036377,-0.40619128942489624,-3.1049699783325195,-10.044622421264648,1.6813873052597046,4.161983013153076,5.020273685455322,2.321787118911743,-0.27532312273979187,1.2083706855773926,6.206425666809082,-3.8106064796447754,1.343044638633728,0.06374677270650864,2.942246913909912,-2.6442432403564453,1.3850834369659424,-6.415088176727295,-2.0235519409179688,2.397061586380005,3.7103612422943115,6.0926690101623535,-3.4030377864837646,-7.807481288909912,-1.9680755138397217,1.6246018409729004,4.228081703186035,7.453922271728516,-6.526637077331543,1.3651334047317505,3.5677988529205322,0.18041807413101196,2.5086541175842285,-6.4742512702941895,4.752785682678223,-5.729032516479492,-3.369279146194458,5.2322235107421875,-7.874706745147705,1.9738879203796387,2.6303741931915283,4.664638042449951,-1.7464994192123413,-6.415622234344482,3.1503539085388184,8.670291900634766,-7.14393949508667,7.823911190032959,9.690876007080078,7.87638521194458,8.78213882446289,-4.081133842468262,5.014638900756836,-6.665383338928223,-6.094805717468262,-9.556334495544434,-7.859393119812012,7.116308212280273,9.425333023071289,9.384424209594727,-6.8586201667785645,-8.091472625732422,-3.954106330871582,-10.294392585754395,-7.072752952575684,10.240276336669922,-9.7181978225708,-7.142000198364258,10.052180290222168,6.61750602722168,10.748627662658691,3.0189757347106934,-8.138073921203613,7.932894229888916,-7.134128093719482,7.588163375854492,9.0007963180542,8.510965347290039,7.244688987731934,6.859819412231445,6.047608375549316,-7.778042793273926,10.42466926574707,-6.56444787979126,6.865830898284912,6.22766637802124,-8.372586250305176,-5.1193060874938965,6.587367534637451,7.266421794891357,6.169527530670166,6.673508167266846,10.183318138122559,6.136813640594482,9.464970588684082,-6.658132553100586,-9.585905075073242,6.394702911376953,7.498730659484863,-9.547207832336426,9.089548110961914,-8.518845558166504,3.0373902320861816,2.680809736251831,26.417308807373047,-43.20411682128906,19.47895622253418,-17.549894332885742,43.301639556884766,3.1861588954925537,21.754535675048828,-1.1613023281097412,-42.9888801574707,-40.41450500488281,17.660606384277344,1.6026885509490967,-16.922849655151367,-16.420551300048828,-17.09527015686035,-20.15180206298828,-3.9509565830230713,-22.048643112182617,-2.8348073959350586,15.057562828063965,-18.05322265625,15.727523803710938,-10.516952514648438,-0.7438815832138062,43.822608947753906,-20.818401336669922,18.450634002685547,17.15925407409668,28.268075942993164,-24.201435089111328,-2.1511969566345215,-19.777240753173828,-16.725048065185547,26.98356056213379,10.107094764709473,23.554044723510742,-15.158819198608398,-18.62321662902832,-42.58203125,26.119380950927734,38.894935607910156,19.644407272338867,-24.059919357299805,34.79513931274414,44.205284118652344,16.03365707397461,23.2203426361084,4.098331451416016,38.565818786621094,4.432599067687988,-0.5364476442337036,13.126628875732422,-19.456167221069336,34.443931579589844,-21.916189193725586,24.992530822753906,-1.4014523029327393,-2.56600022315979,-20.201732635498047,3.0350146293640137,-8.694503784179688,7.009616374969482,13.332331657409668,25.683223724365234,8.545926094055176,11.049528121948242,-0.2963554263114929,-25.25711441040039,9.235818862915039,-17.58308982849121,-17.848188400268555,18.395967483520508,19.004640579223633,15.804328918457031,-19.61060905456543,-6.4087700843811035,13.910606384277344,-18.15814971923828,-19.909507751464844,4.922657012939453,-18.242204666137695,11.777567863464355,35.19955825805664,13.86011028289795,19.38684844970703,-13.3361234664917,-18.11067008972168,13.466320991516113,-18.339553833007812,21.085731506347656,16.944656372070312,19.010398864746094,19.868677139282227,-5.965170860290527,-17.126148223876953,3.8933370113372803,17.893640518188477,-34.96757507324219,25.47704315185547,-15.001665115356445,-17.44546127319336,-8.950430870056152,31.820781707763672,8.876824378967285,19.26108169555664,17.00722885131836,18.163612365722656,0.3863566219806671,15.371942520141602,11.318280220031738,-34.533546447753906,13.4609375,26.457555770874023,-43.27351760864258,-6.370213985443115,20.76463508605957,28.998870849609375,-20.6099796295166,1.0244312286376953,-7.114538192749023,7.512387275695801,-5.28905725479126,2.1342859268188477,-5.86667537689209,-4.516252517700195,3.265434980392456,-6.264048099517822,-7.164926528930664,4.768100261688232,7.2107367515563965,-5.672540664672852,-4.979560852050781,-3.5976195335388184,-6.78078031539917,-7.4440999031066895,-6.6005449295043945,3.9053165912628174,4.7195210456848145,-0.3461030423641205,5.627737522125244,-0.2519717514514923,-3.888727903366089,5.295384883880615,-5.937130928039551,9.927096366882324,7.353151798248291,3.2847952842712402,4.4956583976745605,11.171357154846191,-4.903810024261475,-5.041777610778809,5.704105854034424,1.3425450325012207,6.089982032775879,-9.833051681518555,-4.142652988433838,-11.359566688537598,5.1563920974731445,2.7562448978424072,5.096090316772461,-4.873093605041504,11.698463439941406,8.045228004455566,5.934213161468506,5.027614116668701,-2.9700989723205566,4.5218353271484375,-4.42913818359375,-9.453058242797852,4.823247909545898,-5.768080711364746,3.7131097316741943,-5.023778915405273,-1.5006872415542603,-6.867396354675293,-5.948727130889893,3.408647298812866,25.777456283569336,-8.5820894241333,21.390878677368164,-3.520782470703125,24.319408416748047,9.536336898803711,-7.917510509490967,-3.242833375930786,-27.98335838317871,-42.491249084472656,4.039945602416992,11.647875785827637,5.863077640533447,-10.321619033813477,-1.3111525774002075,-28.993688583374023,-7.436123371124268,-27.40973663330078,-8.024862289428711,-15.773310661315918,-0.06741867959499359,7.357819080352783,-45.91975402832031,-11.910340309143066,26.12372589111328,-2.429769515991211,21.083383560180664,-2.455965757369995,14.424881935119629,-12.44336223602295,24.440357208251953,-7.658573627471924,-12.781988143920898,27.892879486083984,23.3713436126709,4.950239181518555,-6.8610520362854,-3.6168580055236816,-35.017208099365234,29.94979476928711,27.24042320251465,13.918628692626953,0.16786222159862518,43.93004608154297,28.057811737060547,38.30202865600586,36.38490295410156,-7.7734270095825195,18.10723304748535,-7.4385786056518555,-17.413570404052734,6.223605632781982,-7.593866348266602,26.15192413330078,-26.83942222595215,22.744590759277344,-0.17305833101272583,14.493120193481445,-13.109657287597656,35.61106491088867,-36.079872131347656,-20.201345443725586,16.30984878540039,18.545541763305664,21.270633697509766,8.505206108093262,19.70201873779297,-39.67472839355469,-11.603240966796875,-19.601560592651367,-33.30854034423828,21.233476638793945,4.940389633178711,-2.1000428199768066,-60.758277893066406,-34.34196090698242,-8.974751472473145,-14.137553215026855,-18.859806060791016,17.54449462890625,-16.945098876953125,-52.56606674194336,6.25502347946167,23.177780151367188,15.2408447265625,7.684046745300293,-15.707590103149414,42.87734603881836,-0.4344424605369568,27.072582244873047,18.266042709350586,17.30748748779297,66.77533721923828,40.463539123535156,5.265247821807861,-28.20557403564453,12.828283309936523,-28.15258026123047,39.26942443847656,17.000410079956055,-10.503129005432129,-10.24312973022461,20.594945907592773,13.494389533996582,46.427772521972656,45.66685104370117,-4.498194217681885,19.06413459777832,-31.27664566040039,1.2721513509750366,-16.27617073059082,8.940750122070312,23.177574157714844,-2.4511823654174805,23.02567481994629,14.4901762008667,31.46154022216797,-42.418113708496094,1.0037739276885986,-0.5290683507919312,-15.619032859802246,-18.98830223083496,-19.11322021484375,-10.624479293823242,-0.5253027677536011,12.755005836486816,-0.47884637117385864,5.023637294769287,19.32723045349121,16.076807022094727,-9.34962272644043,-14.092703819274902,-18.97066307067871,0.6334173679351807,0.025221334770321846,-9.238661766052246,19.925918579101562,18.741579055786133,-18.242063522338867,17.668142318725586,-0.5882633924484253,-18.77608299255371,0.3167109489440918,-19.070205688476562,3.1721043586730957,5.5898213386535645,0.2679363787174225,16.191482543945312,-1.0485249757766724,-18.397144317626953,-8.828011512756348,1.031791090965271,1.3026783466339111,12.917152404785156,-2.938089370727539,-19.604259490966797,-1.349806308746338,0.7018425464630127,-0.13207729160785675,16.119016647338867,-0.3672139346599579,0.4749773144721985,-1.6220545768737793,0.2145444005727768,0.6516446471214294,-18.941974639892578,-16.20825958251953,-19.37347984313965,0.2737236022949219,1.8176517486572266,-15.181737899780273,1.273764967918396,0.11352168768644333,0.8662105798721313,10.513054847717285,-0.04254867509007454,-1.761996865272522,3.479013681411743,-5.049406051635742,6.462882041931152,-1.6068425178527832,8.209359169006348,-9.048070907592773,-1.5579549074172974,-4.394357681274414,-2.8347346782684326,-3.9863038063049316,3.645956516265869,4.531940937042236,-9.376177787780762,-5.0266008377075195,0.05964047089219093,-4.841436862945557,-1.871355414390564,-0.43561872839927673,1.8833976984024048,-0.9667558073997498,-6.363793849945068,6.780999183654785,7.155755043029785,-2.6342649459838867,1.3559348583221436,-4.162298679351807,3.47753643989563,8.13296127319336,-8.25745964050293,3.7267098426818848,-5.2083563804626465,-3.4484143257141113,-6.4761762619018555,0.47361811995506287,-3.2237894535064697,9.186542510986328,-1.809189796447754,-0.2549239695072174,3.13046932220459,-2.2988193035125732,4.447238445281982,6.951712608337402,5.829305648803711,-0.9997583627700806,-2.2533111572265625,1.7048419713974,-1.9025862216949463,-1.9921175241470337,0.44163912534713745,-4.002614498138428,8.516654968261719,6.495787143707275,-6.605726718902588,0.28834179043769836,-8.378568649291992,-0.7063589692115784,-5.035212993621826,5.314537048339844,-4.920831680297852,17.191396713256836,-9.309626579284668,23.06653594970703,2.4722049236297607,4.3499226570129395,9.653205871582031,18.744102478027344,13.192813873291016,-9.868165016174316,-7.42739725112915,19.784303665161133,-17.388463973999023,-2.829802989959717,-25.901782989501953,-13.090492248535156,-15.438379287719727,-19.264345169067383,-19.81640625,25.381919860839844,16.183425903320312,15.55133056640625,1.3585208654403687,-18.781749725341797,-3.983039140701294,32.16575241088867,-15.080648422241211,23.98401641845703,6.515181541442871,0.8447136878967285,-14.706552505493164,15.959065437316895,-20.53797721862793,-9.951383590698242,33.354007720947266,17.90050506591797,13.89020824432373,-21.1267032623291,-13.231390953063965,-35.377098083496094,34.06270217895508,18.774377822875977,-6.089819431304932,-5.496662616729736,11.577871322631836,31.740137100219727,34.305572509765625,14.458403587341309,-20.605552673339844,18.081727981567383,-16.788616180419922,-44.005104064941406,12.823777198791504,-17.398237228393555,2.396235942840576,-5.154221534729004,13.945199012756348,-19.85025405883789,-12.78689193725586,10.973803520202637,-1.4576417207717896,0.3659662902355194,-5.619531631469727,-21.72207260131836,-21.13018035888672,-29.927001953125,-24.83353614807129,19.426090240478516,2.881969451904297,-13.573673248291016,16.596582412719727,24.27943229675293,-28.913585662841797,-15.132923126220703,-19.74032974243164,-19.797130584716797,21.332597732543945,-15.223114013671875,37.12808609008789,20.447715759277344,-5.646672248840332,15.343313217163086,27.67333221435547,-0.3656581938266754,-6.06929349899292,-25.686710357666016,14.445533752441406,20.393962860107422,-27.50679588317871,21.610139846801758,-25.983482360839844,-14.614862442016602,-29.563825607299805,3.243772506713867,9.978611946105957,-4.318282604217529,18.689599990844727,-18.794214248657227,-0.15442992746829987,-25.616750717163086,13.274264335632324,19.90530014038086,-17.204425811767578,-6.698347568511963,-6.446246147155762,6.530622959136963,-6.215610504150391,-17.679616928100586,11.996772766113281,-10.029019355773926,22.751773834228516,2.7774195671081543,2.172865629196167,3.1088922023773193,-4.734209060668945,-7.6277570724487305,-36.934391021728516,-1.392842411994934,3.515573024749756,18.370677947998047,-19.183391571044922,15.253522872924805,-6.9775309562683105,9.135722160339355,-4.462348937988281,8.600518226623535,13.88299560546875,-19.933879852294922,-10.042739868164062,7.787192344665527,-23.02629852294922,-4.159364223480225,-5.901703357696533,-2.6357226371765137,-25.280332565307617,-11.069145202636719,-13.891398429870605,-20.314979553222656,1.810075044631958,10.13197135925293,7.736198425292969,-12.976408004760742,-11.503737449645996,17.604703903198242,-12.632174491882324,14.264910697937012,8.040417671203613,21.129377365112305,-13.442468643188477,6.138150215148926,-5.295990943908691,-7.839542388916016,18.494924545288086,12.917668342590332,8.921890258789062,-13.475017547607422,-2.932469606399536,-14.43779182434082,17.610559463500977,25.221609115600586,3.137709379196167,-18.715303421020508,12.94182300567627,9.507781028747559,13.945903778076172,18.273900985717773,-3.61299991607666,21.12676239013672,-4.077920436859131,-12.795207977294922,4.824783802032471,-11.68459701538086,18.04393768310547,-20.925331115722656,13.696157455444336,1.4571012258529663,8.028327941894531,-10.592894554138184,0.028170352801680565,0.6660636067390442,5.9728779792785645,-8.025369644165039,-7.277443885803223,-10.028749465942383,-8.810028076171875,-4.647416114807129,3.5243406295776367,4.911004543304443,3.152491807937622,9.30891227722168,3.3979711532592773,-7.440553188323975,-6.243412494659424,4.646379470825195,-0.8883662819862366,-4.476838111877441,0.6249750852584839,7.758797645568848,2.3841888904571533,4.7760396003723145,2.5139524936676025,-7.9606194496154785,-5.193301677703857,-2.072434902191162,-3.6954843997955322,-1.76226806640625,-5.991415977478027,8.881226539611816,-5.175321578979492,-5.655178546905518,-3.696897268295288,-2.253290891647339,-3.4445645809173584,0.45680856704711914,-4.778008460998535,-5.344729423522949,8.679044723510742,-3.3647873401641846,-4.716549873352051,6.874072551727295,5.173138618469238,-4.877486228942871,-7.455494403839111,-5.608777046203613,-3.513977289199829,-6.97572135925293,-8.896062850952148,-8.859087944030762,4.4531168937683105,6.454935550689697,-2.51271915435791,-1.1335006952285767,4.292102336883545,-1.4060194492340088,-6.983964920043945,-8.282960891723633,6.134104251861572,-0.06601080298423767,-0.07067528367042542,0.04534534737467766,-0.03696829080581665,0.03371233493089676,-0.011590812355279922,0.04967283830046654,-0.06108371913433075,-0.06080082058906555,-0.06701166182756424,0.03200097009539604,-0.004327596630901098,0.06599410623311996,0.030573371797800064,0.0610918253660202,-0.02296612784266472,-0.030846726149320602,-0.001675812411122024,0.0330345518887043,0.04857368767261505,-0.07229415327310562,0.060225650668144226,0.021347563713788986,-0.06568038463592529,-0.030457470566034317,-0.02212696522474289,-0.006861734203994274,-0.06995676457881927,-0.019439462572336197,0.017723342403769493,-0.0623309463262558,0.03248938173055649,0.020598139613866806,0.06680969893932343,-0.003924590069800615,0.06117957830429077,-0.035373035818338394,0.0476636104285717,0.018574191257357597,-0.004925010725855827,0.0024210389237850904,0.026048507541418076,-0.05922919139266014,-0.04168522357940674,-0.06688649952411652,0.057214587926864624,0.06342240422964096,-0.016664352267980576,-0.01979829929769039,0.06965958327054977,0.06982286274433136,-0.03513951972126961,0.04579651728272438,0.0023940461687743664,-0.0693327784538269,0.04360527545213699,-0.002634712029248476,-0.026791006326675415,0.00927741453051567]},"hiddenLayers":[{"inputMatrix":{"rows":20,"columns":59,"weights":[0.21911194920539856,-0.14847378432750702,-2.1525681018829346,0.3463854193687439,-1.038580298423767,1.1280779838562012,-0.9450324773788452,-1.2541667222976685,0.9418771266937256,2.117182731628418,-1.4576882123947144,1.2832047939300537,1.5181111097335815,0.4817327558994293,0.06324578076601028,0.5740903615951538,-0.19691908359527588,0.2970317602157593,-1.0981839895248413,0.08855803310871124,-1.6591947078704834,-0.7030211091041565,2.1136200428009033,0.6429034471511841,-1.5559933185577393,0.6412150263786316,-1.0220681428909302,-1.8432568311691284,-0.44307002425193787,1.2800359725952148,-0.2637236714363098,0.7157305479049683,0.7663931250572205,-0.3165278434753418,-0.5749226212501526,-1.1615619659423828,0.22300495207309723,0.8170346617698669,0.5822944045066833,0.6383296251296997,-1.684186577796936,-0.04799174517393112,2.0667786598205566,0.055573634803295135,-0.40876659750938416,-0.7482783198356628,-0.5160277485847473,0.5946469902992249,-2.8992421627044678,0.3486357629299164,1.4191596508026123,-0.11124330013990402,0.5915652513504028,-0.10837222635746002,-1.0939782857894897,0.1872047781944275,0.7554211020469666,-0.9369115233421326,0.9218356013298035,0.9145628809928894,1.0825434923171997,-0.4941083490848541,0.9153618812561035,-0.2374592274427414,-1.1535202264785767,-1.608577013015747,1.0676321983337402,1.2497578859329224,2.453518867492676,-1.165708065032959,1.0453640222549438,1.92893648147583,1.062546730041504,0.7280371785163879,1.3615119457244873,-0.02079889178276062,1.3269599676132202,-1.189316987991333,-0.38770318031311035,0.754999577999115,-1.2117679119110107,-0.05956887826323509,0.9371041655540466,-0.7713270783424377,1.9814705848693848,-2.05647349357605,-1.9340060949325562,-0.3489445447921753,0.43110591173171997,-0.8695915341377258,1.3967210054397583,1.5520161390304565,-0.9354699850082397,0.1313757300376892,0.03888672962784767,0.10581611841917038,1.1662969589233398,1.0901951789855957,-0.14839337766170502,-1.12151300907135,-1.4606587886810303,0.5813730359077454,-0.5846366286277771,-0.10869741439819336,-0.8005073666572571,0.20399117469787598,0.5792310833930969,-1.37946355342865,0.5978876948356628,0.3431808650493622,-0.6595115661621094,0.8199865818023682,-0.32723090052604675,0.09078839421272278,0.6371610164642334,-0.9990273714065552,-1.3309608697891235,1.8609542846679688,-0.30371609330177307,0.7054520845413208,0.04611106216907501,1.1772840023040771,-0.9690269827842712,-0.24103204905986786,-0.6676194071769714,0.48740318417549133,1.2000881433486938,0.7230371832847595,-1.300736427307129,0.16888435184955597,0.9923740029335022,0.5747080445289612,1.3302029371261597,0.6208849549293518,0.33830687403678894,0.780085027217865,-0.44898471236228943,-2.028747320175171,0.7144636511802673,-0.8269343376159668,0.631138265132904,-0.11433380097150803,-0.8290294408798218,2.16561222076416,-0.7463046312332153,-0.9466612339019775,-0.5235025882720947,0.33303597569465637,-0.34526628255844116,0.6324576735496521,1.1508430242538452,-0.359128475189209,-0.9773799777030945,-2.0125670433044434,-0.24945978820323944,2.0371203422546387,1.2662315368652344,-0.2891232967376709,-1.2071806192398071,-1.4712616205215454,1.4386509656906128,-0.5786632299423218,-0.9488922357559204,-0.6084561944007874,-0.7819251418113708,0.4863889217376709,-0.7048574686050415,0.2434549331665039,0.9277666807174683,-1.5349880456924438,1.2895084619522095,-0.9292856454849243,0.9143707156181335,-0.8906627893447876,1.237213373184204,0.2680895924568176,0.6144411563873291,0.8310061693191528,-2.2715799808502197,0.5286030173301697,1.595428228378296,-0.22350706160068512,-0.4835161864757538,1.4690730571746826,0.9365114569664001,-0.5192583203315735,-0.09380500018596649,-0.7647064328193665,-0.5329027771949768,0.003979919012635946,0.3817097842693329,1.1104865074157715,-0.6393028497695923,-0.9598267078399658,-0.6647159457206726,-0.5273926854133606,-0.14694000780582428,0.6659238338470459,-0.3801528513431549,-0.9199492335319519,-0.5778661370277405,2.3930437564849854,1.6034098863601685,1.2589157819747925,0.25578075647354126,0.5961976051330566,-0.9019330143928528,0.9148069024085999,0.29437679052352905,-0.017582686617970467,2.079240083694458,1.3350082635879517,-0.2864324450492859,-1.259010672569275,0.964530885219574,-0.44801101088523865,1.0784698724746704,0.3842557668685913,-2.3271987438201904,-1.3571515083312988,0.10503798723220825,1.177452802658081,0.5295124650001526,2.1700997352600098,0.7206435799598694,0.9665738344192505,0.7086764574050903,-0.8873467445373535,-0.622481107711792,1.5586919784545898,1.5036401748657227,-0.8425938487052917,0.5611779093742371,-1.2114367485046387,-0.9002763628959656,1.0233218669891357,0.45306020975112915,0.10486386716365814,-1.0145854949951172,-1.9428268671035767,-0.7159587740898132,-0.34849119186401367,0.06306395679712296,-0.5471001863479614,0.04339466989040375,-0.8845852017402649,1.9893367290496826,0.6950744986534119,-1.9333552122116089,-1.8721697330474854,-1.9408612251281738,0.7198426127433777,0.2669629156589508,-2.320317029953003,0.9726934432983398,2.3102028369903564,-0.962858259677887,1.7629504203796387,0.041166286915540695,-1.353745937347412,-0.020480824634432793,-2.171466827392578,2.0482242107391357,2.8170249462127686,-0.36046212911605835,0.08782892674207687,-0.1301519274711609,-2.622142791748047,-2.776902675628662,0.37031975388526917,0.48749715089797974,2.0703063011169434,-0.45858246088027954,-1.7272875308990479,0.674027681350708,-0.4329060912132263,0.9446868300437927,1.7929997444152832,-0.12304448336362839,-0.5639263391494751,-0.15678288042545319,-0.1907707303762436,-0.2863350212574005,-1.0959208011627197,0.9373530149459839,-1.1499818563461304,-0.7162308692932129,2.016167402267456,-1.770402193069458,-0.06431659311056137,1.0981955528259277,0.8020857572555542,-1.1359367370605469,-1.2346891164779663,0.6991552114486694,-0.7660428285598755,1.1074706315994263,-0.51964271068573,-0.21416983008384705,-1.760020136833191,-0.7633018493652344,-1.086597204208374,-0.3044399321079254,1.6289308071136475,0.6499201655387878,0.704910397529602,1.0236786603927612,-0.24108286201953888,-0.734675407409668,-0.2762889564037323,1.3872648477554321,0.5356850624084473,-0.18771865963935852,2.039314031600952,0.32858145236968994,-1.919222116470337,0.5783560276031494,1.020769476890564,-0.7170737385749817,0.6137298345565796,-0.5129247307777405,0.8534923195838928,0.8570864796638489,-1.3010578155517578,-0.4517099857330322,-0.7495520114898682,-0.8652080297470093,-0.7465894222259521,0.7308875918388367,-1.9658117294311523,-0.9933528304100037,0.5701055526733398,-0.2055150866508484,0.7485461235046387,-2.687272548675537,-2.7293426990509033,0.31296300888061523,2.0603232383728027,0.7650323510169983,-1.493325114250183,-0.4749491214752197,-2.0975468158721924,-1.996108889579773,-1.2297461032867432,-1.5296682119369507,1.2856128215789795,1.5134942531585693,-1.1632704734802246,-2.49780535697937,1.1690908670425415,-1.454070806503296,1.266794204711914,0.08411788940429688,1.0506592988967896,-0.5283294916152954,0.7749127745628357,-0.5256463289260864,0.9281424283981323,-0.9631774425506592,-0.8952882289886475,-1.013755440711975,0.005019681993871927,0.8117778897285461,1.0736486911773682,-0.25851762294769287,2.203801393508911,0.7900124192237854,0.4449857473373413,0.8347002863883972,0.32078880071640015,1.4306013584136963,1.7242538928985596,-0.07377249747514725,0.03386685624718666,-0.20668809115886688,-0.2835121154785156,0.9287911653518677,-0.63027024269104,-0.9290226101875305,0.2681090235710144,-1.522055745124817,-0.7194728851318359,-1.1114073991775513,2.116177558898926,-1.2437752485275269,1.068135142326355,0.5351828336715698,-1.2983646392822266,-0.030100688338279724,-0.5918287038803101,0.512385904788971,1.7006782293319702,1.1029244661331177,-0.5722152590751648,-0.7505770921707153,-1.076562523841858,1.1549718379974365,-0.9489879608154297,-1.3988351821899414,-1.2249878644943237,-1.1588139533996582,0.44870683550834656,-1.573421835899353,1.238486409187317,1.0239545106887817,0.45956337451934814,0.758649468421936,-0.6295945048332214,0.5890407562255859,-0.7104597091674805,-0.22168277204036713,-0.6655788421630859,0.7153993844985962,0.5541998744010925,0.5984644889831543,1.2736444473266602,0.6485072374343872,-1.5315654277801514,1.154905080795288,1.435490608215332,0.8010817170143127,1.9675133228302002,0.974528431892395,-0.06267373263835907,-0.7915381193161011,0.888093113899231,-0.14652955532073975,-0.5294917225837708,2.3595967292785645,-1.3925824165344238,-1.1312952041625977,0.08735797554254532,-0.2974233031272888,1.5763256549835205,-0.7699599266052246,-0.6702061295509338,0.9357107281684875,-0.39140328764915466,0.6356232166290283,-2.5690667629241943,-1.9816021919250488,-0.8874750137329102,-0.8093985915184021,-0.526759147644043,-0.23327282071113586,0.6399626135826111,0.4008324146270752,2.4449503421783447,-1.0798981189727783,-1.979546070098877,-0.10965749621391296,0.3925398886203766,0.8358151912689209,-2.1845204830169678,-1.3418325185775757,1.0652860403060913,-0.200198233127594,0.804826021194458,-0.08744249492883682,-0.7242088913917542,-0.5223362445831299,-2.0146377086639404,-0.9150232672691345,-1.7812554836273193,-0.2865130305290222,0.24338747560977936,-0.6656155586242676,0.23287975788116455,1.2239872217178345,-0.3494110703468323,-1.3850382566452026,1.9592530727386475,-1.2247045040130615,0.3131011128425598,-2.4274535179138184,0.3475611209869385,-0.08455580472946167,0.10611185431480408,-1.5588799715042114,-0.4635539650917053,0.22762323915958405,1.3135273456573486,-0.7623860836029053,1.1108063459396362,1.448895812034607,0.4585742950439453,0.6088435649871826,0.22249244153499603,0.5072349309921265,1.556520938873291,-0.348419725894928,0.5526614785194397,-1.715906023979187,-0.6469544172286987,0.8106954097747803,0.29482609033584595,-0.5899555683135986,0.24268659949302673,-1.2167785167694092,-0.5675196051597595,-0.6235508322715759,1.1950608491897583,-0.7202439308166504,0.7003797292709351,0.457240492105484,-0.5376346707344055,-0.7280465960502625,-0.46009761095046997,1.033166527748108,0.6671100854873657,0.7093470096588135,0.002922071609646082,-0.7808516025543213,-0.7996729612350464,1.3597095012664795,-0.7803201079368591,-0.6102818250656128,-1.6237174272537231,-0.4610764980316162,0.2539505064487457,-1.1278612613677979,0.3331451416015625,1.7256109714508057,-0.6699596047401428,0.7199044823646545,-0.577034592628479,-0.28977224230766296,-0.9960019588470459,-0.05594593286514282,0.35491958260536194,-0.4740145802497864,-0.723974347114563,0.8220985531806946,0.9128628969192505,-1.8953895568847656,-0.5880579948425293,0.31275674700737,-1.0514944791793823,0.20373152196407318,1.118282437324524,0.5131705403327942,1.4619033336639404,-0.12297383695840836,-1.5607669353485107,-0.617506742477417,-1.4405301809310913,0.38838598132133484,0.4783804416656494,-0.4392344653606415,1.1301653385162354,0.7019882202148438,0.8213455677032471,1.3078986406326294,0.1723996102809906,-0.29131752252578735,-0.8711193799972534,-0.3611331582069397,0.3962123990058899,1.5231130123138428,-0.6119471192359924,-0.09334009140729904,-0.5765150785446167,-0.8279255032539368,-1.1273958683013916,-0.37669044733047485,-0.42124930024147034,0.17170511186122894,-0.1884525865316391,-1.368527889251709,1.0876027345657349,-0.5554811358451843,-0.8060086965560913,0.7679413557052612,0.5335572361946106,-0.2870851159095764,-0.39337894320487976,-0.26523202657699585,-0.18473094701766968,-0.9564442038536072,-0.5921648144721985,-0.9298810362815857,-0.2811090648174286,0.3095972537994385,0.07800062745809555,-0.6992934346199036,0.9894393086433411,-0.6688048243522644,0.1284300833940506,-1.0025043487548828,0.9458256363868713,-0.8937503695487976,-0.5093835592269897,0.6187231540679932,2.005140542984009,0.8826459646224976,-0.15830668807029724,2.9217324256896973,-0.6300696134567261,-0.5480645895004272,-0.7172413468360901,0.32526853680610657,-1.9503625631332397,-0.1056576520204544,0.669524073600769,-0.010532313957810402,0.4337054193019867,0.23963183164596558,0.4738335609436035,-0.28605958819389343,-0.8247444033622742,0.6409167051315308,-0.2942340075969696,-2.0535519123077393,0.023038409650325775,1.176413655281067,-0.11256324499845505,0.35116562247276306,0.2854219377040863,1.2116221189498901,-2.1913676261901855,0.8273248672485352,0.2531771957874298,0.18968187272548676,-0.8520568013191223,-0.4102697968482971,0.6407445669174194,0.612916111946106,-0.01984359696507454,-0.9792090058326721,-0.21631675958633423,-1.0411701202392578,-1.3966301679611206,0.7832700610160828,0.86086505651474,2.4474215507507324,1.5677703619003296,0.15204715728759766,0.6685059070587158,0.6548377871513367,0.8078590631484985,-0.10252834111452103,-1.2023859024047852,0.3998773992061615,-0.4808894395828247,1.0690897703170776,-0.1714698076248169,-0.09253957867622375,1.017229437828064,-1.0039384365081787,-0.048884715884923935,-0.42077362537384033,-1.1918786764144897,-0.592666745185852,-0.2059624046087265,0.3463138937950134,-2.7815299034118652,0.3560800552368164,-0.5689730644226074,1.2077399492263794,0.29949212074279785,0.7234691381454468,1.546480417251587,0.5917795300483704,-0.0027025279123336077,-0.9458610415458679,0.19967299699783325,0.31751421093940735,-0.05633897706866264,-0.23293441534042358,-0.7823386788368225,-1.1183998584747314,3.498366355895996,0.8937601447105408,-0.7138984799385071,-0.5403986573219299,-1.2700482606887817,-0.6080323457717896,-0.487466424703598,1.3176050186157227,-1.9172217845916748,-0.19194763898849487,0.25858524441719055,-0.08124618977308273,-0.48786836862564087,-1.3345448970794678,-0.5421400666236877,0.16266882419586182,0.5412974953651428,-0.02145715430378914,-1.0271953344345093,-0.30054742097854614,0.42921605706214905,-0.3736259639263153,-0.5385212302207947,-0.9240821003913879,-0.12117308378219604,-0.057216111570596695,-2.5143754482269287,-0.3555136024951935,2.675424575805664,-0.6206214427947998,-0.1215537041425705,0.7451848983764648,-1.2049798965454102,-0.8606804013252258,0.9778851270675659,-0.364055335521698,0.36304739117622375,0.7960185408592224,-0.6005678772926331,1.4661492109298706,-1.7050795555114746,-1.0548144578933716,-1.035922884941101,0.048468735069036484,1.7672837972640991,0.33680397272109985,-0.30888375639915466,1.019108533859253,0.42911872267723083,-1.2997522354125977,-1.2338571548461914,-1.1957290172576904,0.8667436242103577,0.26330992579460144,-1.9731614589691162,0.2724100351333618,-0.07552357017993927,-0.23909831047058105,1.8400139808654785,-0.5438066124916077,-2.4346508979797363,1.0221331119537354,-1.2881040573120117,1.7090569734573364,1.1125402450561523,-0.0005250865942798555,0.8514912128448486,-0.10845404118299484,-2.417961597442627,-1.4478719234466553,0.316730797290802,-0.016001762822270393,1.213757038116455,-0.3979575037956238,-1.2037588357925415,0.2118951976299286,-0.255418062210083,0.2099262773990631,0.8931729197502136,-0.39015641808509827,-0.005673238076269627,-0.022598017007112503,0.06234629452228546,0.3088065981864929,-2.0228967666625977,-0.11683525145053864,-1.695085048675537,0.5920878052711487,2.2437095642089844,-2.2233049869537354,0.8179959654808044,1.0947068929672241,0.7496671676635742,-1.3790614604949951,-0.3120191693305969,-0.16647489368915558,-1.2935338020324707,-0.2637202739715576,-1.0145769119262695,0.5952153205871582,0.6769989132881165,-0.3510446846485138,0.0332728810608387,-1.4736108779907227,-2.062030792236328,-0.6157229542732239,-0.4258647561073303,-0.3322257101535797,-0.09423083811998367,0.5509895086288452,1.1713569164276123,-1.2349032163619995,0.5645933151245117,1.1603575944900513,-1.0421539545059204,-0.6807507276535034,-0.21490778028964996,-0.5691773891448975,-2.5171520709991455,0.01232160720974207,1.448476791381836,0.7880088686943054,0.6017559766769409,0.7926042079925537,1.672834873199463,-0.7343456149101257,1.4481239318847656,1.0375300645828247,0.06285451352596283,-1.7414069175720215,-0.8180599808692932,-0.6676859259605408,1.8941527605056763,0.8828756809234619,-0.9999447464942932,1.5364079475402832,0.170546293258667,-0.7815624475479126,-0.3566345274448395,1.4558054208755493,1.216058611869812,2.7704169750213623,2.6064515113830566,0.9673418998718262,1.9279539585113525,1.1412900686264038,-1.4987998008728027,-1.2381207942962646,1.0393879413604736,2.768845558166504,-1.2800860404968262,0.22657376527786255,0.23205696046352386,1.4953279495239258,-2.141890048980713,0.0889510065317154,-0.5766124129295349,0.7119574546813965,0.9389322996139526,0.8769469857215881,-0.46869444847106934,-0.1642318069934845,-0.3849984109401703,0.1585470288991928,-0.28349626064300537,-1.1912709474563599,-0.25403323769569397,1.002739429473877,0.16432729363441467,2.6400556564331055,-0.7016092538833618,-0.6797887682914734,1.6032077074050903,-0.4181741178035736,-2.1579294204711914,-0.6212545037269592,-0.4954051971435547,0.41203227639198303,-0.7201294898986816,-0.9647447466850281,0.8244780898094177,-0.1528034508228302,-0.7434321641921997,-0.5614266991615295,0.30052629113197327,0.028394093737006187,0.8998028635978699,0.6981313824653625,-0.21692264080047607,-0.9255496859550476,-0.9755726456642151,-1.533502459526062,1.513224720954895,0.9323514103889465,-0.07834949344396591,0.05558571219444275,-0.38615697622299194,1.3607001304626465,-0.5367183685302734,-0.8638311624526978,0.0360390767455101,-0.623586893081665,0.9409671425819397,-0.6117973327636719,0.15932877361774445,1.1059086322784424,-0.5645569562911987,-0.2776239514350891,-0.3727891445159912,0.045659732073545456,-0.6861369609832764,2.0636332035064697,1.2068549394607544,-1.8066389560699463,0.30061668157577515,-0.6931208968162537,-1.1356123685836792,1.623885154724121,1.3265217542648315,1.3593015670776367,0.5914513468742371,-0.7010499238967896,-1.2631473541259766,-0.316731333732605,-0.4666788578033447,-0.23244808614253998,0.28923386335372925,1.5178372859954834,2.6957449913024902,-0.9788694977760315,-0.18315395712852478,1.7316322326660156,-0.9828528165817261,-1.261171579360962,-0.21945136785507202,-1.1892324686050415,-0.29666680097579956,1.0510692596435547,0.6470528244972229,-0.3371134102344513,0.22331997752189636,0.3068852424621582,0.6066917777061462,-0.6219637989997864,1.146317958831787,1.3685272932052612,1.0066378116607666,0.4302573800086975,0.6889275908470154,-0.5570762753486633,1.0024349689483643,1.5255075693130493,-0.9441359639167786,0.07446876913309097,1.3973305225372314,-0.9997050166130066,-0.538268506526947,1.0140875577926636,0.9295154809951782,1.1003084182739258,0.7847521305084229,2.0927352905273438,0.9307633638381958,3.5484132766723633,-0.6229666471481323,-1.8670086860656738,2.7217211723327637,1.125954508781433,-1.525659203529358,0.5603720545768738,0.5521474480628967,1.0943437814712524,-0.19698649644851685,-0.17401057481765747,0.38523367047309875,-0.7325757741928101,0.9234606623649597,-1.0274354219436646,1.2349430322647095,0.807896077632904,0.48870182037353516,0.6524800658226013,1.2401468753814697,-1.8840652704238892,-1.9241762161254883,1.10813307762146,0.1836017370223999,0.7092241644859314,-0.3006290793418884,0.05956891551613808,1.7513235807418823,-0.28122469782829285,-2.523149251937866,1.5110777616500854,-2.4883317947387695,-0.908420205116272,0.16160452365875244,-1.0902771949768066,2.7491753101348877,-1.423308253288269,-1.1749465465545654,0.5303716659545898,-0.0582253523170948,0.744431734085083,2.3518285751342773,1.0069369077682495,0.9724015593528748,0.7598101496696472,-1.661881446838379,0.2150416374206543,1.662618637084961,0.265226811170578,2.1232588291168213,-0.2859445810317993,-1.732216715812683,0.44098731875419617,0.6816896796226501,-0.06217344477772713,1.202645182609558,0.6560038328170776,0.3777964115142822,-0.0634511411190033,-0.4699505567550659,-0.08900967985391617,-3.5384421348571777,1.7702581882476807,-0.10468738526105881,-0.15221866965293884,-0.42820969223976135,2.042356491088867,0.5520201921463013,-2.508479118347168,-0.8807216882705688,-0.991609513759613,-0.4656127095222473,-0.3844534456729889,-0.042010266333818436,1.0784355401992798,0.2301284223794937,1.7419836521148682,0.2045581042766571,-1.1966774463653564,1.020369529724121,-0.6224601864814758,-1.8590761423110962,-2.2163443565368652,-1.1346458196640015,1.1661957502365112,-0.26434290409088135,-0.23172955214977264,1.1670821905136108,1.4877512454986572,1.2029041051864624,1.2173073291778564,-1.1083050966262817,-0.8370418548583984,0.3896384835243225,-1.5313541889190674,0.3088025450706482,2.4412171840667725,1.208795428276062,-1.4432541131973267,1.0742177963256836,-1.240751028060913,-2.4713590145111084,0.11588681489229202,0.7144235968589783,1.0904581546783447,0.5931519865989685,-1.8976929187774658,0.31104129552841187,1.0985548496246338,1.4038596153259277,1.3750133514404297,1.0056047439575195,0.3393724262714386,1.2443232536315918,0.9232505559921265,0.6509936451911926,-1.7052011489868164,-0.46997442841529846,-0.9973722696304321,-0.6405457258224487,0.8381984829902649,-0.31082892417907715,0.23732271790504456,0.9100563526153564,-0.21001246571540833,-1.3039741516113281,-0.15476231276988983,0.28583553433418274,-0.21933408081531525,0.41734468936920166,0.5686213970184326,3.023435354232788,0.15198595821857452,-0.23007899522781372,0.46561482548713684,-1.5687395334243774,-0.09327588975429535,-0.5440951585769653,-2.694488048553467,-0.09603939950466156,0.3069942891597748,1.7179657220840454,3.0942015647888184,0.22390930354595184,0.17714309692382812,0.23806093633174896,-1.6017632484436035,-1.0781112909317017,-0.5204929709434509,0.10752427577972412,0.0819350853562355,0.27543583512306213,-0.4160471260547638,1.4494953155517578,0.8533263206481934,-1.360085368156433,0.10335137695074081,0.11935482174158096,-0.018015941604971886,1.849118709564209,1.5142266750335693,-0.01960695907473564,-0.5277265310287476,-2.3008368015289307,0.4225129783153534,2.7240865230560303,-0.12415269762277603,0.127416729927063,-0.14573431015014648,-0.6981232762336731,0.7091031670570374,-0.033796217292547226,0.2189144343137741,-0.24429714679718018,0.15604980289936066,2.6680126190185547,-0.12308718264102936,2.717911720275879,0.12105502188205719,-0.9528850317001343,2.031336784362793,-0.35366737842559814,-0.045327022671699524,-0.3164243996143341,1.605724811553955,-0.376109778881073,0.15076521039009094,0.945794939994812,-0.41636407375335693,0.1392342895269394,-1.9253476858139038,-0.4728868305683136,-0.7236209511756897,-0.32944267988204956,1.121616005897522,-0.040994834154844284,-0.6660733222961426,1.5863546133041382,0.9898152947425842,-1.0286192893981934,-1.2077653408050537,-1.9063931703567505,0.11120136082172394,-0.29274982213974,-1.3467439413070679,1.6392371654510498,1.4623805284500122,-0.4732275903224945,1.9070372581481934,0.03086967207491398,-2.1988306045532227,0.30118000507354736,-1.6392022371292114,1.0114054679870605,0.8793549537658691,-0.3597226142883301,0.23828308284282684,0.5363034605979919,-2.1068193912506104,-0.6022394895553589,0.5077828168869019,0.5342874526977539,0.8572608828544617,-0.7146933078765869,-2.0535998344421387,-0.4543437063694,-0.15996938943862915,-0.06907296180725098,2.361032485961914,-0.6053569912910461,0.7854620218276978,0.33319613337516785,0.21870480477809906,0.008052428252995014,-1.2930185794830322,0.08484334498643875,-2.145400285720825,-1.072031021118164,1.886792778968811,-1.6147840023040771,0.029777761548757553,0.7528781294822693,0.36160901188850403,-1.139307975769043,-1.6870996952056885,0.8415905833244324]},"inputHidden":{"rows":20,"columns":20,"weights":[-0.4598473012447357,0.635793924331665,-0.318494975566864,-1.3648182153701782,0.8492314219474792,0.6703280210494995,1.3572983741760254,1.107946753501892,-0.34648582339286804,-0.12805645167827606,-1.2609065771102905,0.9181598424911499,0.5826645493507385,2.4816884994506836,-0.6412809491157532,-1.406294345855713,-0.9266101121902466,0.36276838183403015,0.46505483984947205,0.47709622979164124,-1.6699564456939697,-0.19538402557373047,1.6263498067855835,-0.952496349811554,1.5542352199554443,-0.2972068190574646,-0.8534348011016846,-0.40143197774887085,-1.536110758781433,-0.6498417854309082,-0.426241397857666,0.5643643140792847,0.2701639235019684,1.445529580116272,-0.2761179208755493,2.148608684539795,0.3595984876155853,-0.5186855792999268,-0.21251173317432404,0.3274010717868805,1.5338964462280273,1.1723873615264893,-0.23518624901771545,-0.3083120286464691,1.242138147354126,0.3120708465576172,1.0204887390136719,0.3252273201942444,1.3187850713729858,0.4421588182449341,0.4740002155303955,-0.4497532546520233,-0.2670844495296478,0.786133348941803,-0.5484750866889954,0.5898316502571106,-0.5033664703369141,0.323142945766449,0.7146947383880615,0.5144964456558228,0.6535900235176086,0.7137499451637268,1.138834834098816,-0.5166249871253967,-0.37858179211616516,-0.5999942421913147,0.4100150465965271,0.03998396918177605,0.6966623663902283,0.2025403082370758,0.6023146510124207,-1.019679069519043,-0.5099549293518066,-0.9983153939247131,-0.32846930623054504,-0.7295612096786499,-0.9390209317207336,-1.1816465854644775,-0.1989763230085373,0.44319435954093933,-0.2574537396430969,-0.4935184121131897,1.324439525604248,0.4215785562992096,-0.07734192162752151,0.2936207354068756,0.175935760140419,-1.7955771684646606,-0.022060062736272812,1.6292277574539185,0.35267582535743713,-0.9850127696990967,-0.016055166721343994,-0.8751188516616821,0.7564007639884949,0.06948401778936386,0.8543854355812073,-1.0638858079910278,-1.0725104808807373,0.5529003143310547,0.7987200021743774,1.1076300144195557,-2.1316516399383545,-1.2170549631118774,-0.6431151628494263,-1.0822296142578125,0.5610700845718384,-0.08540429174900055,-0.09418965876102448,-0.011803821660578251,0.034211739897727966,0.12462449818849564,-0.23800639808177948,-1.0987497568130493,2.169055461883545,-0.15672706067562103,-1.2337429523468018,-0.1915259212255478,0.9764645099639893,-0.6871734857559204,1.4227404594421387,-0.2741144597530365,-1.4054077863693237,-1.1044363975524902,-1.1721659898757935,-0.8404331207275391,0.1644120216369629,0.9002106189727783,1.880811095237732,-0.3011011779308319,0.7563015818595886,-0.42228665947914124,-1.1918776035308838,0.11418093740940094,0.2842962145805359,0.47051188349723816,0.5718945860862732,-0.5274514555931091,1.6677136421203613,-0.1354440301656723,2.31886625289917,2.0194337368011475,-1.3215218782424927,-1.7608870267868042,1.031899333000183,-0.19675207138061523,1.4232770204544067,0.535807192325592,1.8123645782470703,0.8906533122062683,-0.26149240136146545,-0.03183126449584961,0.392620712518692,0.34046098589897156,-0.42205873131752014,-1.2325584888458252,-0.15158291161060333,0.06432054191827774,1.9844728708267212,-0.09480892866849899,0.5679959654808044,0.08599568903446198,-0.5539992451667786,0.005067673046141863,-0.781744658946991,0.21039119362831116,0.14594273269176483,0.20019498467445374,-0.7299474477767944,0.6766151785850525,-0.39925357699394226,0.15516303479671478,1.2207233905792236,0.0043451194651424885,0.8538123369216919,-0.5067804455757141,-0.4637647867202759,-0.39311647415161133,0.3174087107181549,0.47518596053123474,-0.14170511066913605,-1.5835658311843872,-0.2565293312072754,1.1011549234390259,-0.904002845287323,0.17588584125041962,-0.8645793199539185,0.24233095347881317,-0.0008229215163737535,0.1600833535194397,-0.31362184882164,-0.08744866400957108,-0.5445942282676697,-1.2259294986724854,0.19756799936294556,-0.13732144236564636,-0.42194822430610657,0.3775841295719147,-0.29814475774765015,-0.0302976593375206,-2.0633487701416016,-1.109035849571228,-0.1619168221950531,1.4792523384094238,-0.9825050830841064,0.20328815281391144,0.0015909906942397356,-1.2579292058944702,-3.652048110961914,1.5074055194854736,-2.005621910095215,1.5121432542800903,2.1421847343444824,-1.216813325881958,0.9319450855255127,-0.22497956454753876,-0.5096758008003235,-0.48128682374954224,-1.5010614395141602,1.4609836339950562,-0.7220427989959717,-1.3290787935256958,0.6599395871162415,0.4827166795730591,-0.33023130893707275,0.14889495074748993,-2.335125684738159,0.04727885127067566,0.5914823412895203,0.38687193393707275,0.2683646082878113,