{"type":"LSTM","options":{"inputSize":59,"inputRange":59,"hiddenLayers":[20,20],"outputSize":59,"decayRate":0.999,"smoothEps":1e-8,"regc":0.000001,"clipval":5,"maxPredictionLength":100,"dataFormatter":{"indexTable":{"A":0,"a":1,"m":2,"o":3,"n":4,"b":5,"d":6,"p":7,"l":8,"y":9,"e":10,"z":11,"t":12,"h":13,"i":14,"u":15,"r":16,"x":17,"s":18,"c":19,"g":20," ":21,"M":22,"H":23,"k":24,"v":25,"q":26,"f":27,"D":28,"B":29,"R":30,"j":31,"ū":32,"C":33,"K":34,"P":35,"-":36,"S":37,"E":38,"I":39,"F":40,"G":41,"L":42,"J":43,"İ":44,"N":45,"O":46,"Ö":47,"ö":48,"T":49,"Q":50,"í":51,"U":52,"V":53,"W":54,"X":55,"Y":56,"Z":57,"unrecognized":58},"characterTable":{"0":"A","1":"a","2":"m","3":"o","4":"n","5":"b","6":"d","7":"p","8":"l","9":"y","10":"e","11":"z","12":"t","13":"h","14":"i","15":"u","16":"r","17":"x","18":"s","19":"c","20":"g","21":" ","22":"M","23":"H","24":"k","25":"v","26":"q","27":"f","28":"D","29":"B","30":"R","31":"j","32":"ū","33":"C","34":"K","35":"P","36":"-","37":"S","38":"E","39":"I","40":"F","41":"G","42":"L","43":"J","44":"İ","45":"N","46":"O","47":"Ö","48":"ö","49":"T","50":"Q","51":"í","52":"U","53":"V","54":"W","55":"X","56":"Y","57":"Z","58":null},"values":["Aamon","Amon","Abaddon","Apollyon","Abezethibou","Abraxas","Abyzou","Achlys","Adrammelech","Aeshma","Agaliarept","Agrat bat Mahlat","Agares","Agiel","Ahriman","Angra Mainyu","Aim","Haborym","Aka Manah","Akem Manah","Akoman","Akvan","Akuma","Al Ana","Ala","Alal","Alastor","Alloces","Allocer","Allu","Amaymon","Amdusias","Amy","Anammelech","Anathan","Anqa","Ancitif","Andhaka","Andras","Andrealphus","Andromalius","Anti","Antichrist","Anzu","Apaosha","Apep or Apophis","Armaros","Archon","Arunasura","Asag","Asakku","Asb","Asmodai","Asmodeus","Astaroth","Asura","Azazel","Azaz","Azi Dahaka","Dahak","Baal","Bael","Babi ngepet","Bakasura","Baku","Balam","Balberith","Bali Raj","Banshee","Baphomet","Barbas","Barbatos","Barong","Bathin","Mathim","Bathym","Marthim","Beelzebub","Belial","Beleth","Belphegor","Berith","Beherit","Bhūta","Bifrons","Boruta","Botis","Buer","Bukavac","Bune","Bushyasta","Caim","Camio","Charun","Chemosh","Choronzon","Chort","Cimejes","Kimaris","Cimeies","Corson","Crocell","Procell","Daeva","Dagon","Dajjal","Dantalion","Danjal","Decarabia","Demiurge","Demogorgon","Dev","Devil","Div-e Sepid","Djall","Drekavac","Dzoavits","Eblis","Iblis","Ibris","Eligos","Eisheth","Erlik","Focalor","Foras","Forcas","Forras","Forneus","Furcas","Forcas","Furfur","Gaap","Gader","Gadulta","Gaf","Gaki","Gamigin","Ghaddar","Ghoul","Giu","Glasya-Labolas","Caacrinolaas","Caassimolar","Classyalabolas","Glassia-labolis","Gorgon","Gremory","Gomory","Grigori","Gualichu","Guayota","Gusion","Gusoin","Gusoyn","Haagenti","Hag","Halphas","Malthus","Haures","Flauros","Flavros","Hauras","Havres","Hinn","Ifrit","Incubus","Ipos","Ipes","Jinn","Jikininki","Kali","Kabandha","Kabhanda","Kara İye","Kasadya","Kokabiel","Kore","Kroni","Krampus","Krun","Killakee Cat","Kukudh","Kulshedra","Kumbhakarna","Lamia","Latabi","Legion","Lechies","Leonard","Leyak","Lempo","Leraje","Leraie","Leviathan","Lili","Lilin","Lilim","Lilith","Ljubi","Lucifer","Lucifuge Rofocale","Mag","Marid","Malphas","Mammon","Mara","Maricha","Marax","Morax","Foraii","Marchosias","Mastema","Mazoku","Mephistopheles","Merihem","Moloch","Murmur","Naamah","Naberius","Cerbere","Naberus","Nalai","Ninurta","Niuli","Namtar","Nar as-samum","Oni","Onoskelis","Orcus","Orias","Oriax","Orobas","Ose","Ördög","O Tokata","Paimon","Pazuzu","Pelesit","Phenex","Penemue","Pithius","Pocong","Pontianak","Preta","Pruflas","Puloman","Qin","Rahab","Raum","Ronove","Rusalka","Rakshasa","Rangda","Ruha","Saleos","Samael","Salpsan","Satan","Satanachia","Scylla","Set","Seir","Semyaza","Shax","Chax","Shaitan","Shedim","Shdum","Sitri","Sthenno","Stihi","Stolas","Solas","Suanggi","Succubus","Surgat","Sut","Shinigami","Shuten Doji","Tannin","El Tío","Tengu","Titivillus","Toyol","Tuchulcha","Ukobach","Ur","Valac","Valefar","Malaphar","Malephar","Vanth","Vapula","Vassago","Vepar","Vine","Wechuge","Xaphan","Yeqon","Zabaniyya","Zagan","Zahreil","Zartai","Zartanai","Zepar","Ziminiar","Heva","Heva"],"characters":["A","a","m","o","n","b","d","p","l","y","e","z","t","h","i","u","r","x","s","c","g"," ","M","H","k","v","q","f","D","B","R","j","ū","C","K","P","-","S","E","I","F","G","L","J","İ","N","O","Ö","ö","T","Q","í","U","V","W","X","Y","Z","unrecognized"],"specialIndexes":[58]}},"trainOpts":{"iterations":1500,"errorThresh":0.4,"logPeriod":10,"learningRate":0.01,"callbackPeriod":10,"timeout":"Infinity"},"input":{"rows":60,"columns":59,"weights":[-1.8514877557754517,-0.663190484046936,0.047352828085422516,0.8291006684303284,2.200058698654175,1.1910518407821655,1.2895756959915161,-0.274554044008255,-0.06011561304330826,-0.7917838096618652,-0.2612123489379883,-0.033925268799066544,0.15143124759197235,0.4758376181125641,-0.5767935514450073,-0.28109675645828247,3.005568504333496,0.5229372382164001,-1.2782138586044312,-0.0710509717464447,2.9653491973876953,-0.02500077523291111,-0.24218276143074036,0.5652990937232971,-0.9432197213172913,-0.21094506978988647,1.7643773555755615,2.598731279373169,0.17719753086566925,-0.20399291813373566,-0.21436746418476105,1.888254165649414,-0.5855488777160645,0.28007739782333374,-0.049824297428131104,-0.9794806838035583,1.2884769439697266,0.04191833361983299,-0.7484083771705627,-0.13016436994075775,-1.2359881401062012,0.018252365291118622,0.763436496257782,1.915766716003418,-1.5133955478668213,0.6631390452384949,0.616355836391449,-0.34293708205223083,1.942421555519104,-0.7525691390037537,0.25661444664001465,-1.2617636919021606,0.5546391606330872,1.4415618181228638,-0.4608193635940552,-2.6101434230804443,0.2602812647819519,0.443434476852417,0.5182743668556213,-3.172999382019043,6.03309440612793,7.143988132476807,3.207542896270752,-5.951447010040283,2.1818044185638428,2.791454553604126,2.2521770000457764,-7.462997913360596,0.83765709400177,-7.416184425354004,-5.6132025718688965,5.509309768676758,5.938322067260742,-3.8175206184387207,6.498194694519043,1.4486228227615356,4.152043342590332,-2.451279878616333,2.927002191543579,2.2298943996429443,2.0590407848358154,-2.8272738456726074,3.0474319458007812,-7.327367782592773,-4.726003646850586,-0.32679522037506104,1.6661814451217651,6.991153717041016,4.173261642456055,5.065672874450684,-0.20300844311714172,-3.9844706058502197,5.037984371185303,-5.447221755981445,-4.957529544830322,-7.005178928375244,-6.734714508056641,1.1519709825515747,-2.5639986991882324,-7.117600917816162,0.38915881514549255,2.960911750793457,2.312574863433838,-1.710658311843872,6.483207702636719,4.5599141120910645,5.623520851135254,3.9504714012145996,-0.23320092260837555,4.1733078956604,-2.069798231124878,4.337729454040527,4.053411960601807,3.002673864364624,5.086721897125244,3.1455647945404053,-4.757686614990234,-6.8085103034973145,2.5147249698638916,3.9248838424682617,1.3119817972183228,-3.062598705291748,-2.5910818576812744,-0.09041688591241837,-1.8823437690734863,2.0151898860931396,-2.7297918796539307,-1.9544107913970947,0.628623902797699,-3.4325926303863525,0.4912031292915344,-2.395555019378662,2.8365681171417236,-0.24678835272789001,-2.065187931060791,-0.6012518405914307,0.1395348757505417,0.7536337971687317,-2.5046823024749756,0.8966332077980042,0.10827597975730896,2.184929609298706,-2.298785448074341,3.2625110149383545,-0.28476881980895996,-2.1361045837402344,1.8411405086517334,1.1073957681655884,0.20212405920028687,-2.0252742767333984,3.9009311199188232,3.9169719219207764,-0.5444777011871338,-0.7397559285163879,-1.1868139505386353,-1.4947009086608887,-0.8118813633918762,1.5189483165740967,-3.4517719745635986,-1.4020626544952393,-4.054051399230957,-3.4082155227661133,1.490385890007019,0.1220695748925209,-0.5630785822868347,-1.66184663772583,0.6507754325866699,-3.523308038711548,-2.2706551551818848,0.7452366352081299,-3.4363088607788086,-2.9575650691986084,3.017205238342285,1.2775808572769165,-0.13471637666225433,-0.8956223726272583,-0.9775435924530029,-9.532713890075684,-4.561309814453125,-2.2863340377807617,-1.100469946861267,-0.9552745819091797,-2.234905242919922,10.854379653930664,5.645954608917236,-4.556448459625244,1.0617433786392212,1.1477006673812866,2.243339776992798,-0.8463984727859497,-1.995121717453003,1.9576719999313354,0.2709428668022156,9.004032135009766,3.2363853454589844,-0.1331152766942978,7.145554065704346,-0.9201472997665405,3.9029364585876465,2.276801586151123,2.3632559776306152,0.10945913195610046,4.552535057067871,-3.112177610397339,5.460219860076904,5.541304111480713,5.746372222900391,-0.39195385575294495,6.932482719421387,0.8113738298416138,0.5380229353904724,-3.2689707279205322,-5.445361614227295,0.15477025508880615,-4.059990882873535,-2.698044538497925,-7.484094142913818,-2.4636142253875732,5.266443729400635,-0.6168392300605774,-1.6165060997009277,-7.0190749168396,-2.908306360244751,1.1573965549468994,-2.2075719833374023,11.03332805633545,3.6074631214141846,-2.368633985519409,-0.33495035767555237,-1.6879024505615234,-2.9350595474243164,6.803924560546875,-3.8049235343933105,-0.133352592587471,-1.4280167818069458,4.258839130401611,5.2158637046813965,0.2672651708126068,-0.12867888808250427,0.4867122769355774,0.6532652974128723,-1.2056798934936523,-4.332952499389648,0.5397133231163025,-3.9441475868225098,2.3646013736724854,-1.366683006286621,-1.9132657051086426,2.8785080909729004,1.841057300567627,4.528222560882568,2.7382874488830566,-6.471670627593994,-5.9504804611206055,1.9450126886367798,-4.0792694091796875,-3.643522024154663,-3.0353269577026367,1.0117802619934082,-4.161186218261719,-1.0442429780960083,0.3110602796077728,-2.0361223220825195,-2.169586181640625,-0.038357023149728775,-1.179136037826538,1.44179368019104,-2.621380090713501,-1.7442224025726318,-2.745333671569824,2.669872283935547,4.4331817626953125,-3.450361967086792,-5.120831489562988,4.707708835601807,1.0468477010726929,1.9872450828552246,4.239299774169922,-3.579235792160034,-2.1288368701934814,3.589628219604492,-2.6963086128234863,1.9871516227722168,4.729142189025879,-6.251941204071045,0.024777187034487724,-1.6169954538345337,-2.418402671813965,1.1113032102584839,-1.19986093044281,-1.370903730392456,3.3958165645599365,-2.4584884643554688,2.3624277114868164,2.2279014587402344,-0.08713904768228531,0.9990977644920349,3.6219489574432373,3.965878486633301,2.230635404586792,0.26510775089263916,0.3269004821777344,3.5177135467529297,-4.509562969207764,3.439878225326538,0.36108535528182983,-0.7517015933990479,1.651200294494629,2.1487395763397217,-2.9262189865112305,1.0930312871932983,0.7474533319473267,0.516872763633728,-1.0387214422225952,-3.9666244983673096,1.0581377744674683,0.27007243037223816,-0.19446365535259247,2.7365403175354004,-4.021982192993164,-1.1864838600158691,-0.1670641005039215,0.5326084494590759,0.7543121576309204,-3.6805193424224854,1.7620817422866821,-0.49841177463531494,-0.857336163520813,-0.17723198235034943,-0.33843955397605896,0.28014475107192993,-3.4432032108306885,-6.566691875457764,1.3418831825256348,-1.298547625541687,-4.2337775230407715,2.657909631729126,1.8258918523788452,-0.2309509813785553,-0.4827800393104553,0.7094287276268005,-0.4345185458660126,5.017879962921143,0.554709792137146,-1.3289625644683838,1.3756403923034668,-3.5464041233062744,1.3249818086624146,1.6621959209442139,4.579713821411133,-1.678539752960205,-2.0817623138427734,-0.8962851166725159,0.37599658966064453,-2.1177756786346436,1.756316065788269,-0.2857414484024048,4.324766159057617,5.618300914764404,7.484986782073975,1.1025665998458862,1.4767887592315674,4.316060543060303,1.6543505191802979,-5.9373602867126465,3.867899179458618,2.104137897491455,6.421080589294434,0.04644802585244179,1.590284824371338,3.1565756797790527,6.737913131713867,-5.188122272491455,5.0564680099487305,-1.8395174741744995,3.366006374359131,-10.58704662322998,1.6190438270568848,-1.4808564186096191,-3.328530788421631,2.7092063426971436,3.664400339126587,-1.5043351650238037,-0.8080799579620361,1.2048224210739136,3.5932679176330566,-10.630505561828613,2.608956813812256,-7.864730358123779,0.5019078850746155,-0.7449213266372681,1.2564336061477661,1.5711467266082764,-0.4886218309402466,-1.0650622844696045,1.6546200513839722,6.56682825088501,2.4071662425994873,-0.5245078206062317,6.222890377044678,-0.874748945236206,6.672658920288086,0.2864808440208435,-1.5003050565719604,6.5229716300964355,-1.6533787250518799,5.992008686065674,6.021239757537842,2.337245464324951,-3.4748923778533936,2.010683536529541,-4.585155963897705,-0.8348193764686584,-6.716831207275391,6.075928211212158,-12.467726707458496,2.3383758068084717,-4.3311333656311035,-2.323143720626831,2.41732120513916,-13.875284194946289,5.604886054992676,-1.0965113639831543,-1.2507110834121704,4.268270492553711,-10.856742858886719,4.426286697387695,-2.6749656200408936,2.901190757751465,7.442890644073486,-2.78764009475708,5.597526550292969,-3.142381191253662,-1.0082577466964722,-3.4039034843444824,2.491953134536743,-15.375927925109863,-7.8959479331970215,-5.80855131149292,2.337712287902832,5.6568450927734375,4.659389972686768,1.1320207118988037,-2.088538408279419,1.6260706186294556,-0.37728673219680786,-6.4317946434021,-8.662699699401855,-6.283877372741699,10.15739631652832,5.538793087005615,-8.432295799255371,-8.43256664276123,8.22360610961914,-0.2783861756324768,-3.0496044158935547,4.124156475067139,1.5926450490951538,2.5049166679382324,-3.669001579284668,1.4018715620040894,-2.3148984909057617,9.136578559875488,4.127544403076172,2.0770490169525146,4.4837327003479,7.256145000457764,-14.306535720825195,-1.4149169921875,2.8263556957244873,-5.63997745513916,12.415393829345703,12.919530868530273,8.27253246307373,2.3615894317626953,-1.671476125717163,-0.8512094020843506,1.4458855390548706,-10.24348258972168,7.461470127105713,-9.497851371765137,1.793799877166748,-6.24383544921875,-5.893689155578613,10.191459655761719,1.987133502960205,1.8792846202850342,5.015143871307373,-10.602368354797363,4.301506519317627,2.280121326446533,-0.6834635138511658,-6.920747756958008,3.780024290084839,-5.636593818664551,0.941946804523468,-6.65902853012085,-0.09236571192741394,-11.424080848693848,-1.4978420734405518,8.023870468139648,-3.3183395862579346,4.746575355529785,-6.9694294929504395,0.6915358304977417,1.6527869701385498,-3.8878345489501953,-1.1434402465820312,0.08923052996397018,-6.788456439971924,-1.4915597438812256,1.72210693359375,-5.64225959777832,5.690161228179932,-0.8808886408805847,-2.1281001567840576,6.404645919799805,3.0352015495300293,3.741729736328125,5.1865010261535645,1.531182885169983,-1.4675180912017822,2.9469926357269287,-1.094285011291504,-2.005852699279785,5.436517715454102,1.335133671760559,6.1227030754089355,1.3251599073410034,-0.8990111351013184,1.11545991897583,2.8092243671417236,2.93900990486145,-0.32437238097190857,-2.6131882667541504,-0.35884779691696167,-3.2107012271881104,-1.736018419265747,2.4767823219299316,-1.3344279527664185,-8.66876220703125,0.6383529305458069,0.2621692717075348,-2.1651577949523926,-4.382964134216309,1.7398885488510132,1.0205612182617188,-2.2348337173461914,1.0189636945724487,-6.980534553527832,5.968848705291748,-1.1560488939285278,6.552084445953369,-1.5811980962753296,-2.401851177215576,1.9690916538238525,2.3323171138763428,-0.7573912739753723,-2.3840229511260986,1.09422767162323,6.723896026611328,-8.611173629760742,-2.1467223167419434,2.974334716796875,0.32296115159988403,-0.3107278048992157,-1.0995348691940308,-0.9137961268424988,3.725281000137329,-0.0799122229218483,-0.45303472876548767,-1.0359309911727905,-7.839731693267822,-0.8319180607795715,-1.3462108373641968,0.9150760769844055,0.1267162561416626,-8.20859432220459,-4.636542797088623,-0.717237651348114,-3.2542710304260254,2.134608268737793,3.530512809753418,-3.71429443359375,-2.8823294639587402,2.057447671890259,2.3980767726898193,3.2389979362487793,-2.243332624435425,-0.4093737006187439,2.958704948425293,2.7602176666259766,6.585049629211426,1.3540918827056885,-1.6850897073745728,5.275643348693848,0.6744180917739868,7.378976821899414,-5.79841423034668,-0.14815786480903625,-6.075236797332764,0.3131970465183258,1.1085164546966553,2.1136701107025146,0.2326601892709732,7.270134449005127,-0.12646989524364471,1.0724585056304932,0.9755599498748779,0.8921627998352051,-2.498753070831299,7.231942653656006,-5.109139919281006,-0.3351663053035736,-9.494706153869629,1.8266340494155884,-3.811682939529419,1.0162638425827026,4.884711265563965,1.9755109548568726,7.659404754638672,-4.637223720550537,0.9842996001243591,-2.897594928741455,-7.298913955688477,-1.3414154052734375,-7.715978622436523,-0.7623953819274902,-0.6619985103607178,-2.438845634460449,-3.6789748668670654,-0.41566842794418335,1.8770698308944702,-2.4444661140441895,3.272529363632202,6.231506824493408,4.031798839569092,7.419631004333496,-0.7154507637023926,-4.71866512298584,1.8764694929122925,-1.9996012449264526,0.11737394332885742,1.1114134788513184,3.2202653884887695,-0.5810031294822693,3.4130797386169434,-2.5392203330993652,-3.0990688800811768,2.7288496494293213,1.1925292015075684,-0.186578169465065,-3.005955457687378,-2.212851047515869,-0.6828109622001648,-1.7545697689056396,2.29649019241333,1.4597244262695312,-1.4697465896606445,1.7592737674713135,0.47247496247291565,1.3245060443878174,-3.4110159873962402,3.045624256134033,-2.6250479221343994,-2.12837553024292,0.4106719493865967,1.3017897605895996,2.121816396713257,-2.564101219177246,-0.16014058887958527,0.7019442915916443,0.9246199727058411,-2.2165801525115967,3.2099051475524902,0.32764557003974915,-1.788913607597351,-1.238533854484558,0.8559170365333557,-2.859485626220703,-3.743074893951416,2.474879264831543,2.3687334060668945,-1.4693562984466553,4.598036766052246,-2.2703001499176025,1.3114001750946045,0.1836136281490326,4.109063148498535,-1.6634191274642944,-0.11554305255413055,-0.8584396243095398,-1.1404656171798706,4.389797687530518,-1.8714232444763184,-3.3704137802124023,-2.763032913208008,-4.09017276763916,-0.20340034365653992,-1.0126917362213135,2.658511161804199,-3.232696533203125,-3.218780755996704,3.769359827041626,-1.3685932159423828,-0.00037146438262425363,1.6102478504180908,-0.8195603489875793,-23.16109275817871,-8.950359344482422,-5.816465854644775,3.687350034713745,17.820415496826172,1.000753402709961,11.836088180541992,1.5609383583068848,6.337765216827393,-1.4358352422714233,4.563140392303467,7.427284240722656,-7.443824768066406,8.20461368560791,-13.73044204711914,-6.339234828948975,21.7420597076416,13.158531188964844,-3.066265106201172,3.4397833347320557,7.7255048751831055,-8.996769905090332,0.4458279609680176,4.921028137207031,-10.382853507995605,-5.554911136627197,15.566420555114746,15.278936386108398,-1.4466068744659424,-8.934555053710938,2.553680181503296,28.67783546447754,-2.856351137161255,-2.6583874225616455,-1.1648119688034058,4.118765354156494,0.46036121249198914,-8.628046035766602,-2.2484896183013916,-0.010294885374605656,2.5808708667755127,-3.6819584369659424,16.276119232177734,6.796168804168701,-12.91823673248291,6.124842643737793,2.392225742340088,2.2565548419952393,4.475020885467529,5.5734028816223145,0.21725744009017944,1.4395997524261475,7.660350322723389,5.9424519538879395,-0.2683403491973877,-17.35663414001465,-5.822688579559326,0.5312432646751404,6.593664169311523,4.028414249420166,5.9343485832214355,0.8160709142684937,-1.9909213781356812,-7.715200424194336,0.46696844696998596,-3.760505437850952,-1.6902194023132324,-6.895778656005859,-5.962519645690918,1.524094820022583,-6.569995403289795,-0.7652296423912048,4.002114295959473,-2.6573305130004883,2.3905680179595947,-2.572089910507202,1.2366375923156738,-1.1291228532791138,3.08232045173645,0.8196808695793152,-0.351272851228714,-3.4285757541656494,-0.62413090467453,-1.8896815776824951,-3.8502888679504395,4.3570942878723145,-4.1699934005737305,2.5450820922851562,3.3066790103912354,-4.264834880828857,-5.237323760986328,-2.514531135559082,0.14805887639522552,1.2599841356277466,1.7423515319824219,-2.0999791622161865,-3.2315776348114014,2.7818033695220947,1.0794591903686523,-4.139645099639893,-4.073556900024414,0.9316864609718323,-3.240785598754883,3.373469591140747,3.1329495906829834,-4.248839855194092,-1.3953601121902466,-0.2529708445072174,-1.3904056549072266,3.9854681491851807,3.6745450496673584,1.6837996244430542,3.1436309814453125,-0.2851468622684479,1.9094253778457642,3.892216920852661,-4.1664605140686035,-4.914802551269531,6.4220075607299805,6.389290809631348,0.8525151610374451,-1.3107694387435913,1.3194632530212402,-1.0055763721466064,-7.246423244476318,3.0107388496398926,-2.6005699634552,0.9879724383354187,-7.692325115203857,-3.5740838050842285,3.9317638874053955,-1.4092512130737305,1.304387092590332,2.4914655685424805,-3.582580804824829,-0.849026620388031,7.945866107940674,-0.4568328261375427,-5.697328567504883,-3.1915884017944336,0.40947848558425903,0.491929829120636,-7.380471706390381,0.8689132332801819,-0.9570600390434265,-3.4235050678253174,3.2110018730163574,-0.5017899870872498,3.920599937438965,-4.739469528198242,1.7742581367492676,3.4612107276916504,-1.9264901876449585,-3.8609535694122314,-5.889464855194092,-6.894230842590332,0.04291962459683418,0.6020522117614746,-1.5134620666503906,-1.2717349529266357,0.9518789052963257,-3.8972504138946533,2.1147730350494385,0.4261544346809387,7.159581661224365,2.5191311836242676,0.5426451563835144,-2.745795965194702,0.19957564771175385,-4.540266990661621,-1.1530957221984863,-1.3771635293960571,2.37841796875,5.321742534637451,-0.8111091256141663,2.868745803833008,0.7969789505004883,-7.167699337005615,2.28002667427063,-1.073621153831482,6.059244155883789,-0.8038663864135742,1.6400582790374756,7.240807056427002,3.352339506149292,2.7849724292755127,0.8545666337013245,-5.1680450439453125,9.271842956542969,-3.0601816177368164,-2.502540111541748,0.20784486830234528,-0.6105422377586365,7.885251998901367,5.914530277252197,-1.3340167999267578,3.373948097229004,2.6747469902038574,3.5687146186828613,-4.19467306137085,-3.59183406829834,7.438456058502197,-2.3103511333465576,-3.8966617584228516,9.432680130004883,-3.0981457233428955,3.759598731994629,-2.7144556045532227,4.054814338684082,1.2593005895614624,0.761894941329956,-7.191506385803223,-5.300020694732666,2.431471109390259,3.1123554706573486,-4.746632099151611,-1.3194726705551147,3.6578595638275146,-1.8979252576828003,8.791773796081543,3.575939416885376,-3.3907036781311035,4.684874057769775,-2.252578020095825,-2.320538282394409,1.5480502843856812,-3.1965625286102295,0.08698717504739761,0.6404990553855896,-0.7623627781867981,3.70302152633667,-2.102607011795044,-3.5137341022491455,6.097100734710693,-3.827822685241699,1.00277578830719,-7.424184322357178,-2.8933558464050293,-3.4560940265655518,-0.9551397562026978,-5.554773807525635,-0.6948695778846741,8.054499626159668,-5.235100746154785,-2.5889041423797607,-0.14025726914405823,5.259245872497559,6.749929428100586,-5.715425968170166,2.7097487449645996,-2.423785448074341,-5.948574542999268,3.254805088043213,1.6132014989852905,1.4977567195892334,-3.5946578979492188,2.792332887649536,-2.8197569847106934,2.379880428314209,-1.234312891960144,-1.1350704431533813,2.677035331726074,1.4870010614395142,4.495670795440674,-2.275878429412842,1.184242606163025,0.7502487301826477,3.721588373184204,4.730501651763916,-3.35733699798584,-3.0122811794281006,-3.755646228790283,2.5250887870788574,-1.1185129880905151,-1.8778314590454102,-11.026741981506348,0.6416367292404175,5.298862457275391,3.545036554336548,1.4165115356445312,-1.1663565635681152,0.6999146342277527,-1.1015548706054688,-3.9026763439178467,2.630845785140991,9.17518138885498,-3.7887566089630127,1.7777401208877563,0.5989459156990051,-2.6287856101989746,-1.847434163093567,-4.0929059982299805,-4.508851051330566,-2.9685168266296387,5.070496082305908,-2.8189821243286133,0.5502956509590149,-4.050868511199951,-3.013505458831787,0.3716830611228943,-0.8167474865913391,2.7073965072631836,-3.8574860095977783,2.731755018234253,-1.8878227472305298,-0.9359182715415955,-2.0841333866119385,-6.5481719970703125,-2.746195077896118,2.9360711574554443,5.542415142059326,4.360772132873535,-1.2532879114151,2.7457683086395264,2.9360523223876953,3.2435457706451416,1.1854931116104126,1.0384268760681152,-2.396855592727661,-3.8590614795684814,1.5248061418533325,2.985177993774414,2.8529558181762695,2.988424777984619,-0.24631939828395844,-4.1468505859375,3.982611894607544,-0.14424152672290802,-2.3790111541748047,-2.206172227859497,-3.104273557662964,5.461756706237793,1.9317411184310913,-4.073164939880371,2.627042770385742,4.975707054138184,-5.296284198760986,-4.2253336906433105,-1.0833498239517212,0.24822622537612915,-0.3956555128097534,-2.155670166015625,-1.2565982341766357,2.0147252082824707,2.5623698234558105,-0.021774956956505775,0.4982373118400574,-0.6464272141456604,-2.283831834793091,-5.285709857940674,-1.2211265563964844,3.1442172527313232,1.3655989170074463,2.3679275512695312,18.152755737304688,11.25310230255127,10.860512733459473,-5.701076984405518,-7.694721221923828,-12.963994026184082,-4.616302490234375,3.554407835006714,7.077442169189453,6.1086955070495605,-0.7447265982627869,-30.475191116333008,16.93248176574707,-16.203336715698242,21.315502166748047,0.9521246552467346,-14.733282089233398,-16.84625244140625,0.8190069198608398,-4.098738193511963,-17.97743034362793,-11.523387908935547,15.99771785736084,13.726597785949707,9.57461166381836,14.820250511169434,1.3187217712402344,0.44815799593925476,12.749920845031738,-2.1674928665161133,1.016014575958252,-14.000406265258789,20.93795394897461,10.447003364562988,19.961210250854492,24.541942596435547,-5.0310893058776855,15.1249361038208,10.118428230285645,17.0849666595459,-7.073868751525879,12.297601699829102,9.967428207397461,-22.82122230529785,25.41103744506836,11.258536338806152,0.5527001023292542,2.690145492553711,-26.05402946472168,-3.129086971282959,-16.69532585144043,0.3897094130516052,-6.006853103637695,-19.168668746948242,6.233186721801758,10.926505088806152,-4.047260761260986,10.076733589172363,-10.11490535736084,10.25090217590332,0.5435783267021179,0.5387980937957764,1.4649670124053955,-2.918931007385254,-2.1053626537323,-5.079782009124756,-1.9856261014938354,-5.896988868713379,0.20326638221740723,1.090720772743225,1.6790187358856201,0.2611667215824127,2.489838123321533,4.502622127532959,1.1460121870040894,-11.161341667175293,-6.428943634033203,2.5492188930511475,-4.603723526000977,-1.0440809726715088,-2.4825119972229004,1.4779566526412964,-5.717687606811523,1.866064429283142,-2.3056249618530273,-1.3037292957305908,-8.605305671691895,-0.44893571734428406,3.4409255981445312,-2.33498477935791,-0.4607786536216736,-1.6933168172836304,-2.8478543758392334,4.63842248916626,-1.115207314491272,-1.1443108320236206,-1.0740381479263306,-0.3263656497001648,0.8865769505500793,1.8220603466033936,-0.15094171464443207,-3.6296370029449463,-2.6776723861694336,2.229517936706543,-2.259326934814453,-1.781794548034668,3.413332462310791,-4.1376495361328125,0.5982768535614014,-4.043024063110352,3.5710997581481934,2.6976730823516846,-3.7556982040405273,-0.8131653070449829,9.166045188903809,-3.2616097927093506,-1.450659990310669,2.892610549926758,-0.929168701171875,1.7537034749984741,-16.22549057006836,-4.607361316680908,-3.669710874557495,-4.626194953918457,0.07453460246324539,-0.05946106091141701,3.5775773525238037,0.6625726819038391,2.1504337787628174,1.674606204032898,-3.802096366882324,2.8824949264526367,5.811995029449463,-3.026492118835449,-0.06447118520736694,4.675062656402588,-5.145643711090088,1.1256603002548218,-3.946115016937256,-6.3790435791015625,2.800548553466797,-6.6074090003967285,1.8334875106811523,-2.1549017429351807,-2.06744647026062,0.5013318061828613,-7.392754554748535,6.952325344085693,-7.8376078605651855,5.00310754776001,-7.4880900382995605,-13.284050941467285,-3.446359395980835,0.53044593334198,7.2992472648620605,-5.5167083740234375,-0.4061686098575592,-2.3828489780426025,10.4375,3.356086492538452,-2.779728889465332,-6.009270191192627,-4.825227737426758,-2.134005546569824,-10.233440399169922,2.5233664512634277,2.748737096786499,1.551187515258789,4.73213005065918,13.259371757507324,-1.1547483205795288,5.199732303619385,3.0263724327087402,1.1067255735397339,-5.87471342086792,-4.5750627517700195,12.687522888183594,3.394246816635132,-1.6206458806991577,0.2324894219636917,-5.5150017738342285,7.568182945251465,-1.8564106225967407,-2.3115389347076416,-0.6189153790473938,-1.7570675611495972,-9.891857147216797,0.37820136547088623,-1.5160795450210571,-2.153158187866211,-1.0856112241744995,-1.0093368291854858,-2.5237579345703125,-2.0821752548217773,4.446962833404541,-9.664854049682617,9.924376487731934,0.27962321043014526,10.93709945678711,4.619261264801025,2.1050913333892822,0.667098343372345,1.926900029182434,-1.7965598106384277,-3.2500574588775635,-0.4798142611980438,6.598328590393066,-3.4089443683624268,1.669896125793457,-0.8685097694396973,-1.5921305418014526,1.216471552848816,-4.106333255767822,1.107884407043457,0.9327967762947083,-4.502607345581055,-3.6983418464660645,-2.1858386993408203,-11.434550285339355,4.5457940101623535,0.8996187448501587,-2.5573418140411377,1.492817997932434,-3.1981968879699707,-4.669638633728027,3.193981647491455,-1.6465187072753906,1.4037926197052002,6.634565353393555,-0.4231014549732208,0.9566312432289124,-1.4544602632522583,4.226647853851318,9.025750160217285,-3.515347480773926,0.5622671246528625,1.3024827241897583,12.243012428283691,16.639572143554688,9.221696853637695,7.5758056640625,-4.976180076599121,-0.9292613863945007,9.79887866973877,-8.58400821685791,15.677751541137695,-4.142027854919434,0.28442415595054626,9.935515403747559,5.095798492431641,-12.680238723754883,4.608412742614746,6.445769309997559,0.7594605088233948,0.7790301442146301,-5.132837295532227,-4.5701904296875,6.391015529632568,0.23156899213790894,12.534947395324707,-2.9843544960021973,-3.649440288543701,-13.416534423828125,6.332572937011719,10.055261611938477,-4.154820919036865,5.752269268035889,-4.878578186035156,6.201861381530762,8.29897403717041,-5.424901962280273,-3.2583649158477783,-6.245563507080078,-9.626325607299805,4.087401390075684,-6.96099328994751,-8.884363174438477,-0.17746767401695251,11.139046669006348,1.845485806465149,0.2877083718776703,2.5272789001464844,14.839393615722656,8.078712463378906,-2.819443702697754,-13.163827896118164,-6.7654242515563965,-8.79254150390625,1.8840765953063965,0.3652937114238739,10.529104232788086,3.338803291320801,0.31734564900398254,-2.1443495750427246,-8.762177467346191,-6.024972915649414,-3.65035343170166,-3.6985926628112793,5.968081951141357,6.331380844116211,5.018897533416748,4.478938102722168,-3.053985118865967,1.1595652103424072,5.251084327697754,-3.1830873489379883,6.781529426574707,1.5402482748031616,8.74288558959961,-8.524168968200684,2.6002893447875977,7.035744667053223,3.1866908073425293,-1.894835114479065,-1.894893765449524,2.433136463165283,0.3112856149673462,-4.638506889343262,-0.19045093655586243,-0.1972152441740036,-8.005627632141113,1.1178239583969116,7.652105331420898,-1.8847389221191406,-8.267122268676758,2.7985947132110596,2.2572247982025146,-4.202190399169922,-5.658029079437256,-3.1549789905548096,-2.7752881050109863,1.8204143047332764,-0.5604443550109863,-2.6340138912200928,-6.615108489990234,1.7854328155517578,0.24118661880493164,6.009014129638672,3.859882354736328,-6.092526912689209,3.4027624130249023,1.913027048110962,2.7449028491973877,2.3088274002075195,-1.4002041816711426,1.6957507133483887,-2.5470786094665527,6.164280414581299,7.4809441566467285,-2.514734983444214,-2.545999526977539,1.8950166702270508,-3.3086674213409424,0.6970189213752747,0.31449031829833984,-1.329459547996521,-5.420070648193359,-6.037440299987793,-10.337370872497559,-9.483331680297852,-0.8597276210784912,-8.289531707763672,7.521298408508301,-8.796783447265625,12.42883586883545,-10.231636047363281,-6.034275054931641,-0.5353174209594727,2.9822640419006348,-13.054662704467773,-0.900867223739624,-2.0664327144622803,-12.826895713806152,8.589594841003418,-1.8390547037124634,7.155198574066162,7.824079513549805,-7.173581600189209,3.6154708862304688,0.25612178444862366,-8.938875198364258,-1.3267264366149902,-7.501935958862305,12.754769325256348,-9.074718475341797,8.133133888244629,7.924258232116699,-10.335700035095215,9.289169311523438,0.8936530947685242,9.067305564880371,-1.2464712858200073,-8.203187942504883,4.4251813888549805,8.465696334838867,-15.554203033447266,-8.60253620147705,-0.23679155111312866,0.024148225784301758,-10.986818313598633,-3.4614923000335693,-4.310451984405518,11.187740325927734,-3.5503973960876465,-7.4297895431518555,3.7618093490600586,-6.962192535400391,-0.7773300409317017,-8.929899215698242,-6.314255237579346,12.367745399475098,6.109188079833984,10.069348335266113,-4.649040699005127,-5.308289527893066,-2.233947277069092,-0.40922868251800537,-1.0887866020202637,-4.433786392211914,-2.1410701274871826,-0.7260240912437439,8.513076782226562,0.3578120768070221,9.295201301574707,7.616962432861328,-4.368844509124756,-6.307038307189941,-5.54897403717041,-7.0162129402160645,0.8485493063926697,-4.81028938293457,-1.5561214685440063,-1.0846525430679321,-2.1508781909942627,5.254464626312256,4.679696083068848,-8.063982963562012,12.622051239013672,4.68511962890625,-8.565662384033203,4.1598639488220215,-5.473488807678223,6.016071319580078,-0.03003769740462303,0.8964270353317261,4.709962844848633,-6.711869239807129,5.451383590698242,-1.1791160106658936,3.7552614212036133,10.83094596862793,-0.6712530255317688,-11.11874771118164,9.272163391113281,6.183844566345215,-0.4001510739326477,-2.385181427001953,-3.539198637008667,-10.930754661560059,1.5640367269515991,-10.514899253845215,-0.08850134164094925,1.4802823066711426,-0.9288266897201538,-2.5994679927825928,-9.036961555480957,-5.475620746612549,-0.8825723528862,-8.49490737915039,0.42942747473716736,8.952049255371094,5.72636079788208,-5.332325458526611,5.01605749130249,13.091301918029785,8.052403450012207,4.887406826019287,11.96621036529541,6.2104973793029785,-3.070040464401245,-4.467482089996338,6.817200183868408,-4.023242473602295,5.942863941192627,-3.8286473751068115,4.591810703277588,-11.059675216674805,14.351349830627441,5.238463878631592,9.693921089172363,7.307368755340576,-7.523971080780029,3.976987361907959,5.360487461090088,-7.899707317352295,4.69430685043335,-6.574228763580322,-2.4408576488494873,1.006540298461914,4.195857524871826,11.796952247619629,-5.911505699157715,9.911044120788574,1.0979397296905518,-0.744098424911499,10.538551330566406,-5.858090877532959,2.011847734451294,-2.319342851638794,-4.212189674377441,0.23911616206169128,-7.697637557983398,-6.864809036254883,-2.856186628341675,9.182799339294434,5.335768222808838,0.1927299052476883,13.935189247131348,9.231943130493164,3.672609806060791,-1.6056028604507446,1.2495136260986328,4.601268768310547,-13.754463195800781,1.6171575784683228,0.0732683390378952,-0.3512718975543976,6.323707580566406,-6.930333137512207,-6.73635196685791,-7.946105480194092,0.21941977739334106,1.2050734758377075,13.323229789733887,7.897377967834473,7.300201416015625,5.29702091217041,2.1034095287323,14.604268074035645,-11.661231994628906,11.467133522033691,-18.838478088378906,-8.506356239318848,20.08449363708496,4.8535871505737305,-8.037211418151855,19.96143913269043,3.058924674987793,2.314509391784668,14.158441543579102,-10.784173011779785,-0.19477348029613495,9.624248504638672,-0.6691180467605591,27.624555587768555,-14.411642074584961,-4.790299415588379,-9.988391876220703,3.138862133026123,20.971759796142578,-11.96264362335205,19.533851623535156,-16.951740264892578,-6.242124557495117,2.302962064743042,-18.409452438354492,-0.7539805173873901,-13.205220222473145,9.84096622467041,-2.0509209632873535,1.3920708894729614,-21.366270065307617,6.3604302406311035,-9.222672462463379,4.032435417175293,-1.3943796157836914,4.541560173034668,26.028648376464844,16.5454158782959,-3.095700263977051,7.010406494140625,17.550304412841797,-24.551687240600586,5.364660263061523,2.9140098094940186,16.469188690185547,11.791033744812012,-10.905610084533691,-3.3533596992492676,-22.35720443725586,8.047286987304688,14.059953689575195,1.1359797716140747,5.4307332038879395,2.707097291946411,1.5848931074142456,-3.8155314922332764,-3.1206419467926025,-3.6143667697906494,-15.041385650634766,-1.7804642915725708,-11.901124000549316,-8.350859642028809,7.900221347808838,-5.404168605804443,8.335826873779297,-2.870661735534668,2.0909037590026855,-15.733503341674805,13.293466567993164,1.550613522529602,6.318928241729736,-6.992398262023926,-7.50070858001709,-1.064099907875061,-6.602917194366455,5.6375250816345215,-2.6728482246398926,2.919619560241699,1.5601210594177246,-4.678653240203857,6.205939769744873,-7.715508460998535,1.551351547241211,-2.55793833732605,-8.703514099121094,6.721792221069336,-6.8292951583862305,-13.160638809204102,2.7225873470306396,1.2224403619766235,-19.90801429748535,7.555244445800781,-0.7077745199203491,2.895681858062744,2.679870128631592,-5.160247802734375,6.910915851593018,-0.4073026180267334,-5.862934112548828,7.190952777862549,4.479990005493164,4.07005500793457,7.258052349090576,-6.936007499694824,-0.27886876463890076,10.460082054138184,-5.699484825134277,8.352794647216797,-15.535506248474121,5.608112335205078,-3.5725595951080322,7.57257604598999,0.9918484091758728,11.897477149963379,-0.6761534810066223,-11.087390899658203,11.75100040435791,4.701884746551514,-8.642579078674316,-5.026883125305176,-3.6603004932403564,2.2447526454925537,-6.980268955230713,-1.7506517171859741,15.33532428741455,-2.8114993572235107,0.05532163009047508,-8.115206718444824,4.993532657623291,-2.591820478439331,-5.380979061126709,1.0954231023788452,2.113205671310425,3.200718879699707,4.32943058013916,18.12382698059082,-0.5039398074150085,-3.154357671737671,7.050282955169678,18.58712387084961,5.600754737854004,-2.2369513511657715,-15.085552215576172,-25.282344818115234,12.004560470581055,-7.868497371673584,-5.099119186401367,-7.667806625366211,3.0103800296783447,11.706563949584961,7.9001922607421875,14.480565071105957,1.7359133958816528,6.711389541625977,8.25015640258789,4.031573295593262,5.463390827178955,14.112058639526367,-4.253741264343262,-6.572722911834717,7.970306873321533,-3.171126127243042,-11.305822372436523,-24.60955047607422,-0.9910503625869751,12.191410064697266,13.623581886291504,-5.744234561920166,-8.949066162109375,-4.2152419090271,5.554147243499756,-3.592313289642334,1.4685747623443604,6.555840492248535,-10.415614128112793,-3.9120752811431885,-10.852814674377441,1.331154465675354,7.198582172393799,-8.196403503417969,1.8015955686569214,-2.2756268978118896,4.1237640380859375,4.47442102432251,4.928123950958252,-3.462212324142456,4.338700771331787,7.4586968421936035,-0.49863430857658386,-4.877127647399902,-8.326560974121094,2.8769607543945312,-7.700233459472656,5.797256946563721,5.215120792388916,4.296868324279785,2.209254741668701,-1.7361083030700684,8.654154777526855,-7.740733623504639,-3.2684876918792725,1.089045763015747,-2.635831594467163,7.56212854385376,4.821592807769775,-2.1744987964630127,-6.135263919830322,4.636232376098633,13.31779956817627,3.9103751182556152,7.632527828216553,-6.138906478881836,0.8190222978591919,-7.593632221221924,4.148542404174805,3.4619619846343994,3.355624198913574,7.295035362243652,8.692527770996094,8.760831832885742,6.104745388031006,-9.288626670837402,5.076394081115723,2.4064881801605225,-6.793015003204346,7.877148628234863,-17.180105209350586,-6.889081001281738,-6.265809535980225,-3.114428758621216,-2.449742555618286,-2.124547004699707,18.119789123535156,-19.17007827758789,-4.470086574554443,3.442814350128174,3.303494453430176,12.764691352844238,-15.53982162475586,1.4149090051651,2.210343599319458,-2.282200574874878,3.5355782508850098,0.6654713749885559,7.1178507804870605,-7.185361385345459,-4.870966911315918,-14.52435302734375,4.527659893035889,-12.182520866394043,8.111281394958496,-4.512596607208252,16.274555206298828,6.111300945281982,4.802677631378174,5.551125526428223,-7.173849582672119,18.115304946899414,-2.629173755645752,-4.800736904144287,-0.20467159152030945,1.64279043674469,17.52273178100586,4.794292449951172,-5.542093753814697,-11.20278549194336,9.057488441467285,10.170628547668457,0.8436625003814697,16.942777633666992,-6.356727600097656,-5.946110725402832,-4.140442371368408,-5.530304908752441,0.13689009845256805,17.078813552856445,4.882946968078613,6.733494758605957,2.537734270095825,-1.3484089374542236,-18.167638778686523,-6.52329683303833,5.443429946899414,1.3004112243652344,0.3206633925437927,-14.879691123962402,-24.343036651611328,4.249375820159912,15.33866024017334,23.59717559814453,11.012723922729492,15.127235412597656,-14.494908332824707,16.953458786010742,7.668252944946289,-10.396768569946289,7.875120162963867,-0.7739356160163879,8.686661720275879,6.056148052215576,12.282647132873535,18.561559677124023,-1.4184114933013916,-1.7207568883895874,-3.3180932998657227,20.932903289794922,-9.090431213378906,-5.554319858551025,4.118449687957764,2.4513800144195557,-19.634424209594727,5.2334089279174805,7.799032211303711,-1.7103583812713623,2.157315492630005,2.0674567222595215,2.719507932662964,-23.66984748840332,4.327768325805664,-6.2200927734375,-14.796281814575195,-3.071851968765259,14.77813720703125,-5.448952674865723,-8.149463653564453,-8.141263008117676,14.632771492004395,0.2898639738559723,18.086061477661133,-14.92038631439209,10.558586120605469,0.21612754464149475,13.402633666992188,7.878288745880127,21.816396713256836,13.537818908691406,-9.778112411499023,23.418916702270508,15.569366455078125,-6.632526397705078,0.6981172561645508,-5.526989459991455,-3.879152297973633,-3.73215389251709,-8.4530029296875,-1.1965314149856567,-40.341827392578125,-39.96417999267578,-8.69605541229248,-22.152206420898438,9.644413948059082,-17.42223358154297,7.830364227294922,-29.346235275268555,34.19169235229492,21.975387573242188,-39.46933364868164,-20.0372314453125,12.319329261779785,3.6118178367614746,11.031020164489746,-16.653728485107422,-9.974326133728027,11.832640647888184,5.9245285987854,-23.81578826904297,16.294116973876953,-38.927207946777344,-5.297969341278076,-6.567095756530762,22.565919876098633,-1.2876777648925781,-30.322586059570312,29.560686111450195,-29.543874740600586,11.111701965332031,-8.421310424804688,-42.30552673339844,-1.1852282285690308,-6.852748394012451,21.502105712890625,15.032896995544434,-7.122648239135742,-13.065434455871582,39.424476623535156,-14.229416847229004,-19.932144165039062,1.0643212795257568,-3.210205554962158,-36.1987419128418,-37.524898529052734,-24.13309669494629,4.9865031242370605,-3.6937501430511475,-2.382624864578247,39.117950439453125,-18.28530502319336,14.892610549926758,-29.331859588623047,-0.585487425327301,14.870996475219727,-2.29306960105896,14.634944915771484,-3.0320634841918945,-4.218602180480957,-4.761306285858154,-6.588603496551514,3.4161572456359863,-9.867273330688477,-0.6374433636665344,9.9097261428833,4.093598365783691,-7.860051155090332,8.435044288635254,3.779304027557373,-4.4444260597229,-9.031142234802246,7.115301609039307,-9.172743797302246,3.3345890045166016,3.486304521560669,6.726433277130127,5.804635047912598,0.7856066823005676,8.231589317321777,9.701292037963867,-4.575669288635254,-3.2824771404266357,10.925392150878906,-7.099888324737549,2.980638027191162,-7.889484405517578,7.447139263153076,-5.8553900718688965,0.22884196043014526,11.719929695129395,-6.887542724609375,-3.309767484664917,7.859908580780029,2.090219736099243,8.491833686828613,-3.9660308361053467,12.281176567077637,-5.788228988647461,-7.430155277252197,-7.30826473236084,2.6521661281585693,-3.409365177154541,-8.87517261505127,-5.189553260803223,-9.295266151428223,-9.29403305053711,4.778375148773193,0.7208077311515808,5.8479905128479,-11.839794158935547,-11.118278503417969,-2.7091989517211914,-3.257599353790283,-5.261537075042725,11.967201232910156,1.7195191383361816,-3.885911703109741,15.89367389678955,-11.943235397338867,-5.615686416625977,-17.58335304260254,-6.049091815948486,3.9480743408203125,-11.70474624633789,-0.44943860173225403,-2.7724409103393555,6.463493824005127,-2.356999158859253,-3.2045907974243164,-2.6355514526367188,5.304747581481934,-5.225653171539307,4.038115501403809,-6.360683441162109,-3.5350499153137207,-4.757630348205566,4.033311367034912,-7.4865241050720215,7.866668224334717,-9.148277282714844,5.399756908416748,1.5505847930908203,3.0450220108032227,4.999922752380371,0.9874361753463745,15.391016006469727,3.027897596359253,3.88511323928833,7.701261043548584,-6.947885990142822,4.602797031402588,-8.432089805603027,2.6787967681884766,0.7051594853401184,-7.513565540313721,-4.807767391204834,1.8870511054992676,-0.11012052744626999,-5.706912517547607,3.4621171951293945,-6.911428451538086,-7.785919666290283,-6.1716203689575195,-3.1852829456329346,8.386704444885254,3.6232030391693115,-0.8790221214294434,10.297930717468262,-3.0107715129852295,-3.1342415809631348,-13.562002182006836,-5.165124893188477,1.4010968208312988,5.3795061111450195,16.57782745361328,-1.1027828454971313,-21.06981086730957,-13.956445693969727,-12.820940971374512,-2.641484498977661,-12.6602783203125,2.7053732872009277,-9.368404388427734,16.008319854736328,-5.549404621124268,12.117670059204102,-11.780835151672363,3.0874831676483154,-3.2725353240966797,8.683405876159668,-12.213531494140625,2.135540723800659,-2.398794412612915,-3.8043079376220703,5.11185359954834,1.321168065071106,6.375543117523193,16.764644622802734,-5.780550479888916,10.271976470947266,2.3684463500976562,3.1141953468322754,-5.759293556213379,-12.364867210388184,5.3372416496276855,-16.064590454101562,-2.410536766052246,2.7436699867248535,-5.569133281707764,13.556377410888672,1.638909935951233,6.2410383224487305,9.130023002624512,1.723128318786621,11.352986335754395,6.92194128036499,-4.6376190185546875,-13.263232231140137,1.1018182039260864,-12.554403305053711,-4.947412014007568,-14.765113830566406,-6.017881870269775,0.9015248417854309,0.3800792694091797,-15.072578430175781,14.71570873260498,-3.5766632556915283,-1.432958722114563,-7.200591087341309,2.5488243103027344,4.912435054779053,14.023530960083008,1.2524985074996948,-0.930691659450531,13.812579154968262,-1.1110422611236572,-8.399727821350098,-5.009617805480957,-13.265666007995605,0.7372163534164429,5.95895528793335,14.473650932312012,-7.318886756896973,11.476634979248047,0.5232788324356079,-1.9062937498092651,-11.642701148986816,13.366037368774414,-8.600224494934082,2.0920445919036865,-13.028197288513184,-12.161032676696777,14.368651390075684,-1.3357551097869873,3.9762070178985596,0.71540367603302,-11.962242126464844,8.952301025390625,12.950239181518555,5.266139984130859,1.78090238571167,-8.045733451843262,9.745957374572754,-14.241382598876953,-0.5922451615333557,11.017244338989258,5.6015214920043945,12.52670955657959,-9.289064407348633,-0.8970642685890198,10.675798416137695,-8.57651138305664,11.151335716247559,2.8459362983703613,-11.557788848876953,-4.213271141052246,-1.9894022941589355,-1.8871397972106934,-11.320884704589844,-14.186944007873535,-12.931295394897461,8.99517822265625,-3.3210885524749756,-9.2662353515625,10.448176383972168,-10.991079330444336,-11.017003059387207,6.164506912231445,2.0480690002441406,14.704635620117188,9.872572898864746,1.6697914600372314,-1.1226595640182495,8.292679786682129,-24.6661319732666,-5.638478755950928,-13.360568046569824,-2.999934434890747,6.253072738647461,4.227101802825928,6.429873466491699,-14.609996795654297,6.280455112457275,10.976318359375,-24.877033233642578,-8.311066627502441,5.5359063148498535,-6.368340492248535,0.6988058090209961,-1.3440651893615723,-15.229154586791992,4.682820796966553,-0.46589818596839905,14.209147453308105,-5.014110088348389,-18.021381378173828,-6.069979190826416,3.6632585525512695,-17.265769958496094,1.8497169017791748,4.519102096557617,27.20250701904297,-12.461337089538574,3.0613279342651367,5.250154495239258,-11.506446838378906,-7.179360866546631,-13.039422035217285,12.621875762939453,4.8297119140625,-12.068621635437012,-14.190498352050781,-0.47170644998550415,-24.94660186767578,4.861322402954102,0.5260461568832397,-1.6513710021972656,-3.3550243377685547,-16.02651023864746,-6.217979431152344,4.900408744812012,7.603307723999023,3.849679470062256,8.296012878417969,-3.2085978984832764,-2.6129655838012695,-6.142487525939941,-12.754915237426758,2.8152451515197754,-8.307536125183105,16.16664695739746,-13.156377792358398,1.3388060331344604,-17.074495315551758,-0.4172430634498596,-14.57003402709961,-7.954325199127197,15.502242088317871,-9.813459396362305,6.441620826721191,4.870175361633301,15.975372314453125,14.878155708312988,-13.146207809448242,-10.172628402709961,7.274125099182129,-7.7137298583984375,16.30657196044922,-1.3309853076934814,1.7954587936401367,-0.8558778762817383,9.906722068786621,-2.3834786415100098,9.665773391723633,0.20788712799549103,8.531548500061035,7.156584739685059,4.419604301452637,19.281784057617188,0.335707426071167,-0.26569902896881104,0.06040424108505249,10.29239273071289,6.37105655670166,-14.136164665222168,1.6963582038879395,-1.5514940023422241,15.656333923339844,5.145358085632324,-5.517134189605713,-13.817852020263672,9.370524406433105,7.633920192718506,-7.598672389984131,4.908200740814209,-11.559867858886719,-7.606870651245117,0.3979908227920532,1.6268295049667358,0.16661272943019867,6.582579135894775,-16.498302459716797,-2.0260143280029297,-9.211746215820312,-8.297322273254395,-18.163387298583984,-15.555704116821289,1.0381088256835938,3.349931001663208,9.120965003967285,10.063901901245117,6.454925537109375,1.9174015522003174,0.6295651197433472,-2.546480178833008,-10.621582984924316,-10.326562881469727,4.52865743637085,-4.979407787322998,8.585171699523926,1.1966803073883057,-4.439431667327881,2.118907928466797,-11.462564468383789,9.779529571533203,3.6310415267944336,-8.98365592956543,-8.889361381530762,5.875613689422607,-7.9708333015441895,-9.816675186157227,7.122439384460449,10.790696144104004,0.666118860244751,-0.6338300704956055,10.35623836517334,-9.281522750854492,-6.373098373413086,6.896087646484375,-6.9409027099609375,6.833736896514893,-9.226432800292969,10.52839183807373,-1.043379783630371,3.522223472595215,7.283736228942871,-4.472722053527832,-4.334346771240234,6.096160888671875,-8.827831268310547,-0.6599338054656982,8.202133178710938,-6.594675064086914,-11.572035789489746,8.134873390197754,-9.001269340515137,4.7390666007995605,4.804474353790283,-9.783063888549805,-9.897883415222168,-9.420700073242188,-4.816283702850342,-10.91262435913086,-9.929722785949707,5.080939292907715,9.294784545898438,-7.605387210845947,8.31520938873291,-1.727185845375061,4.603094577789307,-7.801515579223633,9.797391891479492,8.947391510009766,7.666391372680664,5.919461727142334,-5.073059558868408,-4.156269550323486,-8.814650535583496,8.419401168823242,-6.629190444946289,-1.9940195083618164,10.152112007141113,7.1684136390686035,3.0432443618774414,4.143650531768799,-4.530603885650635,7.190645694732666,5.261423587799072,-6.785693645477295,7.4463629722595215,-3.332658529281616,7.589275360107422,9.819976806640625,-4.885871887207031,-6.974266052246094,2.1524436473846436,-4.1042256355285645,5.5551438331604,-5.709382057189941,5.355586051940918,-6.425567150115967,-6.087247371673584,8.35806941986084,-5.848887920379639,5.125545501708984,-9.144460678100586,-7.102120399475098,5.716785430908203,2.65710186958313,-5.973282814025879,10.465181350708008,-2.595677137374878,8.240850448608398,3.1441752910614014,7.0411810874938965,7.212088108062744,5.707027912139893,-4.740677356719971,3.5403974056243896,5.142153263092041,-7.885010719299316,7.878101348876953,7.168769359588623,9.543429374694824,7.875558853149414,-5.260590553283691,-7.930757522583008,-8.569879531860352,7.217893123626709,-6.123140335083008,-7.166599750518799,2.496764898300171,-7.088560104370117,-7.10426139831543,-5.385926723480225,5.061405658721924,5.869784832000732,5.069906711578369,8.790647506713867,-2.2030410766601562,5.341747283935547,-5.914242744445801,9.917049407958984,-7.172186851501465,-10.646100044250488,-10.773472785949707,0.473483681678772,0.5434094071388245,-8.549489974975586,-14.483565330505371,7.959661960601807,-4.893893241882324,10.668882369995117,5.33480978012085,-0.5322044491767883,-11.716463088989258,-7.550676345825195,-4.512203216552734,-2.225952625274658,-9.550366401672363,4.763986587524414,-6.345271110534668,8.796424865722656,10.725915908813477,1.1502569913864136,-1.4817205667495728,6.95097541809082,7.553759574890137,12.509422302246094,9.775107383728027,-3.9828927516937256,-7.94089937210083,9.941969871520996,-6.824733734130859,5.046357154846191,5.433365345001221,-9.887004852294922,-4.357748508453369,-3.992056369781494,-4.36992883682251,-6.175085544586182,-7.60773229598999,4.682767868041992,-3.5025956630706787,-4.619531154632568,4.768699645996094,6.340816020965576,-2.278311252593994,-13.289396286010742,-2.8676090240478516,3.139005661010742,15.378532409667969,13.769574165344238,-0.09799977391958237,-11.13603401184082,1.213761806488037,2.2609009742736816,-1.3060839176177979,8.66985034942627,1.5510869026184082,10.868834495544434,2.5357115268707275,5.0833740234375,3.6472935676574707,12.92238998413086,0.5724530816078186,-0.20569957792758942,6.4719319343566895,-0.6612329483032227,-7.513456344604492,2.585136651992798,-7.91079568862915,-4.762447834014893,1.9498004913330078,1.0265910625457764,10.638376235961914,-1.458672285079956,3.3254809379577637,1.090584397315979,-14.104612350463867,-2.5173838138580322,-15.869791030883789,1.8049606084823608,5.6315813064575195,0.5438160300254822,-1.9098882675170898,-3.7737388610839844,-3.836583137512207,3.6438872814178467,8.18524169921875,12.859707832336426,-4.404303073883057,10.101592063903809,2.5744056701660156,1.5454230308532715,0.4462839961051941,8.62010669708252,12.772361755371094,-2.5611536502838135,8.591204643249512,11.438538551330566,-5.032166481018066,-7.592964172363281,-0.5948491096496582,-13.337908744812012,-1.1593374013900757,-14.73122787475586,-1.8175065517425537,-0.24198664724826813,12.320027351379395,12.569615364074707,-1.5528204441070557,13.578245162963867,-10.222511291503906,-2.1014621257781982,1.5261975526809692,2.243326187133789,13.403657913208008,-0.39079540967941284,11.946310043334961,-13.277153015136719,-1.7767784595489502,14.56688404083252,3.176616668701172,-10.294328689575195,-0.4370567202568054,14.18543815612793,-8.313300132751465,1.667441487312317,1.9776949882507324,-11.289265632629395,-12.53473949432373,14.200016975402832,14.364177703857422,-12.570000648498535,0.3729742169380188,-12.253329277038574,13.238523483276367,-12.90318775177002,0.7341175675392151,-0.3183524012565613,-0.6970136761665344,2.8664257526397705,-1.9123992919921875,-1.1393276453018188,-12.981924057006836,-2.2783150672912598,2.163811445236206,12.021991729736328,14.413922309875488,-14.356797218322754,0.8307303190231323,-9.994824409484863,1.1876683235168457,13.319474220275879,1.3223795890808105,-0.2632366716861725,-7.8903608322143555,13.780391693115234,12.585248947143555,-1.7915172576904297,-1.970147967338562,1.0052552223205566,-12.391864776611328,-0.38256868720054626,11.910225868225098,3.3209097385406494,1.982181429862976,1.0316128730773926,-10.117757797241211,30.704891204833984,-24.159189224243164,-13.989663124084473,-19.873302459716797,9.729921340942383,-38.14429473876953,-7.608299732208252,7.233331680297852,13.672858238220215,16.434125900268555,40.66189956665039,-23.725616455078125,-0.04360891133546829,28.495729446411133,-3.9475834369659424,-5.035850524902344,6.74870491027832,-6.487635135650635,-1.0688427686691284,-37.117149353027344,-4.262392520904541,-12.783332824707031,-20.762928009033203,26.396799087524414,-4.6128363609313965,14.387861251831055,-21.407005310058594,-29.46149444580078,-16.34947967529297,-34.41637420654297,-9.558049201965332,-12.310195922851562,-5.862671852111816,14.34872055053711,15.283910751342773,-2.645289897918701,-10.668561935424805,-11.882274627685547,-3.896254539489746,21.615947723388672,15.199071884155273,13.776504516601562,19.93896484375,7.94356632232666,15.9922456741333,33.20943832397461,7.294450283050537,4.976598739624023,4.078850269317627,-10.096237182617188,26.816221237182617,-4.280072212219238,-3.7457001209259033,-21.466259002685547,0.5821889638900757,0.06340489536523819,-6.651458263397217,-4.27794075012207,3.973641872406006,6.392095565795898,1.6536731719970703,-4.32678747177124,2.537609338760376,-3.173048973083496,-2.2837281227111816,2.1372036933898926,-4.899928092956543,1.6142518520355225,0.6877424716949463,9.292135238647461,2.053691864013672,4.011857509613037,0.20269404351711273,2.5687599182128906,4.41007137298584,-7.100937843322754,-3.9794459342956543,-1.0148183107376099,0.2137785702943802,-3.229133129119873,11.575359344482422,3.026564359664917,-0.5995231866836548,-1.2817014455795288,-3.753692150115967,2.994617223739624,-6.654745101928711,-2.4535775184631348,-2.3000006675720215,-0.33145904541015625,4.855197429656982,0.41363659501075745,-3.59702730178833,1.9172906875610352,0.4611743092536926,2.3225138187408447,-0.5789355039596558,5.058182716369629,-0.5858416557312012,4.918976783752441,-3.8023715019226074,1.5954911708831787,3.2424111366271973,6.824984073638916,6.837446212768555,2.5783796310424805,6.711994171142578,4.271264553070068,-3.810215473175049,-7.881590366363525,1.5138360261917114,-5.918904781341553,2.160210132598877,-1.6443054676055908,6.512413024902344,5.83256721496582,3.115748405456543,3.336063861846924,0.636800229549408,-0.019708920270204544,3.626220703125,-7.581955432891846,3.9902844429016113,-4.203740119934082,4.557880878448486,5.396116733551025,0.8850109577178955,-2.916422128677368,3.7546498775482178,3.499758720397949,2.532780885696411,1.4902281761169434,-4.2174482345581055,-0.392531156539917,4.719499588012695,-2.7338616847991943,1.8840937614440918,-7.119156360626221,-0.5714336633682251,-4.40757942199707,4.257593154907227,7.634394645690918,0.29874899983406067,6.725429058074951,-8.0406494140625,1.83743417263031,8.206452369689941,-2.496331214904785,-4.111964702606201,-10.075506210327148,-5.157805919647217,-2.7882893085479736,-5.307023048400879,-5.101016044616699,-2.9824981689453125,2.452537775039673,1.3442087173461914,-1.817986011505127,2.7738735675811768,4.389223575592041,2.7771034240722656,5.490677356719971,-2.3869271278381348,-0.43133455514907837,-3.229069709777832,0.5696052312850952,0.5659793019294739,5.1111321449279785,4.043941020965576,-0.652334451675415,-0.6692187786102295,-5.983887195587158,-37.08637237548828,3.9673397541046143,-27.49506378173828,21.77903938293457,-17.30240821838379,5.455205917358398,23.374082565307617,-26.466188430786133,-29.053359985351562,12.779449462890625,-30.794921875,6.470376491546631,-3.855571746826172,28.361236572265625,-15.641143798828125,12.715081214904785,39.95624542236328,29.183753967285156,10.561582565307617,-5.355832099914551,19.740955352783203,27.360179901123047,7.372105121612549,7.582181453704834,-12.901646614074707,-18.36479377746582,-17.120872497558594,48.29397201538086,33.483150482177734,-6.59886360168457,-6.562341213226318,40.045440673828125,-18.35847282409668,-34.251609802246094,-69.1664810180664,-32.23576354980469,24.581220626831055,-50.30637741088867,-28.17745590209961,-21.493595123291016,45.824825286865234,-19.56960105895996,16.490964889526367,-9.553316116333008,-14.549936294555664,45.532745361328125,11.695942878723145,26.804759979248047,30.263233184814453,16.770477294921875,-9.289408683776855,2.1081950664520264,13.304574012756348,31.67266082763672,-22.66762351989746,-44.38776779174805,-5.59543514251709,-46.14279556274414,31.955629348754883,-0.031705744564533234,-8.033856391906738,1.876624345779419,9.79642105102539,-59.85111999511719,-27.65886116027832,-1.3623039722442627,11.004061698913574,3.1984102725982666,-11.49716567993164,4.660048484802246,-17.91144371032715,2.2458770275115967,-12.700276374816895,8.671168327331543,-19.183420181274414,-0.0922747254371643,3.32460880279541,28.96034812927246,9.925553321838379,-17.50541114807129,5.586032867431641,18.51344108581543,27.122543334960938,-13.812398910522461,32.09222412109375,-18.934986114501953,-15.206222534179688,24.987903594970703,8.607345581054688,10.442258834838867,-8.58987045288086,30.86054229736328,24.998231887817383,17.73027992248535,23.79962921142578,-2.2222628593444824,-10.384841918945312,8.620673179626465,8.095428466796875,-1.1951974630355835,12.612105369567871,4.544107913970947,5.154989242553711,-15.79336929321289,-11.146315574645996,9.799909591674805,-5.484546661376953,-25.266420364379883,5.403223514556885,-49.71079635620117,-1.8608770370483398,-37.86676788330078,-34.035316467285156,22.296552658081055,-35.852081298828125,-11.919434547424316,29.149311065673828,-5.724602222442627,0.5669811964035034,17.521724700927734,-11.121031761169434,5.138446807861328,-14.333500862121582,0.21825161576271057,-9.982572555541992,4.613391876220703,-1.5182483196258545,-0.23921208083629608,3.7627663612365723,-2.8673577308654785,-15.900943756103516,10.003824234008789,-13.040467262268066,5.348067760467529,0.8568247556686401,-3.6527857780456543,0.8703952431678772,-5.726742267608643,0.7444509863853455,6.551602363586426,2.6794919967651367,-18.419187545776367,-15.461030960083008,-6.29058313369751,7.126142501831055,7.458977699279785,2.8666470050811768,3.150344133377075,-6.442934989929199,-1.725103497505188,-2.2645492553710938,-10.806488990783691,-10.567119598388672,-11.263099670410156,2.083146572113037,-10.79938793182373,-10.855897903442383,0.021119628101587296,9.345915794372559,-9.189109802246094,0.831627607345581,-6.416285514831543,6.7902512550354,4.289916038513184,-4.893122673034668,5.562974452972412,-3.598151922225952,-1.7842330932617188,3.0964531898498535,8.613863945007324,3.672456979751587,3.428273916244507,-13.85330867767334,-5.366520404815674,-1.841778039932251,0.6052446365356445,17.264545440673828,6.119422435760498,17.994304656982422,33.680423736572266,11.477943420410156,3.676746368408203,19.012819290161133,-13.664460182189941,9.576821327209473,-18.224411010742188,13.694784164428711,-10.47107982635498,-29.595348358154297,23.29891586303711,19.445621490478516,-14.088197708129883,4.140732765197754,-24.770029067993164,14.654473304748535,11.345097541809082,-22.05486297607422,-20.22496795654297,-6.65590763092041,-23.40274429321289,29.47688102722168,-12.572871208190918,-8.940735816955566,14.252511978149414,-30.01750946044922,9.9896240234375,-26.58651351928711,29.60680389404297,-24.368316650390625,-5.710834980010986,22.756134033203125,-8.999897003173828,19.149372100830078,-25.482036590576172,-38.7257080078125,10.79951000213623,36.950889587402344,-25.444652557373047,-10.637224197387695,-6.450489044189453,-8.931367874145508,-0.895289421081543,17.27077293395996,20.56922149658203,9.099750518798828,-7.340734481811523,5.629790782928467,8.84370231628418,-13.171881675720215,-4.000621318817139,3.6080398559570312,18.03691864013672,-14.389520645141602,-25.76385498046875,6.4476165771484375,-25.456905364990234,-17.000133514404297,29.144620895385742,-0.45118892192840576,2.859448194503784,11.796009063720703,29.271652221679688,17.018224716186523,18.39468765258789,-16.10466957092285,-1.040619134902954,-17.947479248046875,17.403728485107422,-0.5008556246757507,20.261289596557617,-26.673377990722656,-1.5244501829147339,17.660924911499023,29.54522705078125,-2.2060413360595703,3.658466100692749,17.638864517211914,-1.4371094703674316,-28.115880966186523,-2.762718439102173,1.370983600616455,-23.52481460571289,14.429827690124512,-1.7411761283874512,-1.8234589099884033,0.948737621307373,-1.3757247924804688,1.8279446363449097,-24.823486328125,6.448034763336182,-0.4742168188095093,-17.26789665222168,1.1582365036010742,-26.843244552612305,-16.638864517211914,-2.2323758602142334,12.624059677124023,-14.367703437805176,19.217069625854492,17.498003005981445,-17.897960662841797,25.532245635986328,-25.041263580322266,-0.38904446363449097,16.99281883239746,-3.1143500804901123,17.050559997558594,1.4156585931777954,25.793691635131836,30.63372039794922,-1.4408137798309326,-2.6102330684661865,0.9049094915390015,-30.318143844604492,-0.25568145513534546,6.9914960861206055,3.30617618560791,-7.236443996429443,-12.541473388671875,-5.680532932281494,-9.39993667602539,-6.6788716316223145,-2.48665452003479,1.78432035446167,5.807582855224609,7.229916572570801,-12.672484397888184,-1.5397253036499023,-7.5972723960876465,6.9883222579956055,-3.1861913204193115,-8.37617015838623,-10.81369400024414,4.438192844390869,-6.199025630950928,0.686335027217865,-14.958549499511719,13.016181945800781,-1.6030887365341187,0.2814154028892517,12.909320831298828,6.667230606079102,-8.395781517028809,-4.865682125091553,-2.709707498550415,-1.4402252435684204,-8.446897506713867,8.151083946228027,-1.2948122024536133,11.786420822143555,7.1928229331970215,-0.7529641389846802,-4.397276878356934,1.8085294961929321,13.456974983215332,0.40181463956832886,5.675107479095459,-16.499053955078125,-5.818681240081787,8.985015869140625,-12.736310005187988,3.3929693698883057,-2.966172933578491,-6.072963714599609,2.4433324337005615,-18.511327743530273,-0.5853276252746582,-6.853710651397705,-17.080026626586914,-0.08290619403123856,-3.3440418243408203,-6.228847980499268,17.56535530090332,3.2898809909820557,5.4642014503479,-7.439032554626465,-5.8258185386657715,-5.008139133453369,2.4089159965515137,-7.212464809417725,-4.015916347503662,-4.099858283996582,7.255949020385742,-3.4369728565216064,8.694281578063965,5.6872992515563965,-3.66255259513855,-8.613569259643555,5.345390796661377,-5.172762393951416,-2.373046636581421,-9.194050788879395,-4.360690116882324,3.6834867000579834,-3.8766026496887207,3.6133170127868652,7.541435241699219,-4.173948764801025,6.709725379943848,8.36639404296875,-8.379666328430176,4.440959453582764,-6.217777729034424,4.370261192321777,-3.6881914138793945,6.52724027633667,9.40385627746582,-6.28129243850708,6.626185417175293,0.43860775232315063,6.124480247497559,7.8231120109558105,0.35784512758255005,-0.15498116612434387,6.387855052947998,-4.53639030456543,-5.977746486663818,-4.910220623016357,5.171220302581787,-8.108509063720703,-3.430652141571045,-7.335115909576416,-6.44420051574707,-8.00976276397705,-9.586390495300293,5.114337921142578,-9.13632583618164,-8.573943138122559,-1.0121945142745972,6.912795066833496,4.612931251525879,7.8741068840026855,6.465404987335205,9.004729270935059,-13.529901504516602,-5.973161220550537,-17.625137329101562,-5.858211517333984,-4.889073848724365,7.405283451080322,-4.054558753967285,-13.180658340454102,-31.222000122070312,-1.2939575910568237,-16.60907554626465,-14.43450927734375,-13.649819374084473,10.235235214233398,-20.17009162902832,-10.431347846984863,-7.793993949890137,-4.096729755401611,16.847301483154297,6.297008037567139,-19.567855834960938,-7.207616329193115,-32.074771881103516,22.20046043395996,15.676290512084961,13.880446434020996,-15.638664245605469,-26.76446533203125,18.78178596496582,-27.602092742919922,8.60976791381836,8.002360343933105,-16.78386878967285,15.291057586669922,11.724806785583496,15.409290313720703,19.435848236083984,7.100975036621094,5.499385356903076,30.735210418701172,1.430445671081543,-14.04886245727539,6.961437225341797,14.833900451660156,-12.296934127807617,-14.240665435791016,-22.74180793762207,-7.719905853271484,14.835634231567383,10.25197696685791,9.636739730834961,4.508639335632324,-7.847325325012207,-13.720331192016602,-1.223322868347168,33.975833892822266,10.861721992492676,18.3480281829834,-23.795440673828125,-22.12508773803711,3.283137798309326,40.27830505371094,1.6131720542907715,12.444310188293457,25.587635040283203,14.874458312988281,-20.772796630859375,6.942673206329346,-14.197707176208496,34.03549575805664,-9.811247825622559,5.480983734130859,-40.54782485961914,-5.009128570556641,23.66619110107422,26.93425750732422,6.4124627113342285,-5.844051837921143,21.915586471557617,-3.5726394653320312,3.884479284286499,-10.680987358093262,4.500875949859619,-30.214744567871094,-1.3598498106002808,19.898847579956055,10.325934410095215,-5.968718528747559,7.9457688331604,23.579936981201172,-14.121660232543945,2.3368959426879883,3.825707197189331,-41.42960739135742,11.944995880126953,-12.779889106750488,-6.511936187744141,-41.28483200073242,-3.6634109020233154,23.298641204833984,20.752714157104492,21.37093734741211,-21.050491333007812,-8.211175918579102,2.9734206199645996,-3.2184009552001953,22.790191650390625,16.023147583007812,14.267281532287598,-22.477909088134766,6.412642002105713,27.680070877075195,-13.7313871383667,-15.126983642578125,-7.084999084472656,-43.984947204589844,12.039688110351562,3.0464184284210205,-1.9261183738708496,15.731939315795898,31.478975296020508,12.972270965576172,17.66789436340332,3.4887137413024902,-5.572613716125488,8.191170692443848,30.673168182373047,-5.565554618835449,5.6386566162109375,14.307209014892578,35.76762771606445,-3.6061384677886963,28.42646026611328,2.822303056716919,-2.2880377769470215,14.748435974121094,2.9640891551971436,-11.591017723083496,-1.1851038932800293,-17.857288360595703,14.606169700622559,-15.118736267089844,-10.693225860595703,14.803936004638672,8.636049270629883,4.850183963775635,-30.354236602783203,15.636163711547852,-7.238251686096191,-0.48182225227355957,18.11558723449707,-24.784530639648438,-1.8807613849639893,-14.531768798828125,-13.548572540283203,10.055926322937012,2.355046510696411,-14.986104965209961,-9.426831245422363,21.009733200073242,2.683828353881836,-4.830780506134033,22.185083389282227,10.25290584564209,15.50106430053711,2.270280599594116,10.905360221862793,13.24877643585205,-12.47503662109375,4.5138163566589355,-9.937623977661133,14.859193801879883,18.218364715576172,-27.73224639892578,-29.533798217773438,-31.526899337768555,3.2061731815338135,-5.204085350036621,-5.758511543273926,-3.673794746398926,3.0758235454559326,-2.5213584899902344,-3.460874319076538,-4.757223606109619,8.119094848632812,-3.4774179458618164,-0.5671409368515015,1.6797904968261719,-0.20364011824131012,-5.279042720794678,3.940850257873535,-1.809958577156067,-2.5606400966644287,-1.9523983001708984,-2.738070011138916,4.899651527404785,-0.739389181137085,-5.548749923706055,1.8254938125610352,-0.36804109811782837,6.934927463531494,4.103557586669922,3.844456911087036,-1.9675840139389038,-5.384769916534424,3.367717742919922,-3.806777000427246,1.9716765880584717,1.5200059413909912,-2.648435115814209,4.158834934234619,4.210422992706299,8.818063735961914,4.693813323974609,1.5791940689086914,5.752844333648682,6.404510498046875,-3.138861894607544,-3.745696783065796,-0.9803537726402283,1.8581197261810303,-3.7442808151245117,-3.0052292346954346,-3.305508613586426,-4.282421588897705,2.0267605781555176,0.7825465798377991,1.0654339790344238,-3.63724684715271,-3.2803080081939697,-4.7160210609436035,-1.6291311979293823,3.828582525253296,3.7089216709136963,3.1386220455169678,0.024152910336852074,0.004826338496059179,0.022439509630203247,-0.0073186615481972694,-0.05415753275156021,0.0436994768679142,0.03338077664375305,-0.0404471792280674,-0.025259213522076607,-0.03886660560965538,-0.043843645602464676,-0.010591354221105576,0.001609873492270708,0.042795341461896896,-0.0472828671336174,0.02413124591112137,-0.011867205612361431,-0.00592206884175539,0.039566125720739365,0.0026855114847421646,-0.022982390597462654,-0.005608591251075268,-0.023238012567162514,-0.004579638130962849,0.042825233191251755,0.04304865002632141,0.02776818536221981,0.005402170587331057,-0.05505320802330971,-0.021636568009853363,0.027553077787160873,-0.0017126010498031974,-0.024667982012033463,0.05458156019449234,0.05542997643351555,-0.05111883953213692,0.033653706312179565,0.01921660266816616,0.02606225572526455,-0.017227409407496452,0.0037157712504267693,0.02002623863518238,0.023863403126597404,0.05138679966330528,0.048374757170677185,0.004962831735610962,0.009048724547028542,0.04946320876479149,-0.01638426072895527,0.03353114798665047,-0.010576213710010052,0.003612588159739971,-0.0036534019745886326,0.006673377472907305,-0.0014732183190062642,-0.04006443917751312,-0.007485078647732735,0.020930618047714233,0.00245275697670877]},"hiddenLayers":[{"inputMatrix":{"rows":20,"columns":59,"weights":[0.058793991804122925,-1.270581841468811,-0.8619013428688049,-2.6034700870513916,-0.08792358636856079,-1.9675970077514648,0.3222590684890747,-0.3929382562637329,-0.9592878818511963,-1.4355648756027222,1.3344488143920898,0.3293857276439667,-0.5167919993400574,-0.08186613768339157,1.8547751903533936,-1.4179389476776123,-1.123293161392212,-0.4177180826663971,-1.494654893875122,1.0227701663970947,-0.25609394907951355,0.4188448488712311,1.7113093137741089,-0.9019322395324707,0.08770161122083664,1.685486078262329,-0.6121492385864258,-1.0146123170852661,-1.3384957313537598,0.5947237014770508,-1.3531955480575562,-0.7597372531890869,-0.1864931732416153,-1.5096930265426636,1.8457978963851929,1.8552244901657104,0.2535814344882965,-0.2929379343986511,0.15004365146160126,1.3300762176513672,0.9347962737083435,-1.2813611030578613,-1.1976301670074463,-1.493057370185852,0.8315715789794922,-1.3343290090560913,-1.8084306716918945,-1.6112754344940186,-0.7442134618759155,0.5233592987060547,-1.96168851852417,2.0597434043884277,-1.7762064933776855,-2.3104870319366455,-0.6750990748405457,0.08335757255554199,-1.1292588710784912,-0.023514894768595695,0.8492391109466553,0.4184478521347046,-0.11183763295412064,1.7092911005020142,0.3539574444293976,-0.6976996660232544,-0.840724527835846,-0.29434818029403687,0.23207296431064606,-3.239739418029785,0.882303774356842,0.8697748780250549,-0.4471835792064667,-0.44866660237312317,1.0045039653778076,-0.621962308883667,-0.565436840057373,-0.6620194315910339,-1.255430817604065,2.0976574420928955,-2.778250217437744,-0.5617478489875793,-0.1442347764968872,2.8109490871429443,-0.5060282945632935,-0.07213098555803299,-0.7322362661361694,0.49233806133270264,-0.4948788285255432,-0.21753008663654327,-0.5478197336196899,0.7100438475608826,-1.6333229541778564,0.617128849029541,1.14410400390625,1.241150140762329,-0.20296211540699005,-0.8284801840782166,-2.190380573272705,0.6863064765930176,-1.3185123205184937,-0.5046127438545227,0.9610481262207031,1.1926137208938599,-1.0788968801498413,1.0585362911224365,-0.2639690637588501,-0.26746633648872375,0.2565952241420746,-0.76983642578125,-0.06156156212091446,-1.5387238264083862,-0.0314120315015316,0.3810458183288574,-1.0943912267684937,-0.3418131470680237,0.6944698095321655,-3.2349815368652344,-1.0083898305892944,-1.331480860710144,0.8893547654151917,0.5502733588218689,-0.6261917352676392,-0.5173233151435852,-1.5423270463943481,-1.6049772500991821,-1.1976958513259888,-0.7974269390106201,1.443070411682129,-1.1695555448532104,1.4368711709976196,-1.161863088607788,-1.3997323513031006,0.17679107189178467,-0.044984959065914154,-1.087256908416748,-1.0112248659133911,-1.4516795873641968,-1.02396559715271,-0.12764154374599457,-0.22445213794708252,-0.06479663401842117,1.4632631540298462,-1.296115517616272,-0.2046031653881073,0.3541988134384155,-0.5984282493591309,-0.5686036944389343,-1.3424081802368164,1.0960060358047485,-1.3505780696868896,-0.5958781838417053,1.0832273960113525,-1.7266720533370972,0.9014608860015869,0.17458336055278778,0.34813010692596436,0.746404767036438,-0.32152122259140015,1.7579950094223022,0.7995842099189758,-1.3625094890594482,-0.15550453960895538,-0.28997859358787537,1.6863396167755127,-1.5024235248565674,-1.5597984790802002,-1.4277637004852295,-0.9309098124504089,-0.6830452680587769,-1.8695913553237915,2.2749993801116943,-0.5197632908821106,-0.5865820050239563,-1.8833975791931152,0.424410343170166,1.005617380142212,0.9056628942489624,0.5032870769500732,-0.7192747592926025,-0.5108673572540283,-0.9135467410087585,-1.1797890663146973,-0.2716963589191437,-0.4060687720775604,0.5956325531005859,-0.05731403827667236,2.5723187923431396,-1.3008931875228882,2.3687338829040527,-0.5473459959030151,-0.532642126083374,-1.9042837619781494,-0.19461607933044434,-2.3895468711853027,0.3968747854232788,-0.07207578420639038,-0.9331242442131042,1.781050682067871,0.4492734372615814,-0.3767733871936798,0.20054680109024048,0.867597222328186,2.012235403060913,0.26758140325546265,0.061477623879909515,-0.09391862899065018,-1.8447794914245605,0.5329505205154419,-2.5091705322265625,-0.32610729336738586,1.4081013202667236,0.25711527466773987,0.1152980625629425,-0.17953534424304962,0.7086530327796936,1.1024868488311768,-0.5778863430023193,0.4135761559009552,0.47464612126350403,-0.7416331768035889,-0.32344189286231995,-0.12193607538938522,-0.09149958938360214,-0.3082282245159149,-2.086050033569336,-3.236522674560547,0.7057858109474182,-0.33315959572792053,-0.3931044340133667,1.0410614013671875,-0.9669030904769897,-0.9815230369567871,0.21720969676971436,-1.3193690776824951,0.611598014831543,-1.4671753644943237,-0.5259442329406738,-0.9720792174339294,-0.15430870652198792,-1.2593624591827393,-0.298794686794281,0.03405223414301872,0.8179822564125061,0.5115892887115479,-0.4825516641139984,-1.0367763042449951,-1.111258864402771,0.7208366394042969,0.7498576641082764,-1.7289950847625732,1.4309790134429932,-0.575329601764679,0.40314093232154846,-0.041476596146821976,1.7656176090240479,-0.4610028564929962,0.38498908281326294,0.3674458861351013,-0.23713737726211548,-1.8663238286972046,-0.8616705536842346,-0.5109400153160095,-1.0058505535125732,0.17454518377780914,-0.8996342420578003,0.14980432391166687,0.9211052060127258,-1.2775028944015503,-0.27855631709098816,-1.1463003158569336,-1.4934096336364746,-1.2580920457839966,-1.1228092908859253,1.3387480974197388,-0.5466112494468689,-1.7187749147415161,-1.6170659065246582,-0.1017913818359375,-0.4808896780014038,0.17666985094547272,0.6254121661186218,-0.21838200092315674,0.008435317315161228,-0.8815606832504272,0.0362788587808609,1.0647486448287964,0.7883132696151733,1.4502556324005127,0.7355617880821228,1.0045161247253418,1.4322161674499512,-0.6159514784812927,-0.6621532440185547,0.08655328303575516,-2.5234670639038086,1.2273072004318237,0.8225936889648438,-1.0210461616516113,-0.5083275437355042,0.06111864000558853,0.2983418107032776,-0.6175382733345032,-0.7029649019241333,-0.8282362222671509,1.6045129299163818,0.14301027357578278,-0.40274208784103394,0.02846183255314827,-0.020291129127144814,-1.6417263746261597,1.7954293489456177,-0.7291332483291626,-0.5931800603866577,-2.7959749698638916,-0.23629099130630493,0.4552014172077179,-0.36074215173721313,-0.05419810116291046,0.9300743937492371,-0.18742188811302185,1.4614355564117432,0.9250835180282593,-0.3560795187950134,-0.30646905303001404,-0.684587836265564,-0.02251082845032215,-0.27007681131362915,-0.23798838257789612,1.1773476600646973,0.11782228946685791,1.2028836011886597,0.3034266531467438,0.9023538827896118,1.0484448671340942,1.021651268005371,0.48344919085502625,1.7239748239517212,-0.2364482283592224,-1.1776766777038574,-0.37444961071014404,0.7813701033592224,-1.5201727151870728,0.4073795676231384,-0.682650625705719,-1.1083544492721558,0.01602618210017681,-1.0529683828353882,-0.43443435430526733,-0.8474732041358948,-1.055851936340332,-0.764064371585846,0.47197407484054565,-0.07004647701978683,1.464331030845642,0.12633709609508514,-0.3676462471485138,-1.2945913076400757,0.1025591492652893,1.9702328443527222,1.854372501373291,-0.2438945174217224,0.47243112325668335,-0.057506490498781204,0.7822263240814209,0.26804932951927185,1.4769097566604614,1.762444257736206,0.8430438041687012,-0.07590686529874802,-1.0556998252868652,-1.4053291082382202,1.1736363172531128,-0.07233382016420364,-0.5822546482086182,-0.21503831446170807,1.4729245901107788,-0.9940047264099121,-0.4264855980873108,2.2332446575164795,1.317762851715088,0.29533761739730835,2.84487247467041,0.6730225682258606,-1.2013373374938965,-0.9607626795768738,0.3834194242954254,1.4210561513900757,0.760654091835022,0.22788485884666443,1.0255579948425293,1.4474260807037354,0.6267606019973755,1.9391660690307617,1.4302846193313599,-0.09982708841562271,-0.5317332744598389,1.8174922466278076,3.045854330062866,2.983609914779663,-0.5591063499450684,0.19948633015155792,0.050095293670892715,0.07155172526836395,-2.1563117504119873,0.030814513564109802,-0.6536794304847717,-0.8987080454826355,0.5182217359542847,-0.443875253200531,-0.1520620435476303,-1.241127610206604,-0.7803293466567993,0.37755897641181946,-0.855332612991333,-1.0200861692428589,-0.8007157444953918,0.7234945297241211,1.4976789951324463,1.721413016319275,-1.4333291053771973,1.1488441228866577,-0.37563270330429077,-1.616667628288269,0.3555546998977661,0.9117456674575806,0.6268471479415894,0.3224219083786011,1.8160884380340576,-2.4371330738067627,-1.2953979969024658,1.293204426765442,0.6571316719055176,-0.7069796323776245,-0.2156068980693817,1.294934868812561,-0.11102121323347092,2.217470169067383,1.3555831909179688,-0.6100996732711792,-1.1116302013397217,0.8835415244102478,1.1534503698349,-0.6467646956443787,-0.2333465814590454,-0.7878044843673706,0.6755926609039307,-0.5721365809440613,0.3878868520259857,0.5918363928794861,-0.08859554678201675,0.11305010318756104,-0.5927717089653015,-0.1133531928062439,-0.7792700529098511,-0.7397361397743225,0.369129478931427,1.2422410249710083,1.0902148485183716,-0.8533622026443481,-0.10851932317018509,-0.4294496774673462,-0.6187301874160767,1.0849641561508179,-0.9047525525093079,-1.1365677118301392,-0.6257688999176025,2.2457833290100098,0.8959071636199951,-0.12555533647537231,0.903245747089386,0.004251344129443169,-2.0540575981140137,-0.6197081804275513,2.293513059616089,0.23311001062393188,-0.5096102356910706,-1.7600018978118896,-1.3220624923706055,-0.3648022413253784,-1.7132688760757446,-0.3918408751487732,0.6636824607849121,-0.2988402843475342,0.4941832423210144,-1.337170124053955,0.15723077952861786,0.1372023969888687,0.3974108099937439,-0.5660948753356934,-2.126537799835205,-0.18238399922847748,0.12452885508537292,-0.6891546249389648,-1.6364023685455322,-1.6522159576416016,0.3220287561416626,0.06511612236499786,0.23641866445541382,-0.6675149202346802,2.0009095668792725,-2.5654067993164062,-0.5437783598899841,0.1838424652814865,-0.8352534770965576,-1.0456112623214722,-0.6915130615234375,0.8935261368751526,0.7032221555709839,1.762894868850708,-0.301888108253479,0.1091524139046669,1.250518560409546,1.2674890756607056,0.1640297770500183,-0.1356867551803589,-1.2923974990844727,-0.6106297373771667,1.440826416015625,-0.08863911777734756,-0.39823541045188904,-0.949636697769165,-0.9482158422470093,0.5973790287971497,-0.44535401463508606,1.3911336660385132,0.23083807528018951,-1.1871453523635864,0.08081381767988205,1.1516547203063965,-0.3230254352092743,0.017672361806035042,-1.2883803844451904,1.3161917924880981,-1.815581202507019,-0.07929006218910217,-0.46842703223228455,0.5813542008399963,0.4253288209438324,-0.7918663620948792,0.034597862511873245,-0.7530432939529419,0.6489526033401489,-0.6164771318435669,-0.29951369762420654,1.266951322555542,-0.8403321504592896,-0.3979128897190094,0.14061760902404785,-1.257250189781189,-0.8942713737487793,1.18899667263031,-0.5553441643714905,-0.9465939998626709,-0.9004116058349609,0.1657876819372177,0.9008557200431824,-0.68888920545578,0.7543110251426697,0.7496755719184875,-1.4539828300476074,-0.1009519174695015,-0.8351464867591858,0.7772353291511536,-1.7539032697677612,0.665989875793457,0.0035445045214146376,1.1489360332489014,1.8560233116149902,-0.7850728034973145,0.6598339080810547,1.0984065532684326,1.1932636499404907,-0.31525367498397827,0.3208758533000946,0.06116428226232529,-1.0094623565673828,1.8092795610427856,0.33740997314453125,0.5962949395179749,-0.6159246563911438,-2.720201015472412,-0.17914776504039764,-1.0375292301177979,-0.18760864436626434,0.07470124214887619,-1.1208369731903076,-0.46025753021240234,0.14407925307750702,-0.6919537782669067,1.434861421585083,-0.5725380778312683,-0.4457380473613739,-0.993648111820221,-0.8470431566238403,-0.514723002910614,0.8246243000030518,0.8214362859725952,0.5801619291305542,-1.4696546792984009,0.6385882496833801,0.2240968942642212,0.45000597834587097,0.6119616031646729,-1.7120027542114258,0.37322333455085754,-0.5647841691970825,-0.09086095541715622,0.6774975061416626,-0.8094414472579956,-0.3708195090293884,-0.16802138090133667,1.584599494934082,-0.22397193312644958,0.5278487801551819,-0.3783113360404968,0.3207111656665802,0.18074601888656616,0.35780754685401917,0.509904682636261,-0.9093948006629944,-0.007771824486553669,0.5661524534225464,1.957077980041504,-0.19048553705215454,-0.7378817796707153,0.5864247679710388,-0.44378355145454407,0.9898974299430847,1.2080391645431519,-1.3235992193222046,-0.10163463652133942,0.4344349801540375,0.030612070113420486,-0.010577036999166012,1.2540807723999023,-1.9589449167251587,-0.07592444866895676,-0.2787257432937622,-0.7391038537025452,1.3228049278259277,0.8410330414772034,-0.24988263845443726,0.10997547209262848,0.9713772535324097,0.26591184735298157,-1.8459432125091553,-0.8011477589607239,0.4497275948524475,-0.248472660779953,1.9759094715118408,1.0239882469177246,0.4402417242527008,1.1398423910140991,0.5026898384094238,-0.2827174663543701,0.432878315448761,-0.963787317276001,0.200929194688797,0.14716200530529022,0.5047661662101746,-0.5231173634529114,-0.19307619333267212,1.2502871751785278,0.02928539738059044,-0.01855587773025036,0.2637587785720825,-0.4608331024646759,0.5876562595367432,0.6075118780136108,-0.3145907521247864,-0.8534508943557739,-0.3652034401893616,-0.391351580619812,0.4100051820278168,-0.28571489453315735,0.05528612062335014,-0.11864012479782104,-0.03206230327486992,0.2909112274646759,-0.730385422706604,1.211366057395935,-0.056335896253585815,-0.10091004520654678,1.3187669515609741,-0.64021235704422,1.1756877899169922,-1.3944693803787231,-0.4237344264984131,1.7270641326904297,0.8024210929870605,-0.570188045501709,0.13659125566482544,0.09791180491447449,-1.0423502922058105,0.6654544472694397,0.39504221081733704,0.669887363910675,0.32867327332496643,-0.9968934655189514,-0.5241364240646362,-0.046787627041339874,-0.6300970911979675,-0.1945425420999527,-0.04131289944052696,0.6810158491134644,0.8189325928688049,-0.5530922412872314,0.1701095998287201,-1.329348087310791,-1.3691285848617554,-0.5990327000617981,-0.40518176555633545,0.5024122595787048,-0.246351420879364,-0.4449826180934906,1.3552418947219849,-1.4874273538589478,-0.07480733841657639,-1.2307385206222534,0.3882887661457062,0.09827402979135513,-0.8240017294883728,-0.17746341228485107,-0.6274589896202087,-0.9467422366142273,0.5072116851806641,0.06346265971660614,-0.9770340919494629,0.4934767484664917,0.2601570785045624,-0.13326159119606018,0.4636215269565582,-0.9309784173965454,1.1612377166748047,-0.5621599555015564,0.8195555806159973,0.21886903047561646,0.050826601684093475,0.3811764121055603,-0.8401302695274353,0.37627384066581726,-0.37385687232017517,-0.7187401652336121,0.10999392718076706,-1.120147466659546,0.9317866563796997,1.1970467567443848,-1.204673409461975,-1.2030084133148193,0.7742665410041809,0.8647448420524597,0.47102847695350647,0.6763797998428345,-0.8701810836791992,-0.2918281853199005,-0.034670062363147736,-1.139196753501892,1.1055525541305542,1.4303131103515625,0.13603924214839935,-0.27015745639801025,0.2791450023651123,0.29989489912986755,-0.7770407199859619,-1.0842450857162476,0.35999754071235657,-0.44356977939605713,1.2930184602737427,1.3239229917526245,0.4418977200984955,0.8221784234046936,-0.12877175211906433,1.1108760833740234,1.4124727249145508,-1.6385482549667358,0.8169493079185486,0.1576387882232666,0.845651388168335,-0.8965732455253601,-0.37082618474960327,0.8904341459274292,0.49787619709968567,0.7732202410697937,1.823764681816101,-1.2068672180175781,-0.10171869397163391,0.9589603543281555,-0.2445712685585022,-1.5687658786773682,1.262725591659546,-1.369589924812317,0.39269617199897766,-0.5700923800468445,-0.29597657918930054,0.356832891702652,-1.4138364791870117,0.7473857402801514,-0.4275549054145813,0.7602813243865967,-1.16265869140625,-0.9645311832427979,0.6618269085884094,-0.8807410001754761,1.3173189163208008,-0.18234223127365112,0.3821693956851959,1.2661921977996826,0.9090868234634399,0.15358524024486542,-0.5247191786766052,0.1046619787812233,-1.3313534259796143,1.3876457214355469,0.8172733783721924,-0.6334680914878845,1.91349458694458,-1.566182255744934,-0.6368201971054077,0.34028559923171997,-0.09704975038766861,0.045917853713035583,0.267535924911499,0.5616028308868408,1.4224514961242676,-0.9814050197601318,0.0678023248910904,-2.1239688396453857,-0.6992695331573486,-1.2852888107299805,-0.8604173064231873,-0.929466187953949,-1.6528258323669434,-1.179133653640747,0.7422122955322266,-1.5134270191192627,-0.3922788202762604,-0.1072058156132698,2.048466682434082,0.810105562210083,-0.38926804065704346,-2.182837963104248,0.8480993509292603,-0.8632575273513794,-0.40956130623817444,-0.8783804774284363,1.3476028442382812,-0.4971635937690735,-1.0388063192367554,-1.2550091743469238,1.5678719282150269,-0.8612502813339233,1.4591491222381592,2.3916409015655518,0.04815201833844185,-0.23535239696502686,0.659544050693512,0.5237342715263367,-1.074648380279541,0.8056691884994507,0.8111124038696289,-1.3150006532669067,1.054063081741333,0.8532911539077759,0.5294232964515686,1.8517733812332153,0.4662691652774811,-0.806154727935791,1.0509604215621948,1.557503342628479,-0.7322885990142822,0.16702775657176971,0.28827255964279175,-1.8745033740997314,-0.8031120300292969,-0.679216206073761,-0.5158601403236389,2.3223016262054443,-0.28036344051361084,1.4967328310012817,-0.4815252721309662,-1.5341514348983765,-0.21018896996974945,-0.0034271590411663055,0.6503872871398926,1.044553279876709,0.9981248378753662,-0.0057367440313100815,0.8058125972747803,-0.20203791558742523,-1.2247300148010254,-2.4903547763824463,-0.6856716871261597,0.44667181372642517,0.5062986016273499,0.8488793969154358,0.13804331421852112,1.4779767990112305,0.9967806935310364,-1.1373265981674194,-0.7129275798797607,0.5609863996505737,-1.0403105020523071,-0.0005394581239670515,0.301553875207901,0.5427449345588684,0.6207475066184998,-0.6119158267974854,1.5007601976394653,-0.1005580723285675,-0.8600535988807678,-0.9488022327423096,0.6812605261802673,-1.937089204788208,0.15272843837738037,0.727834165096283,0.5065414905548096,-0.9843443632125854,-0.5240082740783691,1.218620777130127,-1.1984387636184692,-0.5601662397384644,-0.565654456615448,-0.6885806918144226,1.6697624921798706,0.049079328775405884,-0.3048294186592102,1.5734761953353882,-0.861603856086731,0.0984921082854271,-1.175893783569336,0.5185092687606812,0.060746461153030396,-1.6503348350524902,-2.2546112537384033,-0.03767989203333855,1.7985566854476929,-0.09977811574935913,2.3221561908721924,-1.795416235923767,-1.191356897354126,0.48470020294189453,1.0292056798934937,-0.5627513527870178,-1.057745099067688,-0.5691913962364197,1.262803554534912,0.018930893391370773,0.08878970146179199,-0.2906968295574188,0.1561979055404663,0.9826721549034119,-0.721549391746521,0.582601010799408,-0.18890388309955597,-0.03071844018995762,-0.5864036083221436,-0.35029950737953186,0.951095461845398,0.03956744074821472,0.03611274063587189,0.5880409479141235,-1.7231866121292114,0.32972225546836853,0.33877548575401306,-0.23398777842521667,-0.33056747913360596,-1.5194271802902222,-0.8276491761207581,1.2660528421401978,-0.36547398567199707,0.3142545819282532,1.3535960912704468,-2.9481682777404785,0.07824292778968811,-0.6653292179107666,0.10072695463895798,-0.9554148316383362,-0.9993405342102051,0.18895983695983887,-0.07801233232021332,2.0765979290008545,-0.337361603975296,0.8185022473335266,1.2450182437896729,1.9193909168243408,-0.57835853099823,1.2991409301757812,-0.7234112024307251,-1.161866307258606,0.8892347812652588,0.19101668894290924,0.011811671778559685,-0.37515828013420105,-1.3390650749206543,1.2353923320770264,1.103027582168579,-0.41652584075927734,0.05383545532822609,0.15820033848285675,0.254113107919693,-0.3613070249557495,-1.2099361419677734,0.18273767828941345,-0.725669264793396,1.4023454189300537,-1.4485139846801758,0.20515242218971252,0.3114096224308014,0.9641397595405579,-0.19917458295822144,-2.1836845874786377,0.2122243046760559,0.6524689793586731,-0.5607801079750061,-0.08017062395811081,-0.3846285939216614,1.061131238937378,-0.9374812245368958,0.7292318344116211,-0.6046558618545532,-0.8837572336196899,-0.8649070262908936,-0.841673731803894,0.5212299823760986,-1.617012858390808,1.493825078010559,0.0028446668293327093,-0.0997004508972168,0.6443634629249573,0.8766945004463196,-1.4840342998504639,-0.9217214584350586,-0.8964977264404297,0.001825873856432736,-0.016311585903167725,-0.661952793598175,0.2576649785041809,0.06968986243009567,0.9472475647926331,1.0705231428146362,-0.1243940070271492,1.046716332435608,1.8751100301742554,1.2134039402008057,0.5561506152153015,-0.5887636542320251,-0.5341705679893494,-2.1453826427459717,0.9693762063980103,-0.4403521716594696,0.48315462470054626,-0.5873984694480896,-0.9368574023246765,-1.1478780508041382,-0.05171366035938263,-0.6773221492767334,-1.3224220275878906,-0.6537563800811768,0.7114356160163879,1.254868984222412,0.9639949798583984,0.8874983191490173,-0.526759922504425,1.8042564392089844,-0.6780861616134644,0.7781273126602173,-0.29423782229423523,1.3768141269683838,-1.0079630613327026,-1.9637882709503174,0.3097883462905884,0.36825960874557495,-0.3492323160171509,0.9330984950065613,-0.13514705002307892,1.0038788318634033,-1.1683577299118042,-0.47702282667160034,-0.912773847579956,-2.6110856533050537,-0.4170338809490204,-0.5887021422386169,0.8908590078353882,-0.811141848564148,1.3633557558059692,0.7527092695236206,0.7145212888717651,-0.31239545345306396,1.672472357749939,-1.059789776802063,-2.318514585494995,-0.9620218873023987,0.2472926527261734,0.18052345514297485,-0.725225031375885,0.9031693935394287,-0.20254233479499817,2.0440282821655273,0.5494486093521118,-0.3072362244129181,0.7276347875595093,0.7274221777915955,-0.5278469920158386,-1.0667978525161743,-0.7209540009498596,-0.2515108287334442,-0.7122002243995667,0.26466864347457886,-0.6905421018600464,0.732666015625,-1.3527032136917114,-0.23579293489456177,-1.3634878396987915,-0.7298926115036011,-0.8479615449905396,-0.5918211340904236,-1.3860037326812744,0.6524619460105896,1.3648797273635864,0.8023891448974609,1.3174076080322266,-0.19395622611045837,1.1743699312210083,1.6678036451339722,1.1980737447738647,0.5037079453468323,-0.581795871257782,0.2282046675682068,-0.9951872825622559,1.9049630165100098,-0.5753483176231384,1.204862117767334,-0.16885772347450256,-0.7791981101036072,0.922536313533783,0.5296292304992676,-0.7168223857879639,0.45776307582855225,-0.3367654085159302,0.1935512274503708,0.568647027015686,0.03161542862653732,-1.3336787223815918,0.5623716115951538,-0.19219224154949188,0.6751135587692261,-0.48450177907943726,-0.22063909471035004,-0.4977124035358429,-0.4068278670310974,0.2926959991455078,-0.8369337916374207,1.2991777658462524,-0.45272567868232727,-0.19960902631282806,1.5235823392868042,-0.3068023920059204,-0.12443314492702484,-1.477508783340454,-0.8146477937698364,1.7941097021102905,0.5794060230255127,-0.8763946890830994,-0.08551575988531113,0.3677044212818146,-1.2230974435806274,0.6505270004272461,0.2890719473361969,0.3810919523239136,1.7972062826156616,-0.22129802405834198,-1.2819842100143433,0.21018458902835846,-0.6606886982917786,-0.18073183298110962,0.37918907403945923,1.9511140584945679,0.03147346153855324,-0.07603844255208969,-0.6526530981063843,-1.3403868675231934]},"inputHidden":{"rows":20,"columns":20,"weights":[0.805577278137207,-0.6167006492614746,-0.7593075037002563,-1.515621304512024,0.4577144682407379,-0.09634051471948624,0.07796075940132141,0.49250179529190063,0.05214499309659004,0.06122828274965286,0.0448419526219368,-1.6465375423431396,-0.5968847870826721,-0.6791040897369385,0.3287234902381897,-0.4141469895839691,-0.7627665996551514,0.3348409831523895,0.28469377756118774,-1.2658709287643433,-1.2522753477096558,0.08494926244020462,1.2603464126586914,0.7666764855384827,0.2734387516975403,0.344359427690506,1.2809869050979614,-0.055876895785331726,-1.3393141031265259,-0.9435136914253235,-0.1676221638917923,0.5681449174880981,0.47476136684417725,0.3934021592140198,-0.9530815482139587,-0.4959618151187897,1.5510046482086182,-0.3673967719078064,-0.5631219148635864,-0.10950280725955963,-1.1983044147491455,-0.870156466960907,-0.6812518835067749,1.018082857131958,0.5741890668869019,-0.20922455191612244,-0.5081704258918762,-0.712131917476654,-0.5006892085075378,-0.8039156794548035,0.8659090995788574,1.1236226558685303,-0.4666038751602173,0.0008921612752601504,-0.21581800282001495,0.6098297238349915,1.292465329170227,-0.5840577483177185,0.5162124633789062,0.5527812838554382,-0.6551658511161804,-0.17125853896141052,1.8325220346450806,1.8849332332611084,0.8450579643249512,0.15836869180202484,0.24540337920188904,0.020417723804712296,-1.0845208168029785,-0.6076540350914001,-0.7773916125297546,2.3843626976013184,-0.3549245297908783,-0.7741868495941162,0.39090096950531006,0.03258847817778587,1.0717904567718506,-0.12833338975906372,-1.513443946838379,0.000766642508096993,0.4958462715148926,-0.01795480027794838,-1.2506401538848877,-0.5166001915931702,-0.6572996973991394,-0.7177338600158691,-0.6303175687789917,-0.12021231651306152,-0.3801517188549042,0.16990900039672852,-0.09533462673425674,-0.3582005500793457,-0.279529869556427,-0.2212434858083725,-0.8290677666664124,0.18086300790309906,0.30214425921440125,-0.6561205387115479,0.4286940097808838,-0.13345637917518616,-0.7729930877685547,0.6238503456115723,0.45406174659729004,0.700768232345581,0.824661374092102,-0.2317209094762802,-0.19376015663146973,0.8334152698516846,-0.4949028789997101,-0.7710346579551697,0.12538784742355347,1.6033357381820679,-0.6213282346725464,-0.6317397356033325,0.04470467567443848,-0.604835033416748,1.445924997329712,0.05572230741381645,0.8186914920806885,0.41986802220344543,-0.1603623479604721,-0.6881097555160522,0.18557317554950714,1.0456079244613647,0.3383340835571289,-0.025109071284532547,1.1289557218551636,1.5173490047454834,-0.23203229904174805,-0.3999382257461548,0.13966719806194305,0.8798928260803223,-0.12005667388439178,0.28228357434272766,0.2142103910446167,0.8119751214981079,1.1749359369277954,-0.4980144500732422,0.9403383135795593,0.4086143374443054,-0.4089662432670593,0.38624656200408936,-0.162509024143219,-0.48867422342300415,0.10454139858484268,-0.03412790596485138,-0.4303978383541107,-0.13344699144363403,-0.004097785335034132,-0.5693109631538391,-0.5514971017837524,-0.29992613196372986,0.4274696707725525,0.5218003988265991,0.7949842810630798,-0.18831418454647064,0.41439923644065857,0.2910254895687103,1.4725441932678223,0.047085873782634735,-0.7852764129638672,-0.24590188264846802,-1.1285207271575928,0.9570461511611938,-0.9755984544754028,-0.5572853088378906,0.047381363809108734,0.5228212475776672,-0.42850708961486816,-0.7039241194725037,0.4387247562408447,1.2297906875610352,-0.9825742244720459,0.7716679573059082,-1.1126129627227783,0.7255876660346985,0.9828588962554932,-0.9946670532226562,-0.22344911098480225,0.5469969511032104,-0.3832775950431824,0.4503125250339508,-1.0190083980560303,-0.24642445147037506,1.0381425619125366,-0.8340523838996887,1.6249313354492188,1.4300954341888428,0.4151753783226013,-0.46000936627388,0.5088116526603699,0.48066219687461853,-0.10322710871696472,-0.11224789917469025,0.19997583329677582,-0.381577730178833,-0.019962403923273087,-0.09455723315477371,0.7377475500106812,0.29364025592803955,-0.09137551486492157,-0.23523670434951782,-1.590551495552063,-0.7295663356781006,-0.20698748528957367,-0.5995476841926575,-0.2875816226005554,0.146570086479187,0.5709898471832275,-0.5551314949989319,0.6092371344566345,-0.8110684752464294,-0.6144152283668518,-0.4774187207221985,0.12088677287101746,0.41530707478523254,-0.5786355137825012,0.31720033288002014,0.7778719067573547,-0.6192365288734436,0.1352601945400238,0.685846209526062,1.0126835107803345,0.7547208666801453,-0.32110652327537537,-0.7121539115905762,0.2209310084581375,0.7300373315811157,-0.5073973536491394,0.4510529637336731,-0.3443049490451813,1.168630599975586,-1.2190942764282227,0.10206581652164459,-0.7764835953712463,-0.6963046193122864,-0.06953144818544388,-0.12741664052009583,-0.06503629684448242,-0.23330287635326385,-0.9817190170288086,