module.exports.net = function anonymous(rawInput,isSampleI,temperature
) {

  if (typeof rawInput === 'undefined') rawInput = [];
  if (typeof isSampleI === 'undefined') isSampleI = false;
  if (typeof temperature === 'undefined') temperature = 1;
  var json = {"type":"LSTM","options":{"inputSize":59,"inputRange":59,"hiddenLayers":[20,20],"outputSize":59,"decayRate":0.999,"smoothEps":1e-8,"regc":0.000001,"clipval":5,"maxPredictionLength":100,"dataFormatter":{"indexTable":{"A":0,"a":1,"m":2,"o":3,"n":4,"b":5,"d":6,"p":7,"l":8,"y":9,"e":10,"z":11,"t":12,"h":13,"i":14,"u":15,"r":16,"x":17,"s":18,"c":19,"g":20," ":21,"M":22,"H":23,"k":24,"v":25,"q":26,"f":27,"D":28,"B":29,"R":30,"j":31,"ū":32,"C":33,"K":34,"P":35,"-":36,"S":37,"E":38,"I":39,"F":40,"G":41,"L":42,"J":43,"İ":44,"N":45,"O":46,"Ö":47,"ö":48,"T":49,"Q":50,"í":51,"U":52,"V":53,"W":54,"X":55,"Y":56,"Z":57,"unrecognized":58},"characterTable":{"0":"A","1":"a","2":"m","3":"o","4":"n","5":"b","6":"d","7":"p","8":"l","9":"y","10":"e","11":"z","12":"t","13":"h","14":"i","15":"u","16":"r","17":"x","18":"s","19":"c","20":"g","21":" ","22":"M","23":"H","24":"k","25":"v","26":"q","27":"f","28":"D","29":"B","30":"R","31":"j","32":"ū","33":"C","34":"K","35":"P","36":"-","37":"S","38":"E","39":"I","40":"F","41":"G","42":"L","43":"J","44":"İ","45":"N","46":"O","47":"Ö","48":"ö","49":"T","50":"Q","51":"í","52":"U","53":"V","54":"W","55":"X","56":"Y","57":"Z","58":null},"values":["Aamon","Amon","Abaddon","Apollyon","Abezethibou","Abraxas","Abyzou","Achlys","Adrammelech","Aeshma","Agaliarept","Agrat bat Mahlat","Agares","Agiel","Ahriman","Angra Mainyu","Aim","Haborym","Aka Manah","Akem Manah","Akoman","Akvan","Akuma","Al Ana","Ala","Alal","Alastor","Alloces","Allocer","Allu","Amaymon","Amdusias","Amy","Anammelech","Anathan","Anqa","Ancitif","Andhaka","Andras","Andrealphus","Andromalius","Anti","Antichrist","Anzu","Apaosha","Apep or Apophis","Armaros","Archon","Arunasura","Asag","Asakku","Asb","Asmodai","Asmodeus","Astaroth","Asura","Azazel","Azaz","Azi Dahaka","Dahak","Baal","Bael","Babi ngepet","Bakasura","Baku","Balam","Balberith","Bali Raj","Banshee","Baphomet","Barbas","Barbatos","Barong","Bathin","Mathim","Bathym","Marthim","Beelzebub","Belial","Beleth","Belphegor","Berith","Beherit","Bhūta","Bifrons","Boruta","Botis","Buer","Bukavac","Bune","Bushyasta","Caim","Camio","Charun","Chemosh","Choronzon","Chort","Cimejes","Kimaris","Cimeies","Corson","Crocell","Procell","Daeva","Dagon","Dajjal","Dantalion","Danjal","Decarabia","Demiurge","Demogorgon","Dev","Devil","Div-e Sepid","Djall","Drekavac","Dzoavits","Eblis","Iblis","Ibris","Eligos","Eisheth","Erlik","Focalor","Foras","Forcas","Forras","Forneus","Furcas","Forcas","Furfur","Gaap","Gader","Gadulta","Gaf","Gaki","Gamigin","Ghaddar","Ghoul","Giu","Glasya-Labolas","Caacrinolaas","Caassimolar","Classyalabolas","Glassia-labolis","Gorgon","Gremory","Gomory","Grigori","Gualichu","Guayota","Gusion","Gusoin","Gusoyn","Haagenti","Hag","Halphas","Malthus","Haures","Flauros","Flavros","Hauras","Havres","Hinn","Ifrit","Incubus","Ipos","Ipes","Jinn","Jikininki","Kali","Kabandha","Kabhanda","Kara İye","Kasadya","Kokabiel","Kore","Kroni","Krampus","Krun","Killakee Cat","Kukudh","Kulshedra","Kumbhakarna","Lamia","Latabi","Legion","Lechies","Leonard","Leyak","Lempo","Leraje","Leraie","Leviathan","Lili","Lilin","Lilim","Lilith","Ljubi","Lucifer","Lucifuge Rofocale","Mag","Marid","Malphas","Mammon","Mara","Maricha","Marax","Morax","Foraii","Marchosias","Mastema","Mazoku","Mephistopheles","Merihem","Moloch","Murmur","Naamah","Naberius","Cerbere","Naberus","Nalai","Ninurta","Niuli","Namtar","Nar as-samum","Oni","Onoskelis","Orcus","Orias","Oriax","Orobas","Ose","Ördög","O Tokata","Paimon","Pazuzu","Pelesit","Phenex","Penemue","Pithius","Pocong","Pontianak","Preta","Pruflas","Puloman","Qin","Rahab","Raum","Ronove","Rusalka","Rakshasa","Rangda","Ruha","Saleos","Samael","Salpsan","Satan","Satanachia","Scylla","Set","Seir","Semyaza","Shax","Chax","Shaitan","Shedim","Shdum","Sitri","Sthenno","Stihi","Stolas","Solas","Suanggi","Succubus","Surgat","Sut","Shinigami","Shuten Doji","Tannin","El Tío","Tengu","Titivillus","Toyol","Tuchulcha","Ukobach","Ur","Valac","Valefar","Malaphar","Malephar","Vanth","Vapula","Vassago","Vepar","Vine","Wechuge","Xaphan","Yeqon","Zabaniyya","Zagan","Zahreil","Zartai","Zartanai","Zepar","Ziminiar"],"characters":["A","a","m","o","n","b","d","p","l","y","e","z","t","h","i","u","r","x","s","c","g"," ","M","H","k","v","q","f","D","B","R","j","ū","C","K","P","-","S","E","I","F","G","L","J","İ","N","O","Ö","ö","T","Q","í","U","V","W","X","Y","Z","unrecognized"],"specialIndexes":[58]}},"trainOpts":{"iterations":1500,"errorThresh":0.4,"logPeriod":10,"learningRate":0.01,"callbackPeriod":10,"timeout":"Infinity"},"input":{"rows":60,"columns":59,"weights":[-2.2477240562438965,-0.44642725586891174,0.4960035979747772,-0.8176478147506714,-0.9522597193717957,0.5943472385406494,-0.5736187696456909,0.6293906569480896,-0.9354718923568726,1.2780952453613281,-1.6238763332366943,-0.43068766593933105,-0.325530469417572,0.8356828689575195,0.4876325726509094,-1.4676474332809448,-0.36794376373291016,-0.47258612513542175,-0.9007723927497864,-0.4914124608039856,1.2969986200332642,1.708281397819519,-0.13518254458904266,-0.3919753432273865,0.8400999307632446,-0.871273934841156,-0.5517542958259583,0.782636284828186,1.092896819114685,0.5763411521911621,0.5981594324111938,-0.9080343246459961,-0.19826050102710724,0.7524322867393494,-0.8565605282783508,0.08322670310735703,0.6292290687561035,0.8914746046066284,-1.2764726877212524,-1.0748209953308105,-1.7153892517089844,1.0348289012908936,1.197995901107788,1.4739696979522705,-0.7826224565505981,-0.1729695051908493,-1.3219774961471558,0.2475239634513855,-1.1667816638946533,0.2585887908935547,-1.5733466148376465,-1.379475712776184,0.20920132100582123,-0.360007643699646,0.7474172711372375,-1.7646251916885376,-0.24692466855049133,0.9490681290626526,0.6397846341133118,-0.5213317275047302,-0.264541894197464,1.313369870185852,-2.4520061016082764,-1.0540058612823486,-1.0403838157653809,-2.484476089477539,-2.641378164291382,0.033373743295669556,-0.5713047981262207,-1.3957676887512207,-1.0670664310455322,-0.07142779231071472,-0.766085147857666,-0.31015902757644653,-1.4835906028747559,1.663543701171875,2.0618605613708496,1.3755176067352295,-0.5841024518013,1.3895186185836792,1.2587264776229858,1.2206530570983887,-1.1856417655944824,-0.5002102851867676,-1.9066089391708374,-1.0370759963989258,2.478233814239502,1.734964370727539,0.7743249535560608,0.8591218590736389,-2.607621908187866,2.009660243988037,-1.1422953605651855,1.4898661375045776,-0.3888343870639801,0.9207724332809448,0.6902971863746643,-0.929211437702179,1.2871301174163818,0.29455211758613586,1.9272619485855103,0.989790678024292,0.48344048857688904,-2.152981758117676,0.10241906344890594,-2.3290154933929443,-2.512129306793213,0.18175484240055084,-0.9528871178627014,-0.2595159709453583,0.48028790950775146,-1.420202612876892,1.7877165079116821,1.130616307258606,0.28756237030029297,-4.498594760894775,0.7069559693336487,1.9347736835479736,-1.1688945293426514,-0.6520180702209473,0.8887042999267578,1.9159107208251953,-0.9394899606704712,2.213014602661133,1.3249938488006592,1.650215744972229,-2.9393246173858643,3.169618606567383,-1.8944610357284546,0.16199444234371185,-2.0390560626983643,1.4949772357940674,0.7130240201950073,-1.6974341869354248,-0.8783649802207947,-3.68953275680542,-1.1759898662567139,-1.4565131664276123,4.548076152801514,1.977531909942627,-0.6748485565185547,1.4338797330856323,0.7715233564376831,1.7818809747695923,0.9076403975486755,-0.7254176735877991,1.2125270366668701,1.3359112739562988,0.08432205021381378,1.4009301662445068,-3.8284072875976562,1.2309792041778564,-3.604398488998413,2.9436683654785156,3.3067867755889893,-0.983083188533783,-2.5047056674957275,-3.3676443099975586,-4.287718772888184,-0.9138901233673096,1.192154884338379,2.8688464164733887,-0.01200583204627037,-0.7863523960113525,0.8826493620872498,-0.16290515661239624,-0.30349019169807434,-0.1966865360736847,-2.8368523120880127,-5.168715953826904,-0.6429544687271118,-0.38004836440086365,1.8366637229919434,-4.4015607833862305,-0.36833447217941284,2.0813066959381104,0.6521338224411011,-3.3159215450286865,-2.4072413444519043,4.365299224853516,-1.2978864908218384,-2.2364606857299805,-2.6764159202575684,0.08263083547353745,-2.0636069774627686,-1.1056971549987793,0.25045132637023926,-7.07521915435791,-5.356935501098633,0.9612434506416321,3.9439663887023926,0.9611828327178955,-5.601690769195557,-2.277608871459961,-0.8195554614067078,2.9695403575897217,-0.15186291933059692,5.891463279724121,6.1745405197143555,4.471870422363281,-7.412951469421387,4.939518928527832,-4.877936840057373,-6.161664962768555,5.784580707550049,4.194588661193848,-1.1890859603881836,3.0434656143188477,-3.410902976989746,0.05238860845565796,-4.151867866516113,-0.6552214026451111,0.10591307282447815,-0.380526065826416,2.2858002185821533,-5.7184576988220215,1.4965698719024658,-0.11160952597856522,7.266226768493652,5.408393383026123,3.4910888671875,-6.6294941902160645,-0.02800532430410385,-2.047842264175415,-3.8864588737487793,-0.13705669343471527,1.6518771648406982,-7.2838616371154785,2.1691884994506836,-4.78000020980835,0.9620633721351624,4.15513801574707,-4.918806552886963,-3.816403388977051,0.370791494846344,3.0814197063446045,-2.071178913116455,1.455077052116394,4.340981960296631,-1.052176594734192,-2.5421717166900635,4.172351837158203,1.9215962886810303,3.0184082984924316,0.22779501974582672,1.9254683256149292,-0.9801545143127441,0.17921975255012512,-3.267090082168579,0.551037073135376,-0.7723348736763,-3.470139503479004,-2.791715145111084,-1.9904108047485352,-3.0472774505615234,-2.3992156982421875,2.5461692810058594,2.858417272567749,-0.5871238708496094,2.0841705799102783,0.7773995399475098,-0.2501080632209778,2.8307526111602783,-3.6831674575805664,1.4570966958999634,2.27846360206604,0.01506856456398964,-0.41994819045066833,-1.4543431997299194,4.3255109786987305,-3.473592519760132,4.00400447845459,6.215719223022461,-0.6523935794830322,-0.21843865513801575,-2.691527843475342,-3.8721158504486084,-3.2029261589050293,2.0025949478149414,3.312115430831909,0.25304409861564636,0.13870391249656677,0.17660437524318695,1.093707799911499,-3.821573495864868,-1.5351625680923462,-0.18338249623775482,-5.549475193023682,0.8239561915397644,0.4377877116203308,2.115647315979004,-4.048172950744629,1.6193815469741821,4.1105194091796875,0.42767757177352905,-1.8454890251159668,-1.4813933372497559,4.4204912185668945,-2.6957554817199707,-1.735543131828308,-2.1460955142974854,-2.7065653800964355,-0.589276909828186,0.09018006175756454,1.9268686771392822,-2.969477653503418,-5.638615608215332,-2.856640577316284,1.1914231777191162,0.6358186602592468,-3.6670289039611816,-2.453389883041382,-0.5215628743171692,-0.2961193025112152,-4.771937847137451,3.7212166786193848,-0.2260901927947998,-1.5657740831375122,-1.7082840204238892,0.7195838093757629,-2.93522572517395,-1.9173979759216309,2.3528497219085693,4.047598838806152,2.3894340991973877,-1.9292585849761963,-2.411663293838501,-0.3918941617012024,-1.7855339050292969,-2.2827603816986084,2.136807680130005,0.31880512833595276,0.549380898475647,-4.2854413986206055,0.10293714702129364,-0.19021177291870117,2.1792972087860107,1.1563444137573242,1.4505538940429688,-3.2750444412231445,1.0409448146820068,-1.9425592422485352,-0.1813344657421112,-2.5351226329803467,4.709428787231445,-4.402493476867676,2.626401901245117,-0.05589289963245392,-1.0593056678771973,2.4560182094573975,-2.549314498901367,-5.395498752593994,2.247231960296631,-1.4306591749191284,-3.0670669078826904,7.572197914123535,-3.7643957138061523,-2.7692887783050537,-1.3230013847351074,-6.853272438049316,5.634593486785889,-6.423894882202148,5.511158466339111,-3.5263729095458984,7.855317115783691,0.4003801643848419,-4.0592217445373535,-0.5980862379074097,0.15703248977661133,4.262869358062744,6.9542927742004395,-2.217426300048828,2.422046184539795,4.896731853485107,-2.115779399871826,1.8853886127471924,2.6982388496398926,-0.06619978696107864,-1.5491001605987549,-1.6483005285263062,-0.5810943841934204,-2.717910051345825,-9.034560203552246,2.7876222133636475,1.5243126153945923,-3.2676894664764404,2.262416124343872,-5.528561115264893,5.950656414031982,0.1443130373954773,-5.653242111206055,3.5496559143066406,6.3218584060668945,7.357510566711426,1.6007856130599976,2.412919044494629,3.1121015548706055,-2.0855133533477783,-2.2468347549438477,-1.614941954612732,-4.18739652633667,-1.9002834558486938,4.463908672332764,-7.95945930480957,2.5144288539886475,-0.24929572641849518,-3.1951887607574463,2.3631479740142822,0.9352090358734131,3.1560983657836914,4.613402366638184,1.2818812131881714,0.8643413186073303,1.272788643836975,-5.390787124633789,0.49456721544265747,1.9492992162704468,1.816778540611267,-2.314359426498413,-0.6815881133079529,9.613862037658691,-4.741679668426514,13.38254451751709,-7.985467433929443,0.8460343480110168,-4.135980129241943,-0.49561750888824463,-0.5782658457756042,-2.0086441040039062,-9.039168357849121,-1.5322691202163696,-12.084797859191895,-11.613761901855469,-0.3840508460998535,0.5379947423934937,-6.595941543579102,5.683308124542236,2.029832124710083,3.193925142288208,2.610917568206787,-1.0408780574798584,10.255457878112793,4.530317306518555,-8.320429801940918,2.982520341873169,-0.7542049884796143,-0.37488457560539246,-14.962380409240723,-2.0640413761138916,0.0482502244412899,-7.885805130004883,-8.625967025756836,-3.2508037090301514,-5.181089878082275,-3.4961097240448,-1.198192834854126,0.19840551912784576,0.9853634238243103,-1.567628264427185,0.7092539668083191,7.783786773681641,-0.6592794060707092,11.42131519317627,-1.5536285638809204,-0.8297949433326721,6.129250526428223,-9.42311954498291,-2.5702641010284424,0.3353089392185211,-2.902503490447998,2.9129302501678467,-7.163512229919434,6.000406742095947,-2.0860581398010254,-5.344393253326416,-6.442033767700195,1.2792747020721436,0.5410405397415161,-3.1210312843322754,-1.833358645439148,1.297589659690857,-0.8777625560760498,4.948453426361084,-5.379195213317871,-4.308748722076416,-4.041678428649902,3.4037158489227295,3.9276037216186523,1.2397502660751343,4.854697227478027,5.551216125488281,0.27261343598365784,-6.46293306350708,-2.8266894817352295,1.0765661001205444,-2.529425621032715,1.9336836338043213,-5.377765655517578,-9.994505882263184,8.948601722717285,-0.7659305930137634,-3.2814486026763916,0.5091342329978943,-10.511688232421875,5.542963027954102,-5.56831169128418,1.9864575862884521,1.7042397260665894,-2.9637038707733154,-2.05855131149292,-0.4623464345932007,-2.2179651260375977,-5.754380226135254,11.54873275756836,-1.4462714195251465,-6.419079780578613,-7.214771747589111,3.306856155395508,-9.96074390411377,-9.475324630737305,4.168033123016357,0.6550329923629761,-2.4193129539489746,-0.08690395951271057,-11.077585220336914,3.1788790225982666,-4.0704474449157715,5.098095893859863,0.8905143737792969,-4.183573246002197,3.382523536682129,-0.9307348728179932,-5.275245666503906,2.166558265686035,-0.4677884876728058,-0.10454975813627243,-2.0579800605773926,-3.790678024291992,0.37866756319999695,-2.118195056915283,2.4884557723999023,-4.444231986999512,-3.1346442699432373,2.813680648803711,1.1468440294265747,-0.20939338207244873,-3.9936909675598145,-3.8933889865875244,0.5660251975059509,-2.964893102645874,-2.0150880813598633,2.222529172897339,1.5983818769454956,0.8024793863296509,-3.265305519104004,3.9831409454345703,-3.248821258544922,-1.7042303085327148,3.686018466949463,2.6818692684173584,-1.5732765197753906,-0.1555362194776535,-1.009394645690918,0.04755255579948425,-1.8583605289459229,-1.964324712753296,-3.4478468894958496,-0.7423025369644165,-0.22467119991779327,-4.383700847625732,-0.16266058385372162,0.9237971901893616,2.8076298236846924,-0.0924636721611023,0.8398081064224243,-4.516692638397217,3.571444034576416,-0.3684457540512085,-2.2742788791656494,-3.5044331550598145,6.145480155944824,-4.439205646514893,2.5124831199645996,-1.234588623046875,-1.2082927227020264,1.8547898530960083,-2.3846633434295654,-4.69213342666626,1.14937162399292,-1.6336796283721924,0.7309267520904541,1.8346487283706665,9.058737754821777,-1.193373441696167,-0.5382083654403687,7.575425148010254,4.057778835296631,7.64995813369751,-5.478962421417236,4.362111568450928,-5.167821884155273,-4.341343879699707,-2.1186296939849854,-3.7567930221557617,9.365269660949707,-9.138102531433105,-10.29784870147705,-2.021761417388916,-5.72578763961792,-3.874818801879883,2.9154469966888428,2.219879627227783,-6.373667240142822,6.5289130210876465,8.150736808776855,-1.4678746461868286,-1.4688383340835571,3.524547815322876,5.565408229827881,-7.896369457244873,-9.57221794128418,3.7489511966705322,0.04292109236121178,11.607403755187988,-4.001744270324707,2.924478054046631,4.450705051422119,-6.809360980987549,0.01070755161345005,-7.9212799072265625,-3.6951229572296143,-0.5518224835395813,0.5999592542648315,5.222756862640381,8.409555435180664,9.023152351379395,1.6703828573226929,18.19353485107422,-6.693650722503662,9.112403869628906,-0.07555946707725525,-9.149908065795898,4.95817756652832,-6.410122394561768,-3.1691553592681885,-1.8493658304214478,5.109958648681641,2.2200303077697754,-8.35606575012207,-2.450533866882324,-1.5727776288986206,3.496422290802002,0.02910647913813591,-2.8314807415008545,2.313966751098633,-0.20978623628616333,-0.6005262136459351,-0.6352786421775818,0.6372213959693909,-2.6607725620269775,1.3094826936721802,-1.325582504272461,3.2537431716918945,1.9920352697372437,-2.7998604774475098,0.06828480958938599,-1.5319856405258179,0.4949691593647003,-1.6341053247451782,6.302473545074463,3.2624592781066895,1.551591157913208,-0.550194263458252,0.3308745324611664,-0.40366047620773315,0.18163229525089264,0.5343431234359741,5.1223883628845215,2.401684522628784,3.016389846801758,-0.8248629570007324,-1.8748289346694946,1.7720032930374146,-0.8293756246566772,0.7112799286842346,2.477792501449585,1.1521652936935425,-0.683456301689148,-1.558569073677063,0.3508000373840332,-0.4521031379699707,2.4323017597198486,6.162975788116455,-2.476423501968384,3.2372138500213623,-1.0111682415008545,-1.9597703218460083,0.18019282817840576,-1.1573288440704346,-2.6855592727661133,-1.8205323219299316,-2.1174473762512207,1.7980928421020508,3.7592756748199463,-1.2859106063842773,-0.41902434825897217,1.9251903295516968,2.136284351348877,1.0614638328552246,4.770566463470459,-5.023382186889648,0.19961299002170563,-1.1250282526016235,-2.5193188190460205,-5.776971340179443,2.302497386932373,2.374746084213257,-3.4189155101776123,4.910111427307129,1.8304873704910278,0.9279146790504456,-6.957431793212891,-7.41521692276001,4.290090560913086,-2.8031229972839355,5.165065288543701,-3.1872732639312744,3.5827605724334717,-5.962080955505371,-3.837399959564209,0.6639177203178406,1.9969990253448486,-5.105521202087402,1.7049273252487183,-0.5216721296310425,-1.5994927883148193,-1.7140525579452515,0.7280437350273132,-2.269073247909546,0.9907633662223816,6.148643493652344,-1.2656011581420898,6.088026523590088,-3.3864076137542725,-4.7009172439575195,-1.0577030181884766,5.51021146774292,8.410198211669922,4.37715482711792,-1.0861226320266724,-3.88777232170105,-4.7919020652771,-0.16434833407402039,-8.265406608581543,-0.10059229284524918,3.5443379878997803,5.331308841705322,-7.999271392822266,7.635646343231201,4.338400840759277,0.4803978502750397,-1.0203341245651245,-5.384692192077637,7.122270107269287,-4.150613784790039,-3.24115252494812,-1.6535998582839966,-0.0101868761703372,0.15703782439231873,0.531855583190918,-4.827767848968506,-0.37617185711860657,0.15517404675483704,-2.7502262592315674,-2.110746383666992,-0.00734296441078186,0.6881107091903687,0.1661113053560257,-1.4327143430709839,-3.392653703689575,-4.256059646606445,1.3023309707641602,-1.3556573390960693,1.0022952556610107,2.105844736099243,0.9642409086227417,-1.4750251770019531,-0.911381721496582,1.511748194694519,0.9693257212638855,-1.9364471435546875,0.828604519367218,-1.6769381761550903,-3.7568740844726562,3.0197787284851074,-0.14614103734493256,1.6913317441940308,-0.37287652492523193,-4.432159900665283,5.422680377960205,0.267831414937973,1.8992691040039062,2.8748490810394287,-1.1663917303085327,1.3741369247436523,-1.8896723985671997,-0.9580878019332886,-2.0198681354522705,3.15783429145813,1.915460467338562,-1.401417851448059,-1.4443765878677368,1.7995731830596924,-5.033515930175781,-2.071367025375366,-0.2806510329246521,-0.3073666989803314,-1.640998363494873,-2.02240252494812,-3.457818031311035,1.8071237802505493,-0.9842016696929932,-1.475746512413025,-0.7984893918037415,1.249842643737793,3.139993190765381,2.115018367767334,-4.116664409637451,-0.8024932742118835,0.4226093292236328,2.3667361736297607,0.05881918594241142,-3.2771096229553223,-1.338597297668457,-5.601967811584473,0.618274450302124,-5.4424567222595215,0.1610538363456726,1.7104251384735107,-1.0339516401290894,5.864185333251953,-2.209571361541748,0.26573359966278076,-0.015139465220272541,2.041144609451294,1.2681885957717896,4.064798355102539,-1.2877120971679688,-0.46858692169189453,-2.5598692893981934,1.8180649280548096,-1.3623520135879517,-4.742507457733154,3.8198156356811523,-1.1278685331344604,-3.445481538772583,-1.9499975442886353,-1.7462114095687866,0.7566191554069519,-1.1019775867462158,-0.11398559808731079,-2.8132996559143066,-1.6014208793640137,-0.8059400320053101,-1.444240689277649,-2.716172695159912,-0.1879916787147522,4.660032749176025,-0.929212212562561,-1.008973240852356,0.15935124456882477,6.430531978607178,-0.42198657989501953,-0.9601414203643799,-1.895856499671936,2.1928465366363525,-6.964743137359619,1.3583121299743652,-0.3343326151371002,-1.0055207014083862,-0.23216146230697632,-1.126613974571228,-5.558278560638428,-1.6603293418884277,-1.0995798110961914,-1.6552010774612427,-3.6456828117370605,-0.02008126489818096,-1.3026535511016846,-0.18136556446552277,-0.26411110162734985,-3.980868101119995,0.5607269406318665,-3.6904501914978027,3.080868721008301,-1.3079571723937988,-2.8858566284179688,-2.3946478366851807,-0.7165389060974121,2.904752731323242,-1.4355939626693726,0.9170705080032349,1.0790530443191528,-0.9443779587745667,0.580952525138855,2.5603907108306885,2.269547462463379,-3.12199330329895,-0.5801674723625183,2.343416690826416,-2.8575685024261475,-0.12517814338207245,1.8576924800872803,2.8284189701080322,1.8334600925445557,-2.8547098636627197,-3.17032527923584,2.826746940612793,0.9618759155273438,-1.0434770584106445,1.0770885944366455,1.7027782201766968,-0.8851568698883057,-2.925013542175293,-2.810628890991211,-3.5024349689483643,3.122345209121704,3.062908411026001,0.531984806060791,-3.149582624435425,2.0679731369018555,-3.9942004680633545,-0.9636590480804443,-0.23711857199668884,0.7723066210746765,-3.054805278778076,-4.319616317749023,2.2725765705108643,-2.733506441116333,-0.6412526369094849,-2.927887201309204,-4.6736555099487305,2.011183500289917,-2.3333990573883057,-2.0925276279449463,6.607067584991455,0.09828539192676544,-2.729264497756958,-1.7230709791183472,-1.5417412519454956,-3.50295352935791,-1.4251784086227417,-1.1846812963485718,-1.7281391620635986,3.5517752170562744,-1.6827166080474854,1.7568639516830444,-3.4855103492736816,-0.1011199951171875,0.4632871747016907,1.4748603105545044,1.949324131011963,2.6837801933288574,4.331481456756592,-0.044602010399103165,0.40800392627716064,-2.2926368713378906,-2.2067461013793945,-1.7335052490234375,-2.387075185775757,-0.08574448525905609,2.204643487930298,-0.3292236924171448,-0.4626324474811554,1.0871621370315552,-2.5674309730529785,3.7886264324188232,-2.835926055908203,4.443942546844482,-0.7534250617027283,0.39182260632514954,2.5968117713928223,2.70470929145813,2.5581002235412598,2.64227294921875,2.3949697017669678,0.6603462100028992,-0.47510284185409546,-0.9413685202598572,-0.7166845798492432,-2.1417958736419678,-3.151639223098755,2.7274203300476074,-3.8577260971069336,2.691444158554077,1.9808255434036255,2.3842508792877197,0.8205199837684631,1.755171298980713,1.9632595777511597,-2.3345587253570557,-1.5966227054595947,-0.8845059275627136,-1.4078028202056885,4.821394443511963,2.2384543418884277,-0.0514267235994339,-4.577336311340332,1.131460428237915,0.4036737084388733,3.4506235122680664,-4.2428388595581055,0.6221258044242859,-0.7454816102981567,-1.9884848594665527,-0.24857746064662933,2.4286978244781494,3.1385951042175293,0.6009505987167358,-3.966581344604492,0.06495282053947449,-4.360314846038818,-2.0514957904815674,2.9361114501953125,0.796509325504303,-3.0826406478881836,2.4718780517578125,-0.6818538308143616,1.007429838180542,5.433959007263184,-4.02498722076416,4.04460334777832,0.720905065536499,1.440073013305664,1.1062111854553223,-5.557116985321045,5.305371284484863,-1.995416522026062,1.6524778604507446,3.945218086242676,-0.9344122409820557,2.5829169750213623,-2.819718360900879,0.09338560700416565,-2.04848575592041,-0.138922318816185,3.7637617588043213,-0.2589646875858307,0.7986136674880981,4.129605770111084,1.1466234922409058,0.01328138168901205,2.113600492477417,2.991732120513916,-0.6094624996185303,5.795705795288086,-3.516359567642212,5.455204963684082,1.2274664640426636,-2.4559643268585205,0.040268998593091965,-2.1164181232452393,-6.965593338012695,2.58432936668396,10.45357894897461,-6.783840179443359,-8.138810157775879,8.863773345947266,5.841334342956543,-2.2906739711761475,-11.173651695251465,8.932991981506348,-15.552873611450195,-7.7404093742370605,-7.837589740753174,-5.095478057861328,9.49650764465332,-11.429093360900879,-8.753304481506348,-1.8679970502853394,-6.938895225524902,-9.474745750427246,13.391630172729492,9.586386680603027,-8.400911331176758,3.3894739151000977,7.854023456573486,-6.934256076812744,4.518727779388428,-7.0006842613220215,7.844817161560059,8.984297752380371,-6.775982856750488,-7.078078746795654,3.6446685791015625,-13.383115768432617,-16.469980239868164,8.953200340270996,11.225909233093262,11.021812438964844,-14.921728134155273,-12.24988079071045,-9.181048393249512,11.125709533691406,8.145570755004883,8.561009407043457,-10.426822662353516,16.08970069885254,-8.599716186523438,5.374644756317139,-10.61638355255127,13.02270793914795,-12.945322036743164,-8.545184135437012,5.454925060272217,-7.383872985839844,10.090058326721191,-10.4655179977417,5.914487838745117,9.212465286254883,-4.2773237228393555,0.5173451900482178,0.6815663576126099,-1.9294241666793823,-0.5438070893287659,0.8747970461845398,-2.9285595417022705,-0.9210606813430786,-2.675082206726074,2.912216901779175,-3.486367702484131,3.4894237518310547,1.6128957271575928,1.2658501863479614,0.4396458864212036,-2.0586981773376465,3.3981571197509766,4.857729911804199,-1.6518391370773315,3.5738344192504883,3.497921943664551,-2.1637372970581055,-1.2476025819778442,-0.9438230991363525,0.761593759059906,-3.5215420722961426,0.7207292914390564,-0.20900854468345642,-0.8995152115821838,-3.3529863357543945,1.2153770923614502,0.8756626844406128,-0.904316782951355,-1.1540625095367432,-4.511696815490723,2.5984787940979004,-1.091544270515442,-1.8978278636932373,0.6633778810501099,1.7746527194976807,3.2728376388549805,2.6566736698150635,1.3253575563430786,-1.3307983875274658,-2.1834187507629395,-1.3751460313796997,-3.4362146854400635,-0.8241021633148193,-1.4950028657913208,3.8648183345794678,-4.287905693054199,2.6800954341888428,1.3214101791381836,-1.0391840934753418,2.4041085243225098,-0.4218500256538391,3.9783828258514404,-0.44705837965011597,-1.96366286277771,2.402618646621704,0.556243896484375,-4.609556674957275,0.6839902400970459,0.5635703802108765,-0.8579142093658447,-0.710483968257904,-3.5889382362365723,-2.1538727283477783,-1.498287558555603,-3.005112886428833,-1.830790400505066,4.926192283630371,4.489694118499756,7.152700424194336,-0.5854434370994568,-0.05975347012281418,1.1066759824752808,0.1457095891237259,2.496372938156128,0.5878051519393921,2.695992946624756,0.22370687127113342,3.077143430709839,-2.3506107330322266,-2.1514437198638916,0.19142068922519684,-0.635517418384552,4.3803534507751465,0.8821030259132385,0.42501533031463623,3.0185225009918213,1.0107756853103638,-1.8740116357803345,-1.7190475463867188,-1.2007895708084106,-3.9549314975738525,2.9171478748321533,-0.0333256796002388,-0.994262158870697,2.65866756439209,1.6677556037902832,1.1539335250854492,-1.7927658557891846,2.039127826690674,-0.5351030826568604,-1.3852084875106812,1.2060366868972778,-4.165798664093018,0.28495121002197266,0.5370441675186157,-0.5944317579269409,0.7493897080421448,-6.411681175231934,5.001087665557861,3.4197769165039062,1.0429580211639404,-6.155803680419922,-0.6292509436607361,5.35830020904541,6.305400848388672,-1.308229923248291,-5.64112663269043,-2.4859867095947266,6.330410957336426,-1.1412025690078735,0.22769252955913544,-1.12255859375,3.126171588897705,-3.145383596420288,0.5850207805633545,-2.609313726425171,4.5438456535339355,-3.1738529205322266,-4.844598293304443,4.153390407562256,0.15105360746383667,4.232186317443848,3.6343894004821777,3.972156524658203,-5.736415386199951,-4.861135005950928,1.2692867517471313,-1.9458796977996826,-4.22351598739624,-2.4582228660583496,-4.024101257324219,6.843266010284424,-0.8075860738754272,-4.752640247344971,1.807649850845337,-2.1901187896728516,2.859790325164795,-1.844606876373291,-0.1975913792848587,-4.573459148406982,-2.2659268379211426,0.6697382926940918,3.015239953994751,2.0953471660614014,3.362574577331543,2.8750393390655518,-5.874118804931641,-6.173492431640625,-2.721151351928711,-4.769416332244873,-2.7927169799804688,-3.654980421066284,5.083807945251465,-0.6371151804924011,3.7296407222747803,4.239182949066162,-2.544355630874634,4.33158540725708,-6.047592639923096,5.727613925933838,0.08518996089696884,-4.293886661529541,1.7357319593429565,-2.67450213432312,1.5730643272399902,2.002892255783081,-6.961174011230469,-1.3166383504867554,2.249645709991455,-6.41928768157959,1.5339491367340088,-5.269089221954346,0.6909940838813782,-7.8393025398254395,-1.297741174697876,8.491930961608887,3.942487955093384,5.851234436035156,-2.700108766555786,-5.2541422843933105,6.739675045013428,-3.426170587539673,0.33301687240600586,3.2435317039489746,2.2314560413360596,-2.6107215881347656,-1.8706022500991821,3.6552014350891113,-10.04179859161377,-1.9472274780273438,5.823360443115234,2.2506027221679688,-1.993671178817749,0.45900288224220276,-6.915016174316406,-0.9156761765480042,4.650599479675293,3.492518663406372,-10.205955505371094,0.4306895136833191,2.608945846557617,0.7084118723869324,3.0210816860198975,6.586498737335205,7.234431266784668,3.810603141784668,1.4449901580810547,-4.172126770019531,5.0305657386779785,-3.5704169273376465,4.982669830322266,-0.5403473377227783,1.940495252609253,-0.804589033126831,8.714479446411133,6.290192127227783,-2.475595474243164,1.2877389192581177,-2.9245717525482178,-14.181243896484375,-1.8743149042129517,-2.4386115074157715,0.526795506477356,3.7548086643218994,0.8758422136306763,-11.542573928833008,-1.0777881145477295,1.7196731567382812,-1.9339536428451538,-0.9296519756317139,0.8032647967338562,2.923766851425171,-2.8103225231170654,-4.710094928741455,-5.235609531402588,-6.5485310554504395,-0.1423128843307495,-1.0670965909957886,-0.06685789674520493,4.576782703399658,-0.4779033064842224,-1.6184481382369995,-2.0297441482543945,2.9695074558258057,-0.21786144375801086,-1.8396440744400024,2.340744733810425,-4.442481517791748,-1.8256996870040894,2.396756410598755,1.275858998298645,2.2820687294006348,0.5274175405502319,-8.522632598876953,5.772690773010254,5.0385894775390625,1.0550543069839478,5.050813674926758,-0.7831410765647888,0.5428086519241333,-3.0364432334899902,-2.870938539505005,-4.006313323974609,3.007308006286621,3.364603281021118,-0.8436299562454224,-4.085360050201416,2.7132742404937744,-9.694371223449707,-3.3633477687835693,0.1344975233078003,-1.2817134857177734,-1.5348703861236572,-1.042849063873291,-2.1416449546813965,0.634041428565979,-6.035148620605469,-3.498788833618164,-0.2905067801475525,2.3896100521087646,0.7365828156471252,26.24441146850586,-12.707032203674316,-12.410684585571289,-12.200977325439453,13.360485076904297,12.452141761779785,-11.982741355895996,11.847464561462402,0.16991855204105377,-6.062305927276611,-11.29746150970459,15.646608352661133,-0.2866370379924774,-25.319734573364258,2.413806438446045,3.6983559131622314,-12.763412475585938,3.758213996887207,-5.032680034637451,12.21351146697998,12.364242553710938,-2.7524402141571045,-20.81508445739746,10.683175086975098,-0.45813366770744324,14.222113609313965,-1.0382493734359741,-8.631340980529785,6.801208019256592,13.620340347290039,-17.754375457763672,2.6234211921691895,11.94849967956543,7.517096996307373,2.589933395385742,1.4860988855361938,-6.077321529388428,-23.227603912353516,-12.14894962310791,2.445795774459839,-2.636234998703003,-1.9687036275863647,-4.241450309753418,-11.899727821350098,0.9484251737594604,11.72057056427002,2.529942512512207,-1.0420124530792236,8.687317848205566,-1.550538182258606,-8.528228759765625,4.468847274780273,0.15309764444828033,-22.083826065063477,-26.984066009521484,7.8897624015808105,3.9274373054504395,-12.148774147033691,-23.945005416870117,3.262803077697754,-3.830319881439209,-3.713914632797241,-3.718270778656006,4.311410427093506,-4.83703088760376,-0.2753140926361084,-3.293243646621704,7.340421676635742,-1.4144399166107178,3.658472776412964,0.6736117005348206,-4.57050085067749,-7.903622150421143,-2.154914379119873,2.304903507232666,3.740813732147217,2.131532907485962,3.031684398651123,2.733809471130371,-5.397104263305664,-0.9610982537269592,7.004471302032471,-3.099062442779541,-1.4027243852615356,-0.3519880473613739,-5.676563739776611,-2.257646322250366,-8.902539253234863,1.0218443870544434,1.0742483139038086,-1.1083382368087769,11.28167724609375,-6.604745864868164,3.8135552406311035,-1.4663593769073486,-8.046424865722656,-0.48504140973091125,0.2991388440132141,4.514533996582031,0.5242724418640137,0.46184250712394714,-1.2106175422668457,-3.9494080543518066,-0.10584742575883865,-1.3220480680465698,-4.619313716888428,-1.6763280630111694,1.974353551864624,-2.886422872543335,-1.7263896465301514,1.2126940488815308,-6.267353057861328,8.709760665893555,-8.429842948913574,1.226548194885254,-0.35601553320884705,1.0753905773162842,5.1685357093811035,4.003452777862549,-4.1027936935424805,14.728936195373535,-7.647059440612793,-14.13400936126709,1.1718127727508545,-3.285655975341797,-5.417222023010254,-1.6644877195358276,1.6746832132339478,-2.0980608463287354,-9.383138656616211,-9.870671272277832,12.90545654296875,-2.1566317081451416,-6.48575496673584,-1.7104560136795044,-8.645750045776367,-5.831537246704102,-15.989869117736816,1.0760297775268555,1.7393234968185425,3.13920259475708,-2.8544352054595947,-3.1516616344451904,-3.5831480026245117,-0.6882182955741882,-0.34105536341667175,11.546454429626465,12.407634735107422,-0.7298205494880676,-1.4366414546966553,-10.602473258972168,2.976425886154175,-5.177554607391357,10.662103652954102,11.879323959350586,0.4953790307044983,-5.821197509765625,-1.7178573608398438,-7.931205749511719,1.5116395950317383,6.233036041259766,10.2210693359375,-2.79263973236084,5.624501705169678,-2.1791906356811523,-1.8489315509796143,-7.699052333831787,9.04366683959961,-2.5891506671905518,-6.199528217315674,-1.5256420373916626,5.134694576263428,13.903875350952148,-8.017183303833008,-5.9132466316223145,10.601153373718262,-1.0578556060791016,22.463090896606445,22.852853775024414,-18.253210067749023,-4.0445027351379395,3.314249038696289,-22.16863441467285,-2.790273666381836,-10.8660888671875,19.33983039855957,-16.08170509338379,16.743593215942383,-19.09540557861328,-2.852341413497925,-22.61761474609375,-20.789154052734375,17.840930938720703,15.497506141662598,4.6475677490234375,15.343568801879883,15.142988204956055,-23.047714233398438,-5.697353363037109,20.88775634765625,-6.020590782165527,-18.330209732055664,-3.8602683544158936,-3.6725494861602783,4.577186107635498,5.082374572753906,-2.9672961235046387,0.24386849999427795,-3.229515314102173,8.863144874572754,-8.555875778198242,14.921083450317383,-6.114738941192627,-22.270925521850586,6.803858757019043,17.910858154296875,8.40007495880127,19.85293960571289,2.3190388679504395,-2.947448968887329,-22.04076385498047,1.9082227945327759,1.0125480890274048,-3.964400291442871,-12.857383728027344,15.702588081359863,-15.892476081848145,23.888385772705078,22.50179672241211,-3.0117733478546143,12.56262493133545,-1.573697566986084,21.647096633911133,-1.0304408073425293,-23.20620346069336,-2.493896007537842,10.735946655273438,-10.901687622070312,-8.627036094665527,11.464532852172852,2.8593809604644775,2.1960134506225586,14.993637084960938,5.637659549713135,-0.03859861195087433,-1.9517261981964111,-4.123565673828125,12.153665542602539,-0.07257664948701859,5.106564998626709,-8.510087966918945,2.1919620037078857,-2.027895450592041,-18.40152359008789,-3.744204521179199,-7.380606174468994,3.136242389678955,-1.9983118772506714,-2.7249224185943604,4.276017189025879,3.6975934505462646,13.373797416687012,13.601444244384766,-14.240865707397461,6.053741455078125,1.0887188911437988,-7.757709980010986,12.989108085632324,-9.277352333068848,7.1859130859375,-2.2021939754486084,-5.397446155548096,-3.1288247108459473,2.4323067665100098,-1.2173316478729248,0.979686975479126,2.074042797088623,-13.331263542175293,-2.175274133682251,-7.0681986808776855,3.4024789333343506,0.43284279108047485,9.799871444702148,1.2187036275863647,1.443919062614441,1.213728427886963,0.2655865550041199,2.8882455825805664,8.682635307312012,1.2090271711349487,-1.2549967765808105,3.5884268283843994,11.76331615447998,-3.0725104808807373,-10.106110572814941,8.522904396057129,-1.29219651222229,3.191464424133301,12.921341896057129,3.9575791358947754,5.5171308517456055,-11.738200187683105,2.5921530723571777,-0.7286383509635925,-5.058720111846924,-4.394021987915039,13.313745498657227,15.841165542602539,2.0555315017700195,-10.286904335021973,-0.6523219347000122,-4.380583763122559,6.43445348739624,4.142062664031982,-1.0292950868606567,0.767462432384491,-6.596497058868408,0.5424175262451172,1.0994447469711304,-11.573816299438477,10.416863441467285,10.83044719696045,5.779766082763672,0.7169749736785889,-14.633838653564453,-0.5043542385101318,11.199926376342773,-2.6410257816314697,4.283010959625244,-2.0864460468292236,-14.916034698486328,5.683635711669922,-8.070596694946289,0.9452911615371704,-0.4413056969642639,12.05976676940918,-9.376562118530273,-13.20816421508789,-0.057070761919021606,10.822564125061035,-2.9305167198181152,12.915826797485352,-3.5276029109954834,-2.9434382915496826,1.8367387056350708,3.898568868637085,13.603891372680664,-1.6187365055084229,0.7107669115066528,0.7059857845306396,-2.6938018798828125,-17.93118667602539,-7.7301249504089355,0.614322304725647,1.8962223529815674,0.05688183754682541,-1.9352078437805176,-1.2733612060546875,1.6541858911514282,-3.9009456634521484,-0.5766707062721252,-3.1630263328552246,3.55490779876709,0.4208924174308777,1.649701476097107,-0.4837301969528198,0.08020958304405212,-3.6869568824768066,-0.12704859673976898,1.1410473585128784,3.3928494453430176,2.4016220569610596,-0.7706925868988037,0.8390190005302429,-2.516186237335205,-0.19902370870113373,1.1139453649520874,-0.2364620715379715,-0.40093088150024414,-0.38334301114082336,-2.23838472366333,2.293372631072998,-3.6708295345306396,-2.028766393661499,0.46682050824165344,-1.1206928491592407,4.538966655731201,-2.6456241607666016,1.555445671081543,0.009239930659532547,-2.959453821182251,1.5515737533569336,1.1425702571868896,1.6075477600097656,0.4965987205505371,1.2937252521514893,-0.0836474671959877,-1.9217792749404907,-1.2796542644500732,-0.16615724563598633,-1.477432131767273,-2.113781690597534,0.8506782054901123,-2.744433641433716,-0.7789308428764343,1.6229248046875,-3.7312724590301514,0.8750550150871277,-3.6406781673431396,2.4777913093566895,0.9035545587539673,-0.2679370641708374,0.9723584651947021,21.478214263916016,-19.543556213378906,-21.418258666992188,-2.385902166366577,18.22620964050293,1.1061931848526,-3.4520609378814697,6.558337688446045,10.57498550415039,4.9007673263549805,17.29118537902832,-0.25531989336013794,5.232478618621826,-9.379323959350586,-7.918229103088379,11.489019393920898,-3.7828762531280518,2.927244186401367,-1.1273372173309326,11.500113487243652,-18.842134475708008,-12.704607963562012,-6.259089469909668,7.190971374511719,-7.229235649108887,0.03407341614365578,-12.273982048034668,-3.3126001358032227,-14.34057331085205,-10.488509178161621,-7.049851894378662,1.6266744136810303,17.053651809692383,0.9189469218254089,-6.225920677185059,-0.2843814194202423,-13.555301666259766,-6.196881294250488,-6.98089599609375,-5.515015602111816,0.3559858202934265,-3.300814628601074,-16.72749137878418,-22.26949691772461,-1.8838448524475098,-7.814335346221924,-2.079646110534668,1.9547746181488037,10.805290222167969,-2.2720391750335693,2.35538911819458,5.287333965301514,3.3885114192962646,-5.529685020446777,-6.240380764007568,14.098264694213867,-1.9771463871002197,-9.4695405960083,-6.528705596923828,16.91301727294922,-6.792342185974121,-9.161543846130371,5.112532615661621,12.607314109802246,2.248544692993164,-4.936651706695557,4.256979942321777,6.186951160430908,1.2558717727661133,2.6455843448638916,12.853860855102539,8.285069465637207,-8.44202709197998,-13.07976245880127,2.94473934173584,-4.765293598175049,8.215421676635742,-4.202457427978516,0.5518640279769897,-19.18663215637207,-10.615018844604492,0.657773494720459,9.752843856811523,-6.695879936218262,8.449036598205566,7.392331123352051,-7.246087074279785,-1.9412329196929932,-4.43674898147583,-3.7282001972198486,12.63901424407959,1.146140217781067,5.4552788734436035,-3.017733335494995,-8.607134819030762,-1.7431074380874634,-6.948970794677734,3.571821928024292,-3.7831974029541016,6.7637810707092285,-8.619221687316895,-11.902423858642578,-11.927592277526855,7.918457508087158,-4.628120422363281,7.058394908905029,9.013014793395996,2.139139413833618,3.9817402362823486,18.4502010345459,8.701756477355957,-0.4496711194515228,-0.8734642267227173,-8.043667793273926,13.417011260986328,5.979302406311035,-12.905571937561035,-1.0731559991836548,6.991973876953125,2.6071040630340576,-8.454529762268066,27.96827507019043,7.218893527984619,-4.527092933654785,32.69586181640625,-6.35681676864624,-12.206557273864746,-8.175293922424316,29.195844650268555,30.62136459350586,-6.632922172546387,14.38675594329834,-9.770055770874023,29.660921096801758,5.579144477844238,-32.8844108581543,6.31187629699707,29.505191802978516,-9.814051628112793,-5.787420272827148,10.022073745727539,4.208697319030762,-4.466509819030762,30.491121292114258,29.732803344726562,-30.18779182434082,-30.995779037475586,-24.399429321289062,3.539215564727783,28.14598846435547,-15.435120582580566,-5.358154773712158,7.699411869049072,-8.277734756469727,-8.55060863494873,0.423689067363739,29.775455474853516,8.118566513061523,6.4107985496521,-30.180824279785156,-7.018680095672607,-6.314202308654785,30.858747482299805,13.178403854370117,25.034412384033203,-10.430500030517578,6.043618202209473,-7.846989154815674,6.430208206176758,4.009304523468018,11.79567813873291,7.872133731842041,-8.916977882385254,-13.724573135375977,31.638748168945312,-2.301440715789795,7.281942367553711,6.866405010223389,-2.7852346897125244,-9.365331649780273,5.519537925720215,10.64050006866455,-5.285496234893799,-4.038956642150879,-5.607682228088379,5.633921146392822,-8.543133735656738,7.562340259552002,-4.226066589355469,-1.2828255891799927,-9.781400680541992,-7.508039951324463,8.590381622314453,4.666993618011475,7.232170581817627,7.538060188293457,10.412989616394043,-10.672834396362305,-4.225719451904297,5.4074387550354,5.564780235290527,-7.295865535736084,4.8420090675354,-4.41538667678833,6.159518241882324,-10.788992881774902,-9.018083572387695,-6.265844345092773,5.8324198722839355,5.968842029571533,-6.30557107925415,8.344596862792969,-5.773786544799805,-7.505926132202148,-3.755424976348877,7.5967864990234375,6.371617794036865,8.011165618896484,-4.197649955749512,-8.109108924865723,-8.447248458862305,11.365789413452148,-6.875534534454346,-5.863195419311523,-3.792954444885254,9.007014274597168,-6.757974624633789,7.459851264953613,7.080558776855469,-3.594283103942871,4.812960624694824,-12.560893058776855,9.294422149658203,-4.503711223602295,-11.291997909545898,5.596761703491211,-15.68591022491455,-9.94440746307373,11.40296745300293,0.08868681639432907,-11.893453598022461,16.380990982055664,3.668738603591919,4.255687713623047,-4.110162734985352,3.0633063316345215,-4.920562267303467,7.953361511230469,-2.722572088241577,9.425145149230957,8.63876724243164,-12.476338386535645,-2.968482255935669,-8.351805686950684,-3.971039295196533,-4.5762248039245605,6.754140377044678,12.521208763122559,4.979585647583008,-3.4178225994110107,5.387297630310059,-1.5920060873031616,-5.053665637969971,4.076334476470947,14.138588905334473,6.760375022888184,7.206771373748779,-1.9063422679901123,-8.266768455505371,12.037692070007324,-4.257413864135742,0.07287529110908508,16.329463958740234,2.434544086456299,-6.516292095184326,-6.688694477081299,-4.247030735015869,6.473621368408203,9.509148597717285,8.510967254638672,-3.7090065479278564,15.042917251586914,-4.531602382659912,-9.149503707885742,-4.9375104904174805,2.9328866004943848,-6.192245960235596,-12.302140235900879,-6.422262668609619,7.439643859863281,13.373722076416016,-4.083959102630615,-15.152022361755371,5.004781723022461,7.627264976501465,-8.849211692810059,-6.022482395172119,9.06386661529541,5.277955055236816,-11.064872741699219,6.199399471282959,5.3590779304504395,5.90569543838501,-6.792459487915039,6.633960723876953,-7.294548988342285,5.960169315338135,-9.298139572143555,7.457976341247559,6.430644989013672,-8.840575218200684,-5.717561721801758,-6.800075054168701,-5.945921421051025,-8.560676574707031,8.959964752197266,9.987649917602539,-6.770270824432373,6.945134162902832,6.366673469543457,5.822649002075195,3.9472081661224365,-5.616860389709473,7.114628791809082,9.915751457214355,-6.168969631195068,4.201647758483887,-6.799868106842041,5.990965843200684,-6.456353187561035,9.057526588439941,10.380417823791504,-6.480036735534668,-9.762858390808105,-5.798166275024414,-6.2259521484375,-5.227164268493652,10.519272804260254,9.712965965270996,2.2771410942077637,5.710063457489014,5.009039402008057,6.2021803855896,-7.751082897186279,5.818386077880859,-8.899712562561035,-6.9261088371276855,5.36631965637207,-6.367421627044678,-1.9277006387710571,-8.048210144042969,5.5584025382995605,10.395764350891113,-5.961222171783447,3.227059841156006,8.756030082702637,-7.231966495513916,15.218018531799316,3.6841018199920654,16.944400787353516,11.979811668395996,-9.470850944519043,13.683618545532227,-22.63170051574707,25.50923728942871,17.52448272705078,21.26788902282715,16.30446434020996,10.048077583312988,24.685209274291992,13.196341514587402,2.5556938648223877,18.56822395324707,2.6101014614105225,-4.074429512023926,0.15394707024097443,-1.9324206113815308,5.62378454208374,-27.19944953918457,20.26451873779297,17.003849029541016,3.637336015701294,-19.190258026123047,-10.734565734863281,1.0111814737319946,-5.50178337097168,-15.412259101867676,15.502130508422852,11.515538215637207,-1.0748379230499268,7.238310813903809,6.3584723472595215,12.98294734954834,13.323431968688965,23.351770401000977,-13.438023567199707,-6.762117862701416,-8.458480834960938,3.9975497722625732,-11.363176345825195,10.681929588317871,-20.196901321411133,8.191069602966309,-18.64293670654297,21.764047622680664,17.646345138549805,-6.647655010223389,3.88751482963562,10.95915412902832,3.8434221744537354,-0.8674218654632568,-3.841491937637329,3.3952791690826416,13.884835243225098,10.2258882522583,-13.865386009216309,-3.8640189170837402,-0.5111495852470398,-0.5031057596206665,-15.400548934936523,-0.46551138162612915,-0.11157572269439697,-14.36087703704834,13.418464660644531,12.638542175292969,13.123944282531738,-13.320219993591309,-14.256462097167969,13.186532974243164,0.014662065543234348,13.156928062438965,0.35977116227149963,14.086508750915527,-13.384710311889648,-13.807543754577637,1.1078606843948364,-3.79582142829895,-14.31600570678711,9.982027053833008,6.983127593994141,1.8652387857437134,0.18138818442821503,-10.917527198791504,0.6910601854324341,12.809455871582031,14.074512481689453,-1.5309890508651733,13.867386817932129,-14.671603202819824,-14.223954200744629,1.6442335844039917,13.29701042175293,14.385842323303223,14.263870239257812,4.261532783508301,-13.907115936279297,-13.950273513793945,9.703780174255371,-14.200419425964355,-4.034137725830078,-0.4303225576877594,14.184802055358887,-13.794014930725098,13.645390510559082,14.465478897094727,-4.64465856552124,1.1740607023239136,-13.049731254577637,14.23714828491211,-17.628761291503906,-13.493614196777344,1.3745920658111572,-8.821892738342285,4.553491592407227,2.8888094425201416,7.069099426269531,0.17930921912193298,10.443603515625,13.365996360778809,11.663545608520508,-8.997651100158691,4.767810344696045,-2.2441465854644775,6.159934997558594,-3.6935017108917236,16.385387420654297,2.3173346519470215,-2.348989486694336,-11.660835266113281,-13.12064266204834,-8.999800682067871,1.1811460256576538,14.517855644226074,7.034836769104004,5.507545471191406,3.1947438716888428,8.755602836608887,3.004889488220215,3.9867680072784424,-2.285421848297119,-5.282967567443848,-3.5628464221954346,6.679720878601074,11.404040336608887,-12.814616203308105,4.88031005859375,-11.75023078918457,5.307805061340332,7.765516757965088,-6.943225383758545,1.5734803676605225,-7.267640113830566,-5.767853736877441,-1.3748679161071777,5.437712669372559,13.474581718444824,4.111512660980225,-9.141883850097656,9.66610050201416,5.447170734405518,-10.3764009475708,7.816138744354248,1.9581507444381714,-4.550754547119141,1.186632752418518,-1.3960624933242798,9.269545555114746,-9.440532684326172,-0.32334432005882263,11.150225639343262,5.847233772277832,5.99392032623291,0.43929749727249146,-5.00845193862915,7.082554340362549,4.103877544403076,1.9102060794830322,3.5721163749694824,3.2582199573516846,-1.9012818336486816,3.3612923622131348,0.97308349609375,5.184864044189453,1.880653977394104,-3.300473928451538,1.5650990009307861,5.801923751831055,-2.083394765853882,4.55810546875,-2.645970106124878,0.806993305683136,-3.3906900882720947,-5.081974983215332,-3.737354278564453,5.218176364898682,2.2323789596557617,5.391615867614746,3.510524272918701,-1.8177613019943237,-2.524203300476074,1.801063895225525,-9.85312271118164,6.177398204803467,3.4533650875091553,0.021490365266799927,-2.4022979736328125,-1.0263760089874268,-6.907947063446045,-8.127201080322266,-3.2355685234069824,-1.3562673330307007,-1.356343150138855,-3.399212598800659,-3.672814130783081,-3.629990577697754,7.045485019683838,0.8450596928596497,4.949610710144043,6.04567289352417,-0.14999940991401672,3.5826971530914307,-1.6059201955795288,2.122095823287964,3.7133138179779053,-6.532189846038818,-7.50399923324585,0.9075604677200317,1.4868180751800537,-4.358585834503174,-6.572373390197754,-12.563969612121582,-9.96782398223877,6.428131580352783,-1.486749529838562,-11.766542434692383,4.22411584854126,5.983891487121582,-13.028705596923828,-1.9420912265777588,-0.2760429084300995,-1.780375599861145,-6.746213436126709,0.1881980299949646,12.345808029174805,8.450769424438477,-5.067290306091309,8.01208209991455,-10.267574310302734,5.596217632293701,-6.150050163269043,7.600571155548096,11.378129959106445,6.83057165145874,-11.125408172607422,3.1691408157348633,-5.225632190704346,-1.6162800788879395,3.1747307777404785,7.846639633178711,9.027099609375,10.82582950592041,-8.355420112609863,-8.729040145874023,1.9377760887145996,6.085546493530273,8.164308547973633,8.847949981689453,7.408550262451172,-3.5519330501556396,2.167470932006836,-7.796827793121338,6.30914306640625,12.212809562683105,7.669705867767334,-13.768430709838867,5.029577255249023,-6.2248053550720215,-11.320975303649902,-1.8630542755126953,0.3027389347553253,-4.871240139007568,-8.341388702392578,-12.091537475585938,10.592013359069824,14.763554573059082,-1.6243196725845337,-1.6754977703094482,5.798197269439697,8.401252746582031,-5.578423023223877,2.617500066757202,-0.24869932234287262,-4.064140319824219,-4.00021505355835,-3.283804416656494,-3.981198310852051,-0.12955649197101593,5.1620564460754395,-1.073623538017273,2.8540494441986084,-4.415738582611084,2.4873759746551514,-3.0642435550689697,-4.52064847946167,1.0264289379119873,1.7315419912338257,4.1995086669921875,-1.7373461723327637,0.4087667167186737,-1.9615215063095093,2.0055065155029297,4.022139549255371,-4.7025146484375,1.045580267906189,-5.370748519897461,-6.805074691772461,4.847268104553223,6.176677703857422,2.093141794204712,4.952047348022461,-4.883345127105713,4.836370944976807,-5.193954944610596,3.182732343673706,-1.7038651704788208,-1.1938347816467285,3.31361722946167,6.663112640380859,5.202616214752197,2.327075481414795,4.148620128631592,3.1353933811187744,1.56913423538208,-6.052880764007568,-5.694431781768799,-4.2128119468688965,-4.195333957672119,2.890550136566162,-8.238384246826172,4.423943519592285,0.9886383414268494,-5.068002223968506,4.372628688812256,-1.664503574371338,8.195929527282715,-5.166937351226807,2.1123769283294678,4.461033821105957,-1.4527031183242798,6.926205635070801,2.238119125366211,-2.7541282176971436,-1.1419752836227417,-5.5248613357543945,-9.75803279876709,-7.597156524658203,-0.22813783586025238,0.6155402660369873,-2.205995798110962,-2.4677670001983643,0.3445218801498413,-8.575160026550293,0.4616950750350952,-2.39066219329834,-0.09804229438304901,9.366053581237793,3.6729960441589355,-0.7073615193367004,1.5842580795288086,-2.741898775100708,7.070643424987793,-8.973628997802734,1.5798829793930054,-3.7526957988739014,-10.301459312438965,9.722328186035156,6.702446937561035,-3.2130703926086426,-1.6188966035842896,-1.8432385921478271,7.956977367401123,-7.01143217086792,4.994796276092529,-2.6150636672973633,-4.19887638092041,6.282382011413574,2.5530574321746826,0.4229121208190918,-0.3008621633052826,2.2504706382751465,0.8628433346748352,1.7127463817596436,-2.4865684509277344,1.957686185836792,-1.4789363145828247,-0.03337095305323601,-1.0931004285812378,1.9151307344436646,0.4893725514411926,0.8760823011398315,-9.21690559387207,1.8040951490402222,-0.19323256611824036,-0.7185357213020325,-8.219880104064941,0.26552513241767883,1.434341311454773,21.899221420288086,-8.812599182128906,2.7471489906311035,12.663596153259277,2.6965348720550537,14.558154106140137,6.1898651123046875,15.563435554504395,-7.924143314361572,13.246301651000977,-6.153225421905518,4.959157466888428,11.786227226257324,4.61632776260376,7.527689456939697,-2.860649585723877,-13.219245910644531,-5.636987686157227,-14.460325241088867,-3.3925492763519287,4.644125461578369,3.731773853302002,-16.29755401611328,12.69033145904541,6.168022632598877,11.113946914672852,5.664955139160156,-8.4992036819458,4.622143745422363,-17.656906127929688,-7.1178483963012695,14.435391426086426,-7.310586929321289,11.87624740600586,-11.132705688476562,-2.6427905559539795,4.497298240661621,-9.59975814819336,-4.9383063316345215,-12.243897438049316,-9.464519500732422,-15.677303314208984,-6.133246421813965,0.6692119836807251,9.721733093261719,8.98180866241455,11.120940208435059,-0.23554489016532898,-8.970562934875488,11.458663940429688,-5.564178466796875,-8.159550666809082,11.65268611907959,-11.405872344970703,0.7622515559196472,-7.905513286590576,-7.3365797996521,-0.754285454750061,-13.428484916687012,47.465457916259766,-14.982579231262207,-25.334970474243164,21.706403732299805,32.56182861328125,-6.029472351074219,0.6892189979553223,4.4546732902526855,14.963078498840332,4.395678997039795,-0.7439727783203125,22.636978149414062,21.145200729370117,-1.9070725440979004,-5.583114147186279,14.253499031066895,-21.359615325927734,3.4915599822998047,-3.191000461578369,12.174886703491211,-23.44321632385254,-25.251523971557617,-17.38711166381836,22.12720489501953,-12.60824203491211,26.490671157836914,3.831127166748047,1.512371301651001,-23.728729248046875,-18.32049560546875,-17.53009033203125,19.593679428100586,1.4023866653442383,1.423618197441101,-22.435373306274414,3.077728033065796,-22.667905807495117,-21.304393768310547,7.364688396453857,-12.141484260559082,14.638445854187012,-20.431364059448242,-39.84166717529297,-29.354755401611328,24.375049591064453,-5.734310626983643,20.2088565826416,11.627022743225098,11.17957878112793,-5.014398097991943,-2.5623672008514404,29.474220275878906,11.812336921691895,-18.231393814086914,-25.992223739624023,23.58144187927246,7.062456130981445,-26.005666732788086,-16.716541290283203,6.583508491516113,-2.9377410411834717,-5.5136189460754395,2.8527767658233643,6.79970121383667,-1.2540291547775269,0.024422863498330116,-4.665163993835449,3.97357177734375,-6.603569507598877,6.951771259307861,4.460232734680176,-2.055649995803833,-4.017876148223877,1.0861022472381592,8.165753364562988,9.165895462036133,4.659908771514893,8.158732414245605,6.001418113708496,-7.027839660644531,-7.565876007080078,-10.255387306213379,8.782487869262695,-8.540419578552246,6.137773513793945,10.37186050415039,-9.60529613494873,-7.073150634765625,8.775532722473145,-10.271626472473145,4.192050457000732,5.81258487701416,7.817398548126221,7.428972244262695,1.619218111038208,-6.722971439361572,-4.311624050140381,6.939343452453613,7.587300777435303,6.05239200592041,-9.771023750305176,-6.524796485900879,-7.766725063323975,6.916053771972656,10.813392639160156,2.346618175506592,7.417873859405518,7.769355297088623,-5.223010063171387,6.327465534210205,6.197603225708008,10.223361015319824,-7.34938383102417,-3.4031224250793457,6.818079948425293,4.604333400726318,-7.069762706756592,-10.188239097595215,-8.158487319946289,-7.7581892013549805,2.261904716491699,1.9962639808654785,0.6289979815483093,12.72724723815918,-6.558193683624268,11.92841625213623,-11.236133575439453,3.6657848358154297,-15.505942344665527,5.7916669845581055,2.385932445526123,7.818718910217285,11.978439331054688,-16.158405303955078,-8.710938453674316,-7.64771842956543,3.816812515258789,2.1807003021240234,15.74654483795166,15.19394302368164,4.124980449676514,-7.611317157745361,11.496683120727539,-7.166502952575684,-7.488343715667725,8.262760162353516,16.352861404418945,-1.3060202598571777,12.662636756896973,-9.036772727966309,-3.6468656063079834,5.0140910148620605,-11.154986381530762,-1.9770987033843994,10.414412498474121,9.671138763427734,-11.798771858215332,-14.416282653808594,1.8818740844726562,10.835274696350098,11.057857513427734,9.616327285766602,-10.108695983886719,12.797816276550293,-10.188780784606934,-9.825223922729492,-2.023083209991455,6.9339070320129395,-17.332700729370117,-4.724629878997803,-6.916741371154785,7.29369592666626,10.610916137695312,-4.426732063293457,-8.275213241577148,-0.2461434155702591,9.193695068359375,-16.938302993774414,-28.971555709838867,13.660823822021484,-9.852407455444336,4.853353500366211,-9.15615177154541,10.063077926635742,-7.386308670043945,-10.407958984375,31.127063751220703,-33.85072708129883,-12.070554733276367,6.453185558319092,9.871484756469727,30.77588653564453,-33.48015213012695,-9.975318908691406,-10.31051254272461,-11.796372413635254,-27.217220306396484,33.84601974487305,34.271968841552734,12.020761489868164,-12.069355964660645,30.82065200805664,-11.653701782226562,-12.74060344696045,9.776856422424316,-6.164855003356934,9.979142189025879,14.057829856872559,-12.809499740600586,-0.8223649859428406,-11.732163429260254,-10.438424110412598,9.978832244873047,8.724924087524414,13.02314281463623,-30.46182632446289,-12.017781257629395,-11.412910461425781,12.351358413696289,34.0344352722168,14.086616516113281,-14.730244636535645,31.377479553222656,-11.609453201293945,-9.19815731048584,-33.20034408569336,30.88675308227539,-32.296749114990234,-12.47614860534668,-10.586341857910156,-10.178199768066406,18.309518814086914,-16.95616912841797,9.168180465698242,28.725156784057617,9.233635902404785,-4.898584365844727,1.2647004127502441,9.314387321472168,0.2185257375240326,-26.063453674316406,-0.9594479203224182,25.834733963012695,15.735482215881348,-18.253202438354492,19.011188507080078,6.56854772567749,-28.783466339111328,-18.258848190307617,-3.512982130050659,10.490326881408691,0.51691734790802,-21.608070373535156,-11.013104438781738,-40.441650390625,-33.68144989013672,-0.9358969926834106,15.322685241699219,-25.850093841552734,3.6373424530029297,16.84151268005371,5.81219482421875,23.6420841217041,-26.10179901123047,-18.64897346496582,11.050623893737793,-1.3269896507263184,10.176313400268555,-9.567547798156738,7.030024528503418,-17.534412384033203,39.057106018066406,19.781494140625,-14.43667221069336,-4.0220794677734375,-14.184096336364746,-35.05430603027344,-20.258779525756836,15.58137035369873,2.8980178833007812,21.43572235107422,5.242730140686035,15.350101470947266,28.406755447387695,-23.451557159423828,21.513296127319336,3.7653658390045166,-18.759702682495117,19.963504791259766,-35.6926155090332,-6.514446258544922,-5.685797214508057,20.50146484375,43.136356353759766,-20.223594665527344,5.097229957580566,8.693693161010742,-4.957983493804932,-3.6317877769470215,4.902238368988037,-5.397025108337402,-3.2990784645080566,-6.199710369110107,5.8532328605651855,-3.4368600845336914,4.15140438079834,-4.33835506439209,-6.2382121086120605,-5.864809036254883,-1.8408057689666748,-1.598289966583252,7.864255905151367,2.4855854511260986,5.198581695556641,3.75736665725708,-6.195187091827393,-4.326095104217529,-0.7323986887931824,2.9747979640960693,-5.630971431732178,-2.1612157821655273,-4.649510860443115,4.354043960571289,-4.762915134429932,2.855313777923584,-5.307058811187744,-4.858534812927246,5.331634521484375,-5.2049560546875,3.707768440246582,6.997684478759766,3.785304307937622,-2.7937443256378174,-2.4325737953186035,0.6245914101600647,1.6002964973449707,3.108062744140625,-3.8830254077911377,-5.38466739654541,-6.174798488616943,-0.9872499704360962,-5.420797824859619,-7.446065425872803,2.167182207107544,-5.273004055023193,1.911771535873413,-0.21317273378372192,-9.16049861907959,4.326699256896973,-6.064454078674316,3.338744878768921,-1.3341776132583618,3.488442897796631,5.683745861053467,19.308515548706055,-4.866529941558838,-21.204261779785156,7.800135135650635,19.008708953857422,6.286020278930664,-6.5395050048828125,-2.920912981033325,-2.6070938110351562,-7.109114646911621,-3.1300792694091797,15.55077838897705,-6.467799186706543,-0.5603947043418884,2.44905161857605,19.817848205566406,16.56651496887207,10.923334121704102,8.958528518676758,21.84821891784668,-1.545337438583374,-12.517154693603516,-15.832921981811523,18.179977416992188,-18.2205867767334,15.849869728088379,13.423298835754395,5.742910385131836,-0.48744797706604004,-26.253036499023438,-17.164257049560547,9.018267631530762,12.264741897583008,14.989287376403809,20.760169982910156,-5.583464622497559,-19.26666831970215,-8.101085662841797,-3.5226266384124756,-21.40073013305664,14.2620267868042,-16.428747177124023,-19.154272079467773,-17.85850715637207,21.509851455688477,8.117208480834961,1.8461195230484009,-10.81393051147461,19.10304069519043,0.6215822696685791,-4.899081707000732,10.21943473815918,-12.018247604370117,5.3416056632995605,-2.1986446380615234,-4.83083438873291,-4.405070781707764,-17.927431106567383,-18.1788330078125,-10.306204795837402,9.550108909606934,-11.419434547424316,-30.99858856201172,-10.571613311767578,-12.901643753051758,-10.297142028808594,-25.66299819946289,-6.614714622497559,9.625993728637695,-8.215658187866211,-31.297014236450195,-22.764780044555664,-27.88432502746582,10.336112022399902,13.113227844238281,15.270441055297852,31.330659866333008,8.920942306518555,12.398140907287598,-10.92889404296875,10.29977035522461,17.209962844848633,-8.22520923614502,5.433562278747559,-31.564359664916992,-31.659366607666016,29.90201187133789,7.649681091308594,9.09676742553711,10.467477798461914,-30.467864990234375,12.124317169189453,-13.527705192565918,17.579565048217773,10.394903182983398,9.913447380065918,1.4026234149932861,0.699672520160675,12.625570297241211,11.488393783569336,31.33379364013672,9.659494400024414,10.364947319030762,-7.166551113128662,-12.035343170166016,-28.01669692993164,-31.94245147705078,15.148365020751953,5.946370601654053,32.78874969482422,-4.498073577880859,-29.66464614868164,20.870534896850586,-9.691934585571289,12.736578941345215,-10.542067527770996,-2.073641300201416,30.764123916625977,-25.247392654418945,0.556958019733429,19.905515670776367,-6.62886905670166,-21.78960418701172,-19.107379913330078,-9.717361450195312,-11.045856475830078,5.045742511749268,4.6421732902526855,-21.589420318603516,-10.48326301574707,-5.2666096687316895,5.477472305297852,-5.420502185821533,-2.4486916065216064,15.63162899017334,2.2109572887420654,-3.1336276531219482,-13.308066368103027,15.364276885986328,10.817766189575195,17.61710548400879,-15.746221542358398,-4.607495307922363,-11.638802528381348,-10.632502555847168,7.797458171844482,6.692087650299072,20.74008560180664,16.99390411376953,-10.14072322845459,-8.56722354888916,-16.73236083984375,6.881721496582031,-0.27720388770103455,-1.6801955699920654,17.913663864135742,7.070170879364014,14.747516632080078,8.771814346313477,11.144381523132324,11.253128051757812,22.29047203063965,-14.314292907714844,-14.954277992248535,-8.006494522094727,-2.020718574523926,-5.846078395843506,-1.335593819618225,3.811721086502075,3.106079578399658,-13.622979164123535,3.8188984394073486,11.352075576782227,-1.3999913930892944,-9.673792839050293,12.646703720092773,6.137027263641357,-0.718271017074585,0.318753182888031,1.1852025985717773,-2.7475924491882324,0.805560827255249,3.015990972518921,-4.5282063484191895,0.9187393188476562,2.6913788318634033,-3.1250836849212646,-4.944859027862549,-2.1364312171936035,5.887524604797363,-3.0865700244903564,0.799049973487854,-2.018507242202759,-4.45407247543335,4.307754039764404,0.9716301560401917,2.6522676944732666,-0.4913761019706726,-1.284382700920105,3.921865701675415,-3.248736619949341,2.19187593460083,-5.75986385345459,-8.09830093383789,5.32904052734375,0.6027663350105286,-6.042426109313965,1.0891435146331787,-4.92493200302124,6.842861652374268,-6.866287708282471,8.788951873779297,-4.558384895324707,-2.1071536540985107,2.5745439529418945,0.6093485951423645,6.398123741149902,5.667486190795898,5.81447172164917,-0.5701985955238342,0.1591765135526657,-2.5399134159088135,5.619728088378906,-6.3325910568237305,1.792909026145935,-4.483207702636719,-8.06479263305664,-0.956228494644165,7.509647369384766,-3.5146944522857666,0.7134385108947754,-4.080171585083008,3.5908119678497314,-0.05622607469558716,-5.485042572021484,7.0909104347229,9.48332405090332,0.1296546459197998,-4.537252902984619,-0.8846286535263062,18.93898582458496,-0.5975033640861511,-20.724462509155273,-20.27434539794922,1.6833698749542236,-0.5575918555259705,0.23366481065750122,-21.355972290039062,0.21172934770584106,-19.339815139770508,-15.726076126098633,0.20973439514636993,18.572099685668945,11.996461868286133,19.426227569580078,3.2448947429656982,-0.7471365332603455,-3.961268424987793,21.361108779907227,-21.3857479095459,-1.1559172868728638,-20.809688568115234,-18.993785858154297,20.701345443725586,-0.44397982954978943,-21.02819061279297,21.29619026184082,-20.075651168823242,20.082874298095703,-14.399356842041016,0.45173192024230957,-1.235237956047058,-0.5028114914894104,21.474885940551758,0.14655759930610657,0.37606096267700195,0.3901175260543823,20.50646209716797,-0.7949919104576111,-2.2971222400665283,-6.602255821228027,-0.8086344003677368,-21.000812530517578,-21.425243377685547,0.5806931853294373,-3.8560304641723633,0.16491682827472687,0.565875768661499,-21.504575729370117,21.254838943481445,-0.6037166714668274,0.18538741767406464,-14.683136940002441,-0.4169190227985382,21.340646743774414,20.332483291625977,28.405529022216797,-21.83033561706543,-11.411581993103027,0.9572932124137878,12.735149383544922,-23.881038665771484,-8.016219139099121,20.293399810791016,-13.400931358337402,7.531736850738525,-27.134929656982422,-0.44285622239112854,-31.384307861328125,14.00684928894043,12.78295612335205,-3.1865668296813965,35.644405364990234,28.839262008666992,20.87296485900879,-23.54697036743164,3.008575677871704,-1.5186104774475098,-27.906774520874023,21.78443145751953,-31.366455078125,-29.630748748779297,25.60414695739746,-17.101890563964844,-26.732213973999023,19.17447280883789,-10.206727027893066,28.330608367919922,8.114824295043945,24.741222381591797,8.754637718200684,-26.33506202697754,17.31599235534668,18.686016082763672,-22.631502151489258,-23.0003662109375,30.3359375,0.6267543435096741,-27.3153133392334,-4.4900336265563965,14.683979988098145,-4.777719497680664,-6.485341548919678,21.41672134399414,-1.4966018199920654,15.77264404296875,8.749566078186035,-6.891040325164795,-3.7770469188690186,-25.857370376586914,-17.005910873413086,-5.681025505065918,-5.883904457092285,8.101994514465332,11.911274909973145,10.000641822814941,-11.999561309814453,-10.011129379272461,11.353507041931152,-11.154297828674316,-10.357868194580078,-10.384346961975098,11.371892929077148,-10.93773078918457,11.123991012573242,-11.189921379089355,10.434081077575684,-10.615547180175781,-11.397651672363281,10.878873825073242,10.931376457214355,10.037931442260742,10.678962707519531,10.87440013885498,-11.749749183654785,-11.337749481201172,10.380836486816406,-10.805329322814941,-10.952397346496582,-9.617486000061035,-10.05128288269043,9.619837760925293,-11.510481834411621,-10.612369537353516,9.966782569885254,-11.783782005310059,10.948732376098633,-10.900369644165039,10.700800895690918,-11.119486808776855,-11.720765113830566,11.766189575195312,10.76189136505127,10.967074394226074,10.700234413146973,9.610786437988281,-11.03897762298584,-11.692922592163086,5.960021495819092,-10.458613395690918,-10.680048942565918,-10.36628532409668,10.659070014953613,-11.069625854492188,10.248074531555176,10.932775497436523,-10.260544776916504,10.45563793182373,-12.006566047668457,10.814983367919922,-9.20952320098877,-10.679682731628418,9.906825065612793,11.310261726379395,6.891122341156006,-10.700753211975098,9.398322105407715,10.828356742858887,-0.4433392584323883,-8.205022811889648,-8.97668743133545,9.460713386535645,-9.899589538574219,10.243796348571777,9.959501266479492,10.080659866333008,-0.24783730506896973,-4.062628269195557,10.021936416625977,9.382820129394531,9.961701393127441,10.418137550354004,10.762152671813965,-10.48989486694336,-10.597090721130371,2.5697124004364014,1.0157712697982788,-10.025002479553223,10.056299209594727,9.858580589294434,-2.753673791885376,-9.417838096618652,-10.122426986694336,8.38160228729248,9.980198860168457,9.493513107299805,-3.533294200897217,10.177674293518066,-9.849916458129883,-11.358278274536133,-7.9643707275390625,10.21725845336914,9.0293550491333,9.798715591430664,-9.629331588745117,-9.954416275024414,-9.771797180175781,10.335301399230957,9.356226921081543,9.713058471679688,-2.628988265991211,10.499119758605957,-9.527069091796875,9.12194538116455,9.57398796081543,8.70211124420166,3.5057873725891113,-5.55586051940918,10.55718994140625,8.39262866973877,-10.801085472106934,-8.496386528015137,0.06106477975845337,0.006898877676576376,-0.07059235125780106,0.059557341039180756,-0.07337655127048492,0.061671651899814606,-0.07276606559753418,-0.051157135516405106,0.029690099880099297,0.05578544735908508,-0.06971951574087143,0.03435525670647621,0.05486669763922691,-0.04413830488920212,-0.06533687561750412,0.024053968489170074,-0.03695133700966835,-0.029532453045248985,-0.0139699075371027,0.05988486111164093,-0.01103230006992817,0.03978908807039261,-0.07473263889551163,-0.07080737501382828,0.027340974658727646,0.07546817511320114,0.016847772523760796,0.03723524138331413,0.00000568236100662034,0.009721173904836178,0.002876432379707694,0.023098228499293327,-0.004798112902790308,-0.06396343559026718,0.06700003892183304,0.04678736627101898,0.07560284435749054,-0.0242860559374094,0.0013909629778936505,0.003476340789347887,0.07861224561929703,0.046496737748384476,-0.027475519105792046,-0.040204986929893494,0.02389858104288578,0.063724085688591,0.041761044412851334,-0.023601315915584564,-0.07238952070474625,0.03358141705393791,0.00634561013430357,-0.015023527666926384,-0.020168224349617958,-0.023231929168105125,-0.043955106288194656,-0.057408858090639114,-0.007721244357526302,0.061469171196222305,0.011239856481552124]},"hiddenLayers":[{"inputMatrix":{"rows":20,"columns":59,"weights":[0.08072139322757721,1.1125025749206543,-0.5394855737686157,0.5309827327728271,0.3427722454071045,1.748552680015564,0.39538049697875977,0.780882716178894,-0.019221138209104538,0.3892730474472046,0.13847289979457855,1.9199684858322144,-0.6641603112220764,-0.37180450558662415,-0.2174764722585678,0.4130512773990631,0.7377035617828369,0.45916250348091125,0.43161872029304504,0.6871548891067505,0.1250421106815338,0.1385478675365448,-1.8871690034866333,1.6463254690170288,-1.2956823110580444,1.8041622638702393,1.5780277252197266,-1.5073250532150269,-0.7083791494369507,0.3790258765220642,-0.4705255925655365,0.6083202958106995,0.3359021842479706,1.8303173780441284,-0.2259114533662796,0.9933138489723206,-0.2566392719745636,-0.0974138155579567,0.6616126298904419,-0.5361075401306152,-0.3852103650569916,-2.0831973552703857,-0.26748207211494446,0.043525923043489456,1.000264048576355,-1.5494835376739502,0.31163862347602844,1.8051786422729492,0.06293650716543198,-1.2636322975158691,0.5022680163383484,-0.9373465180397034,1.1154534816741943,-0.6151807904243469,-0.732962429523468,-0.22507621347904205,1.636430025100708,0.03915804252028465,0.0034635576885193586,-0.455679714679718,-0.14140725135803223,0.4316560626029968,0.14997288584709167,-0.27481284737586975,0.385795921087265,1.080469012260437,0.26804423332214355,-1.321244478225708,0.309160441160202,-0.45931583642959595,0.48253458738327026,-0.621380090713501,0.34484392404556274,0.907978355884552,-0.7076717019081116,-0.808672308921814,-0.7742742300033569,-0.1970738172531128,-0.5117164254188538,0.38571617007255554,0.24811062216758728,-0.6611278057098389,0.6787238717079163,0.6906312108039856,0.3792150616645813,0.4310971796512604,-0.8819407820701599,-0.06286973506212234,0.35742101073265076,-0.3992975354194641,0.3883354663848877,-1.1446092128753662,0.5187326073646545,-0.9220527410507202,0.8832298517227173,0.7244782447814941,-0.45020779967308044,-1.4857800006866455,-0.8602445125579834,-0.8624401092529297,-0.08558399230241776,0.3027358651161194,0.3870044946670532,0.1935548186302185,0.764249324798584,0.6249017119407654,0.3085051476955414,-0.8595330715179443,1.2596983909606934,-0.8142350912094116,-0.4475116431713104,0.7070326209068298,-0.5505511164665222,0.3933693766593933,-1.1378910541534424,0.9535987973213196,0.41087645292282104,-0.21170054376125336,-1.411224603652954,0.7779337167739868,1.2338794469833374,-0.35552600026130676,-1.1417186260223389,0.342765212059021,0.6177748441696167,0.3826107978820801,-1.0504087209701538,1.3930752277374268,-0.3602501153945923,-0.8716362118721008,-1.5928623676300049,-0.13168643414974213,0.6489961743354797,-1.1795705556869507,0.4570259749889374,-0.5699971318244934,-0.5791764259338379,-1.1387759447097778,0.7052978277206421,1.1678074598312378,-0.3287000358104706,-0.41625067591667175,1.971826195716858,-0.9407093524932861,0.4208209216594696,-0.03311916068196297,0.6679380536079407,0.8985340595245361,-0.45439770817756653,-0.8596076965332031,-0.12048900127410889,0.6020838618278503,0.48947882652282715,0.007382671348750591,0.6059153079986572,0.20743097364902496,-0.6847532391548157,-0.8830353617668152,-0.8256726861000061,0.5035163760185242,1.6650768518447876,0.8066338300704956,-0.8675300478935242,0.9366758465766907,-0.6906037330627441,0.6828819513320923,-1.0443055629730225,0.9341944456100464,-0.09037066996097565,-1.150562047958374,0.9766930341720581,-0.1924123913049698,1.210588812828064,-2.127300262451172,-0.44853532314300537,1.5780963897705078,-0.44336381554603577,-2.064913272857666,0.826198935508728,1.7701181173324585,-0.13924762606620789,-1.7158387899398804,-0.18321970105171204,0.6574510335922241,-0.2622411251068115,0.5632344484329224,-0.4674527645111084,0.12651927769184113,-0.33809810876846313,-0.17208239436149597,2.3012197017669678,-0.7386044263839722,-0.44147053360939026,0.33221226930618286,-0.8852337598800659,0.08351137489080429,-0.2619410753250122,0.6272600889205933,0.27501529455184937,0.8551538586616516,-0.5579327940940857,-0.481295645236969,-0.31525859236717224,0.7633718252182007,-0.4849981963634491,-0.14722014963626862,0.9607955813407898,2.039820671081543,0.07224801182746887,-2.2297475337982178,0.16656072437763214,0.1486726552248001,0.6819145679473877,0.6526380777359009,1.316022515296936,0.6480563879013062,0.46830087900161743,0.878659188747406,-0.46057528257369995,0.5701150298118591,1.724768877029419,-0.25124430656433105,-0.6207740306854248,0.22472086548805237,-0.12331674247980118,-0.45143845677375793,-0.5915512442588806,0.5596159100532532,0.3604215383529663,0.21661272644996643,1.169744610786438,3.1005353927612305,-0.18706227838993073,0.5412330031394958,1.3312822580337524,1.6141868829727173,1.1216100454330444,-0.21484072506427765,-0.7490629553794861,-0.25252583622932434,1.83004891872406,-0.01760869100689888,-0.15123626589775085,-0.2503281533718109,1.4014338254928589,-1.4237221479415894,0.2793203890323639,0.22422757744789124,1.674657940864563,-0.24210689961910248,-1.3204373121261597,0.28587016463279724,0.32306841015815735,0.17011970281600952,0.3444480299949646,1.7786656618118286,-0.46544691920280457,-1.065293788909912,0.024059278890490532,0.17156238853931427,-1.0989220142364502,-0.373760461807251,-0.5447024703025818,-0.20765434205532074,-1.2574461698532104,-1.3661155700683594,0.5249741077423096,-0.09922299534082413,0.6461261510848999,-0.8704103231430054,0.8788342475891113,-1.4361300468444824,-0.6937163472175598,-0.631113588809967,0.4205872118473053,1.0572327375411987,1.3773499727249146,0.030879469588398933,-1.7172136306762695,-0.9268946051597595,-0.011795809492468834,-0.030610358342528343,-0.2452535331249237,-0.21586322784423828,0.773661196231842,-1.179922103881836,0.7357828617095947,1.189927577972412,-0.017386380583047867,0.7915701866149902,-1.2394530773162842,2.271040439605713,0.08488627523183823,-1.2066841125488281,0.4083775579929352,0.8648049235343933,-0.33753684163093567,1.174068570137024,-0.13616059720516205,-0.04398965463042259,1.4320985078811646,-0.8293735980987549,1.3278896808624268,-0.7383385300636292,1.0032697916030884,-0.9877407550811768,0.7111624479293823,-0.050336550921201706,-0.15500080585479736,-0.4421216547489166,-1.507982611656189,-1.8914027214050293,-0.6423988938331604,-1.16472327709198,-0.22808876633644104,0.47725459933280945,-0.025094443932175636,-0.9917933344841003,0.8530529141426086,0.6387935280799866,0.12243723124265671,-0.03673427179455757,-0.3044908344745636,0.5058363676071167,-0.6458827257156372,-0.6929633617401123,1.0531046390533447,-0.21385018527507782,0.3284861147403717,-2.0275094509124756,0.09063435345888138,1.0750068426132202,-1.7578880786895752,-0.7493242025375366,-1.2511969804763794,-0.5816390514373779,-0.3547540307044983,-0.7089051604270935,0.8697191476821899,0.9979698657989502,0.41473981738090515,0.4632551670074463,1.1037166118621826,-1.5678973197937012,1.8840715885162354,-0.6697842478752136,-0.435504674911499,0.6276417970657349,-0.8400366306304932,-0.4998970329761505,0.3028939962387085,0.2178603559732437,-0.36466553807258606,-0.6761420965194702,-0.6139041185379028,0.1740955114364624,-0.051492564380168915,-0.04497942328453064,-0.8127598166465759,0.9135036468505859,2.4534659385681152,1.331203579902649,0.6484204530715942,0.7717061638832092,1.0261905193328857,-0.14094793796539307,-1.944270372390747,0.08407050371170044,-0.11061058193445206,0.5132202506065369,0.1418047547340393,-0.4176102876663208,-1.5667287111282349,-0.6538206338882446,-0.5644208192825317,0.9679874777793884,-0.38769808411598206,1.0009196996688843,-0.14210864901542664,0.5194544196128845,1.0820051431655884,-0.9897757768630981,0.1472036987543106,1.8692107200622559,0.11057113856077194,0.44429099559783936,-0.17774981260299683,1.584002137184143,-0.8358999490737915,2.390540838241577,0.6970530152320862,-0.408024400472641,-0.006573642138391733,-1.4140092134475708,-1.7841309309005737,-0.7724208831787109,0.5523073077201843,0.7131582498550415,0.1075340136885643,-0.1907520294189453,0.2015782594680786,0.35904982686042786,-0.6757389903068542,-0.359599232673645,0.8301640152931213,-2.4141016006469727,0.40034914016723633,-0.16813161969184875,0.09056873619556427,-0.6230835318565369,1.178727626800537,1.3794053792953491,0.07707172632217407,1.075864315032959,0.6510575413703918,0.11843853443861008,0.1232118159532547,-0.0845598429441452,1.200669288635254,0.010981982573866844,0.6999933123588562,0.28613248467445374,-1.0607576370239258,1.1576063632965088,1.2548918724060059,-0.4994630217552185,0.6190872192382812,-0.8870344161987305,0.522138237953186,-0.3059748113155365,-0.9491190314292908,-0.055619969964027405,0.23744748532772064,-0.5105370879173279,-0.6743302345275879,-0.8894601464271545,1.9208061695098877,-1.5843197107315063,1.3133655786514282,2.2788662910461426,-2.134080648422241,-0.0385885164141655,0.6519504189491272,-0.8147616982460022,1.5437307357788086,-0.7089723348617554,2.260509967803955,-0.32532480359077454,0.9201762676239014,0.6973240375518799,-1.9439555406570435,0.5633898377418518,0.1842346489429474,-0.4012607932090759,-2.7001993656158447,-1.0255279541015625,0.23676812648773193,1.7982268333435059,-0.9170365333557129,1.3209606409072876,0.8376362919807434,0.7331910729408264,-1.3346378803253174,0.9269841909408569,-0.994206964969635,0.8184714913368225,0.6076751947402954,0.059279292821884155,0.14590202271938324,0.5667909383773804,-0.250598669052124,-0.4604226350784302,-1.0765457153320312,0.9361145496368408,0.6445791125297546,-1.0079432725906372,-0.3799022436141968,0.31444045901298523,-1.1231987476348877,0.2624259889125824,0.9021188020706177,-1.506410002708435,0.8256322741508484,-0.2437041699886322,1.49905526638031,-0.32536137104034424,-1.2447080612182617,0.005120139103382826,0.7435917854309082,1.1070892810821533,0.2738099992275238,0.3643188774585724,-1.2897869348526,0.2659800350666046,1.8626117706298828,-1.1529847383499146,-1.4182535409927368,-0.7247280478477478,-0.32899409532546997,0.5357146859169006,1.3238784074783325,-0.2075398862361908,2.6654884815216064,-0.1757032871246338,0.5024251937866211,0.7122952938079834,1.8728948831558228,-1.9527376890182495,0.8046386241912842,1.2507928609848022,1.233839750289917,1.0262019634246826,0.8658186793327332,0.6882736086845398,0.11919000744819641,-0.016680637374520302,-0.5601627826690674,-0.08700550347566605,-0.8295867443084717,-0.4399738609790802,0.9445728063583374,-1.901130199432373,2.729793071746826,-0.424102246761322,-0.41618528962135315,1.7374330759048462,0.504173219203949,2.0214474201202393,-0.5047601461410522,-0.7723813056945801,2.266233444213867,2.48091197013855,-0.7361550331115723,-0.7510426044464111,1.4002314805984497,1.1553038358688354,-0.5581707954406738,0.6969093680381775,-0.5125727653503418,0.3653237819671631,-0.6389734148979187,0.13175460696220398,1.2036844491958618,0.12221435457468033,-0.6037675142288208,-0.8286755681037903,0.44561564922332764,0.6266425848007202,-0.07126639038324356,0.5688534379005432,-0.3752272129058838,-1.4364312887191772,-1.276387095451355,-0.4620496928691864,0.05315785855054855,-0.7616605758666992,1.6922705173492432,1.0390818119049072,-1.0584354400634766,0.7602274417877197,0.02209150418639183,-1.5320138931274414,1.729232907295227,0.0887109562754631,0.48085492849349976,0.6508429050445557,-0.1447475254535675,-0.6656233072280884,0.14154589176177979,-0.5668908953666687,0.3424253463745117,0.6145198941230774,-1.7967534065246582,-1.3014800548553467,-1.673453450202942,0.9434148669242859,0.27747735381126404,1.5586977005004883,0.502670407295227,0.8056700825691223,-0.2790035903453827,0.3068239092826843,0.6769891381263733,1.1865612268447876,0.09517360478639603,-0.8987259864807129,1.5781197547912598,1.6431490182876587,-1.647659420967102,-0.7942814826965332,0.19237641990184784,0.9429600238800049,-0.3625614643096924,0.036401230841875076,-0.008439109660685062,-0.7453340888023376,0.7027284502983093,0.35276857018470764,0.25247639417648315,-0.8893088698387146,1.0504070520401,1.4358603954315186,0.7485564947128296,0.279722660779953,0.030976755544543266,1.0854308605194092,-0.07694440335035324,-0.0003777755191549659,-0.15595585107803345,0.3330167531967163,-0.792299747467041,-0.27019667625427246,-1.2917332649230957,1.7007253170013428,-0.48206236958503723,1.0860896110534668,0.16396573185920715,-0.6306108832359314,-0.8288921117782593,0.634856104850769,-1.4691275358200073,0.8149372935295105,-0.42574068903923035,-0.09236191213130951,0.8254606127738953,-0.482674777507782,-0.8276636600494385,-1.6348785161972046,1.0099481344223022,0.9164357781410217,0.899252712726593,-0.4799019992351532,-0.623701274394989,-0.5089136362075806,0.39724865555763245,-0.57420814037323,0.9859053492546082,1.428788661956787,0.8893958330154419,0.00987040065228939,1.0272032022476196,0.8222820162773132,1.7170782089233398,-1.099197506904602,-0.7243919968605042,1.3059216737747192,0.08173556625843048,-0.8845091462135315,-1.613964557647705,0.8074933290481567,-0.5564768314361572,-1.0799336433410645,1.2868543863296509,0.4196798801422119,0.7472163438796997,2.647153377532959,0.830959677696228,-0.6228335499763489,0.16549812257289886,0.7653837203979492,0.8039947152137756,-1.1612135171890259,-0.5927177667617798,0.8132569789886475,0.8561241626739502,0.07795681059360504,-1.1220414638519287,-0.309868723154068,-0.12858512997627258,-0.4117438495159149,-0.28886595368385315,-1.6090872287750244,1.8997539281845093,-0.13939018547534943,1.9445205926895142,1.7815712690353394,-1.9481422901153564,-1.2309584617614746,0.7859837412834167,-0.9973194599151611,2.1221227645874023,-0.663765013217926,1.1614488363265991,-0.580855667591095,1.2980103492736816,-0.09443391859531403,-1.8701965808868408,0.20453761518001556,-0.7482997179031372,-1.2955424785614014,-1.413561463356018,-0.5579178333282471,-1.2098743915557861,1.3052932024002075,-0.10526938736438751,2.053069591522217,0.25152966380119324,0.18591901659965515,0.1975756734609604,0.12679994106292725,-0.9411754608154297,0.873741626739502,-0.8985244631767273,-0.7105776071548462,0.2115604728460312,0.1722314953804016,-0.009906423278152943,-0.9682368636131287,-0.2978750765323639,-0.21078945696353912,-0.07845941185951233,0.9112568497657776,-0.037696246057748795,0.08130960166454315,1.1582157611846924,0.027917400002479553,-0.9115136861801147,0.6221611499786377,-0.10660135746002197,0.749638557434082,-0.6704440116882324,-0.2938677668571472,1.1590471267700195,-0.21825721859931946,-0.16954433917999268,-0.2640276849269867,-0.17270605266094208,0.22828805446624756,0.38606345653533936,0.5681847333908081,-1.8111270666122437,0.8141223192214966,1.0105891227722168,0.9383707642555237,0.5685672760009766,-1.517058253288269,-0.38009554147720337,1.69284188747406,-1.3606681823730469,0.834747850894928,0.4436871111392975,0.5093517899513245,0.0676034539937973,0.7581877112388611,-0.21125483512878418,0.14381344616413116,-0.9237272143363953,-0.34589651226997375,-0.8328419327735901,-0.7545867562294006,0.5670721530914307,0.158021941781044,0.18985164165496826,1.2571436166763306,0.9627475738525391,1.1695489883422852,-0.3425394296646118,0.12954606115818024,-1.6178884506225586,-0.8847945332527161,1.7844129800796509,-2.0231873989105225,-0.32712551951408386,-1.0716160535812378,1.1617802381515503,0.4609517753124237,-1.6281204223632812,-0.7441579103469849,-2.0195558071136475,0.5703703165054321,-0.9828068614006042,-1.1975950002670288,-0.9870474934577942,-1.022092580795288,-0.48070842027664185,-0.41033488512039185,-0.41610968112945557,-0.4127964973449707,-1.1133383512496948,-0.45945942401885986,0.6589139699935913,-0.7065398693084717,-0.39262905716896057,-0.031111134216189384,-0.7130810022354126,0.5656856894493103,-0.17899172008037567,0.8959065675735474,0.006683658808469772,1.2829792499542236,-1.817386507987976,0.03346019610762596,-1.0638256072998047,-1.7063238620758057,1.1561676263809204,0.4489917457103729,1.7474608421325684,0.3268387019634247,-0.2853681445121765,0.42962566018104553,-1.7392600774765015,-0.1453748643398285,-0.1317063719034195,-0.5393098592758179,0.3316659927368164,-0.4496598243713379,0.41677144169807434,0.09953253716230392,1.6775380373001099,0.5855888724327087,0.32260698080062866,-1.125191569328308,-0.02894635684788227,-0.786836564540863,-0.3876005709171295,0.09549178928136826,0.29595205187797546,-0.1961427927017212,0.2765829265117645,-1.0086114406585693,1.203528642654419,0.5538205504417419,0.2106223702430725,-1.3061227798461914,0.5059754848480225,1.4465701580047607,-0.6296062469482422,-2.30465030670166,-0.892981767654419,1.325228214263916,1.165527582168579,-0.20233799517154694,-1.1752400398254395,1.0759750604629517,-0.7033772468566895,0.9912531971931458,-1.5321035385131836,0.30580416321754456,1.2383872270584106,-0.8994407057762146,-0.04384898766875267,-1.0147489309310913,-1.0506346225738525,-0.4649387300014496,-0.7665606141090393,0.4883015751838684,0.1460806429386139,0.2863662540912628,-0.5058243870735168,-0.3639323115348816,1.120962142944336,0.21975034475326538,-2.064244031906128,1.2653683423995972,0.8013290166854858,-1.2976857423782349,-0.43894433975219727,1.1626554727554321,1.0517243146896362,-0.0008718441822566092,-0.896061897277832,-2.2449512481689453,-0.28353381156921387,-0.5518065690994263,-1.7725077867507935,-0.5777707695960999,-0.7154883742332458,1.2151633501052856,-0.10236462205648422,-0.8001958727836609,0.25430408120155334,-0.18184448778629303,0.6742331981658936,0.10056734830141068,-0.8175511956214905,1.6983689069747925,-1.5506147146224976,-0.2122572362422943,-0.14885498583316803,-0.719523012638092,-1.2742234468460083,-0.803875207901001,-0.6689162850379944,-0.5320097208023071,-0.1030561551451683,-0.06765971332788467,-1.1963484287261963,0.8526897430419922,-1.1749978065490723,0.004011360462754965,1.3047103881835938,-0.687029242515564,0.08204465359449387,-0.10910780727863312,0.7314788699150085,-1.4105535745620728,-0.720750093460083,-1.21348237991333,-1.1286447048187256,0.5825597643852234,-1.8781107664108276,-0.9021729826927185,-0.1720539629459381,0.1379014551639557,-0.6535376906394958,0.49705615639686584,1.0536489486694336,0.3027227222919464,-0.41099679470062256,1.9082869291305542,-1.210537314414978,-0.8393129706382751,0.5377808213233948,0.5840083956718445,0.5019622445106506,0.1514652669429779,-0.8817622661590576,0.9471629858016968,1.080259084701538,0.2481338381767273,0.6676169633865356,-1.2665338516235352,0.2672770917415619,-1.988458514213562,-0.6537110805511475,-1.3981386423110962,0.7693320512771606,1.5024473667144775,-0.31944477558135986,-0.585195779800415,2.0846951007843018,-1.4755175113677979,-0.012082249857485294,-0.9702317118644714,0.6072396636009216,-1.832590937614441,-0.6346703171730042,-0.06852792203426361,0.4662514626979828,-0.49607524275779724,-2.106269598007202,-0.8356480598449707,0.6270975470542908,0.6277287006378174,0.05911935120820999,2.284550428390503,-1.0678925514221191,0.8483150601387024,0.17022371292114258,0.25647202134132385,1.3213794231414795,0.4174915850162506,-0.25978097319602966,-0.5773416757583618,0.6705102324485779,0.6222942471504211,1.0761250257492065,0.610652506351471,-0.5013559460639954,1.7433977127075195,-0.1054508313536644,-0.9890048503875732,0.4144784212112427,1.4130210876464844,-0.26009175181388855,-1.1014113426208496,-0.8124768733978271,1.131073236465454,-0.8578020334243774,1.1669780015945435,0.813615620136261,-0.9688037037849426,0.009410508908331394,-0.47006672620773315,0.1691967099905014,0.7661599516868591,-1.2406188249588013,-0.09840996563434601,0.5253338813781738,0.00031792387017048895,0.007821466773748398,0.0008138905977830291,1.1241728067398071,0.44793131947517395,1.215877652168274,-0.9850605130195618,-0.6749780774116516,-0.7535133361816406,0.6573867201805115,-1.1682658195495605,0.9064915180206299,0.11476536095142365,1.2575923204421997,-1.1608493328094482,1.555741310119629,0.45785006880760193,0.6630585789680481,-0.593790590763092,1.085370421409607,1.3523386716842651,1.0537972450256348,-1.5654032230377197,-0.5912545919418335,0.5286692976951599,1.137284278869629,0.6233633160591125,0.159798726439476,-0.351871520280838,-0.1270461231470108,1.84498131275177,-0.14860792458057404,-0.03779039904475212,0.17232921719551086,0.8702057003974915,-0.6888589859008789,-1.5553921461105347,-0.07005834579467773,-0.49902400374412537,0.23420371115207672,-0.0652427151799202,-0.3606729805469513,-0.6683146357536316,-1.0424970388412476,-0.5741428136825562,-0.25921377539634705,-1.1714178323745728,0.8214308619499207,-0.29427680373191833,0.8125268816947937,1.9536391496658325,-2.2094435691833496,-1.0331898927688599,0.5574318170547485,-0.8281990885734558,0.9319785833358765,-0.4512445628643036,0.026362663134932518,-0.30300626158714294,1.8327538967132568,0.19669979810714722,-0.44519248604774475,0.2456779181957245,0.06393660604953766,-1.3870375156402588,-1.8219780921936035,-0.42760756611824036,0.2335710972547531,0.6488503217697144,-0.341858446598053,0.8977559208869934,1.3535979986190796,-0.5528967380523682,0.32286199927330017,0.5193179249763489,-0.6961161494255066,1.6230747699737549,-0.7803351283073425,0.30779600143432617,-0.48348239064216614,1.947206735610962,0.6392771601676941,-0.7829774022102356,0.5927966237068176,-0.026297438889741898,-1.3154767751693726,1.1124727725982666,1.5177143812179565,-0.9311943650245667,1.6365593671798706,-1.0858452320098877,1.2344251871109009,-0.8638128042221069,1.335889458656311,1.3856852054595947,-0.15411166846752167,-0.14037379622459412,-1.2485954761505127,1.0112149715423584,1.3157713413238525,-0.18318204581737518,0.4361475110054016,0.9646793603897095,-1.6183663606643677,-0.9378042221069336,0.8134350180625916,0.1316051483154297,-0.6976127028465271,0.7040266394615173,0.10196873545646667,-0.30711036920547485,-2.2101738452911377,-0.4783863425254822,-0.4451374411582947,0.31022366881370544,0.13834019005298615,-0.7733187079429626,0.5643554329872131,-0.1853155493736267,-1.3707275390625,-0.34213531017303467,0.573864221572876,0.9774821400642395,0.10654184967279434,-0.5505043268203735,-0.6291347742080688,-1.3185837268829346,0.5799810886383057,-0.8713400959968567,0.24964867532253265,0.41916972398757935,-0.23505984246730804,-0.608339250087738,0.679561972618103,0.5197877883911133,-0.4865994453430176,1.0738340616226196,-1.3990252017974854,0.8096967935562134,1.0557048320770264,-0.15556739270687103,-0.02230360172688961,-2.2798264026641846,1.2549251317977905,3.24802565574646,-2.016756772994995,-2.2875490188598633,-0.1639610081911087,-0.9012647867202759,0.3848112225532532,-0.3995498716831207,0.765777587890625,-0.7002814412117004,-1.8677289485931396,-1.6771327257156372,-0.18781235814094543,0.31835049390792847,-1.5173474550247192,-0.7209076285362244,0.7244052290916443,-1.0601136684417725,-1.1962709426879883,1.2016149759292603,1.3445429801940918,-0.5185913443565369,0.8693112730979919,0.2458636462688446,-0.9832175374031067,0.39964404702186584,0.6035600304603577,1.1204167604446411,1.7842637300491333,-0.27893224358558655,-1.089738130569458,0.1412990689277649,0.2793983519077301,-0.4365839660167694,0.820216178894043,0.9425986409187317,-0.12060166150331497,0.2771588861942291,0.21970143914222717,-0.16641683876514435,0.39674654603004456,1.0343058109283447,3.219250202178955,-0.7619394063949585,-0.016373872756958008,-0.9596970677375793,0.7863554954528809,-0.37587273120880127,0.25523641705513,0.3527141213417053,-0.4723648726940155,0.3104357123374939,-0.4027142822742462,1.6450682878494263,-0.5549399852752686,-0.9193270206451416,2.4182724952697754,-0.04119597375392914]},"inputHidden":{"rows":20,"columns":20,"weights":[0.7341626882553101,0.4036931097507477,0.9908717274665833,0.5564256310462952,-1.345083236694336,-0.6932519674301147,0.07798934727907181,-0.054252542555332184,0.5296567678451538,-1.575392246246338,0.8868943452835083,0.7939323782920837,0.25285595655441284,-0.8278886079788208,-0.024916037917137146,-0.6011810898780823,0.2729594111442566,0.6369686722755432,-0.09635279327630997,0.3024669587612152,1.2076044082641602,0.6294443607330322,1.0950511693954468,0.4620181918144226,0.12570232152938843,0.3605300188064575,1.2303385734558105,-0.5328095555305481,-1.2607630491256714,-1.054072618484497,0.5733586549758911,0.8671642541885376,0.2809699475765228,-1.7787513732910156,0.6381353735923767,0.9448925852775574,0.847686767578125,0.5031111836433411,-0.4267600178718567,1.1634910106658936,-0.8525382876396179,0.5340355634689331,-0.1375139206647873,-0.20375066995620728,1.3235827684402466,-1.015866756439209,-0.5773729085922241,-0.28416603803634644,-0.034600209444761276,-0.058849744498729706,-0.23570330440998077,-0.5903272032737732,-0.30815067887306213,0.09452357143163681,0.4513571858406067,-0.1803438663482666,-0.920320987701416,0.3228055536746979,-0.30993959307670593,0.787778913974762,-2.338636875152588,-0.5018293857574463,-0.8314343094825745,-1.222434163093567,0.5899179577827454,-1.2173469066619873,-1.5087192058563232,0.987851619720459,-1.088388204574585,1.7093546390533447,-1.6276047229766846,-1.9079012870788574,-0.5374711751937866,-0.49139082431793213,-1.592010498046875,-1.640627145767212,-0.45299190282821655,-0.7456030249595642,0.509580671787262,-0.6419661045074463,-0.017012029886245728,-0.17929044365882874,-0.5996220707893372,0.4658982455730438,1.0776340961456299,-0.39200064539909363,0.5746350884437561,-0.39176493883132935,0.38070571422576904,0.2979109287261963,-0.01716640405356884,0.15602898597717285,0.7137069702148438,0.9803072214126587,-0.12655174732208252,0.43179914355278015,-0.2835666537284851,0.29480165243148804,0.4597642421722412,-0.3817371428012848,0.3753376305103302,0.9660587906837463,0.9700727462768555,0.16565515100955963,-0.35199323296546936,-0.17532171308994293,0.7710970640182495,-0.6098145842552185,0.14709344506263733,-0.3416367471218109,0.5623336434364319,1.3807294368743896,0.5291156768798828,-0.06217891350388527,0.7489131689071655,0.06935320794582367,-0.4936266541481018,-0.11967206001281738,-0.4545106589794159,0.5295420289039612,1.2007944583892822,-0.1620771586894989,0.3329697847366333,-0.2729305028915405,-0.4749700725078583,-0.119055837392807,0.6420944929122925,-0.8208152055740356,-0.5389772653579712,-1.4291386604309082,-0.43988925218582153,0.8411520719528198,0.7175353765487671,-0.45543983578681946,1.4063019752502441,-0.9199886322021484,0.35474857687950134,1.07728111743927,-0.7515724897384644,-0.17345036566257477,-2.0314059257507324,-0.5024959444999695,1.5617492198944092,-1.3807588815689087,-0.12414805591106415,-0.840660035610199,-1.4505527019500732,1.2926498651504517,0.3167364299297333,0.05879053473472595,-1.2425428628921509,-1.5311754941940308,-0.6752722859382629,0.013884379528462887,-0.734381914138794,-0.43931832909584045,-0.04881776124238968,-0.7067801356315613,0.25376662611961365,-1.1444671154022217,-1.0905978679656982,0.1236216351389885,1.1396063566207886,-1.956879734992981,-0.8031935095787048,-1.0200879573822021,-1.2446504831314087,1.4348595142364502,1.900193452835083,-0.00657324492931366,-0.4003755450248718,-0.9783093929290771,-0.5973832607269287,1.5904737710952759,-1.488213062286377,-0.5057764649391174,0.3110337257385254,-0.7253488898277283,0.18880166113376617,-1.172154426574707,-0.3357361853122711,-0.6201062798500061,-0.6342278122901917,-0.14734062552452087,-0.15072712302207947,-0.1624460220336914,0.035398341715335846,0.6607746481895447,-0.09031521528959274,-0.31673669815063477,-0.2679382562637329,-0.5011892318725586,-0.4660125970840454,-0.9377652406692505,-0.11901108920574188,-0.6803911924362183,0.2965161204338074,-1.474568247795105,-1.4478106498718262,0.8927221894264221,0.17122219502925873,0.4931595027446747,0.3477611243724823,0.6598761081695557,-0.6579899787902832,0.580924391746521,0.26099663972854614,0.2284112274646759,0.3347046375274658,0.03786204755306244,0.8946333527565002,-0.1636652648448944,-0.08236600458621979,-0.6142197251319885,0.13043034076690674,-0.19369550049304962,0.015875447541475296,0.9314196705818176,-0.8980465531349182,1.0806632041931152,-2.2762889862060547,